#ifndef NET_H
#define NET_H
float conv1_weight[][75]={
{0.081531905,0.08808438,0.0831532,0.08907773,0.09904687,0.027899846,0.050004628,0.06139709,0.07463677,0.096636154,-0.068046555,-0.043781914,-0.0034304012,0.040961042,0.084369294,-0.17836854,-0.18333112,-0.13186236,-0.055825904,0.0208859,-0.1664715,-0.20454194,-0.17362258,-0.08986815,-0.012875286,0.0905524,0.09907594,0.0918114,0.089573085,0.08779767,0.044097845,0.06044739,0.063225724,0.064884655,0.07818316,-0.013489013,0.001576071,0.01981388,0.03775329,0.06520713,-0.08290897,-0.08326325,-0.05484424,-0.019619042,0.02410116,-0.09477466,-0.11867457,-0.1010508,-0.04595827,0.0012571703,0.085425586,0.097375646,0.09264749,0.093934886,0.09778175,0.02994585,0.053116754,0.06274822,0.07267814,0.093383305,-0.06254027,-0.047649518,-0.016835636,0.022766279,0.07038805,-0.15530546,-0.1742809,-0.14230128,-0.08038216,-0.0038131285,-0.13938509,-0.18689021,-0.1783601,-0.113292634,-0.04105128},
{0.0480629,0.0557102,0.05305823,0.051221017,0.05224868,0.021548953,0.032609697,0.039723538,0.039396025,0.044231903,-0.017898545,-0.016776534,-0.0031569803,0.009976305,0.026769591,-0.060419165,-0.09175332,-0.08969109,-0.06315097,-0.026428811,-0.057406045,-0.10639775,-0.122725956,-0.09658786,-0.054997426,0.052988023,0.061247744,0.0576228,0.054579236,0.051307593,0.029528543,0.03801375,0.041556902,0.037773658,0.03919808,0.0030268035,0.0051282584,0.013338537,0.015756303,0.022889605,-0.02325822,-0.040354647,-0.038208175,-0.027120024,-0.011023339,-0.024335992,-0.058029737,-0.07062657,-0.0541661,-0.030143213,0.051235877,0.062678024,0.062149044,0.059523292,0.057897728,0.025020747,0.037365053,0.04425511,0.04302389,0.04595954,-0.01129902,-0.013234986,-0.0034676515,0.006283544,0.021689625,-0.046468697,-0.07930719,-0.08417651,-0.06522875,-0.03373474,-0.039499823,-0.08877283,-0.11208837,-0.09585154,-0.062001288},
{-0.036436,-0.050688013,-0.05114317,-0.038119044,-0.019058028,-0.03214929,-0.05036441,-0.059095167,-0.04701388,-0.027547128,0.0057373177,-0.002722277,-0.011759803,-0.008078188,0.0005555462,0.03192353,0.03200657,0.02732546,0.025128797,0.021431305,0.036830563,0.03691899,0.033040468,0.02987993,0.025081536,-0.011702537,-0.019001469,-0.01719643,-0.011448262,-0.0026036722,-0.013768815,-0.025575072,-0.031298358,-0.023095578,-0.012703811,0.008764757,0.0019043324,-0.0050047943,-0.0012474953,0.00455,0.029102964,0.030434206,0.027642384,0.026488507,0.022985032,0.034645237,0.03641306,0.03498826,0.032727797,0.028949453,-0.030325659,-0.045498032,-0.048710875,-0.03898043,-0.024031969,-0.026080033,-0.04522646,-0.055503007,-0.0469251,-0.032070022,0.0066158934,-0.0019960243,-0.010695548,-0.009373116,-0.0035240466,0.02877234,0.03013246,0.026404465,0.02353727,0.019138265,0.035387777,0.036557037,0.033747394,0.03015194,0.025890542},
{0.07115611,0.083385,0.091780216,0.08233899,0.053861093,0.09923513,0.11342461,0.11709237,0.10748969,0.07613245,0.09167576,0.10585986,0.10977491,0.103466555,0.07354563,0.08491603,0.10233618,0.111841135,0.107648835,0.072809845,0.07559311,0.095076844,0.10193057,0.09365551,0.06359198,0.05474945,0.06032736,0.06834886,0.063177295,0.046894323,0.07640188,0.084817015,0.0873598,0.08026294,0.060906276,0.075645655,0.08284502,0.08553797,0.080242895,0.060766093,0.06884134,0.07674845,0.084886365,0.082195565,0.0558319,0.06475301,0.0699302,0.07279576,0.06494304,0.044589307,0.076105125,0.08771963,0.09806905,0.089747034,0.06772313,0.100166276,0.11440963,0.118758835,0.1104056,0.085798725,0.091143854,0.10415302,0.110890076,0.10817533,0.0845961,0.08038399,0.09697868,0.11376009,0.11491978,0.08464093,0.0661856,0.08981764,0.10628366,0.104110576,0.078303255},
{-0.046935514,-0.069427006,-0.072838716,-0.055981077,-0.0305395,-0.038480073,-0.06359444,-0.07782849,-0.06403528,-0.03894057,0.0102208005,0.001250475,-0.010275361,-0.007823338,0.0013384463,0.042848013,0.04440538,0.03928236,0.035911564,0.029327862,0.048433676,0.049273405,0.04481566,0.040434744,0.03340564,-0.014557777,-0.025743809,-0.025141079,-0.016917286,-0.0059820553,-0.015799193,-0.03192895,-0.040754348,-0.03111144,-0.01764535,0.0139940865,0.006231395,-0.0025443903,0.0005491681,0.0069893976,0.039140664,0.04167233,0.039005272,0.037498277,0.031633932,0.045717098,0.048503853,0.047294196,0.044226725,0.03899965,-0.039097298,-0.06232239,-0.06928642,-0.05704345,-0.036905155,-0.031610355,-0.05738903,-0.07293447,-0.06331731,-0.0444528,0.010501659,0.0012338858,-0.009754704,-0.009847302,-0.0039104247,0.03853704,0.041547716,0.037533466,0.0335286,0.02664784,0.04674427,0.04913702,0.04579888,0.041208208,0.035362385},
{0.0031501248,0.0095425,0.01299351,0.017514946,0.020726072,-0.017789012,-0.010709081,-0.000783635,0.010408241,0.01825641,-0.03140413,-0.028167235,-0.017002655,-0.0017682821,0.012193713,-0.027123868,-0.02877815,-0.020352103,-0.0045028245,0.009029476,-0.008812674,-0.012904601,-0.010284147,0.0022723768,0.010784134,0.007544383,0.012290682,0.012880464,0.015183439,0.017627718,-0.0067341737,-0.0019317631,0.0036288262,0.010698916,0.016514547,-0.01600051,-0.013733346,-0.0073345536,0.0014967244,0.011259645,-0.015238478,-0.015625952,-0.010816904,-0.00035964884,0.009164427,-0.0042264084,-0.006999982,-0.0057216445,0.004986121,0.011929878,0.0016121868,0.0073221745,0.010378338,0.015350497,0.019459596,-0.017719397,-0.013130122,-0.0051306905,0.00590414,0.015217712,-0.028681817,-0.028307201,-0.020314164,-0.007576494,0.0060762647,-0.024362143,-0.027411336,-0.0223674,-0.009907165,0.0023686294,-0.006433074,-0.011217262,-0.011686576,-0.002200006,0.0052767056},
{-0.021650475,-0.030981414,-0.03175871,-0.024167545,-0.0128171,-0.018391743,-0.029610101,-0.035619702,-0.028973147,-0.01765781,0.003937052,-0.0009070405,-0.006643027,-0.004848453,-0.0001130531,0.019210542,0.019390067,0.016653262,0.01522852,0.012780224,0.022070277,0.022108113,0.019877275,0.017895576,0.015085438,-0.0073230397,-0.012336213,-0.011246204,-0.0077496693,-0.002550783,-0.0080125,-0.015399769,-0.019120365,-0.014485393,-0.008585436,0.0054874257,0.0014406731,-0.0029023227,-0.00084374874,0.0022614738,0.017521089,0.018359965,0.016771188,0.016056359,0.013734722,0.020769479,0.021817993,0.021125482,0.019759227,0.01757277,-0.017833414,-0.027497718,-0.029912062,-0.024307221,-0.015670063,-0.014682144,-0.026226588,-0.032874644,-0.028311852,-0.019959187,0.0044682543,-0.00042102218,-0.0058728596,-0.0053902855,-0.0022579015,0.01722265,0.01813155,0.015999744,0.014277596,0.0115604885,0.021217821,0.021891773,0.020282552,0.01809341,0.01571067},
{-0.0046078423,-0.018255938,-0.023539273,-0.019489503,-0.009918453,-0.005564748,-0.022631617,-0.035954792,-0.03462742,-0.023960304,0.0073955962,-0.004224596,-0.01969274,-0.025334354,-0.017993342,0.017008979,0.014018652,0.005517192,-0.002452861,-0.002925818,0.019369837,0.019240063,0.01535858,0.009766314,0.007376743,0.004656126,-0.0033588023,-0.0057707964,-0.004405245,-0.00035436678,0.0029083972,-0.008359919,-0.016704028,-0.01532601,-0.0099355215,0.010738724,0.001277599,-0.010585761,-0.0135869,-0.008630983,0.017157989,0.014066584,0.0071994215,0.0016416134,0.0015464523,0.019271377,0.018981747,0.01615436,0.012188803,0.010952964,-0.00036114562,-0.013953412,-0.020710899,-0.018901393,-0.012255735,-0.00054024614,-0.016867863,-0.03029654,-0.031588797,-0.02463829,0.010752062,-0.00069667056,-0.015568283,-0.02140909,-0.016344644,0.017392723,0.01474917,0.007402992,0.0004895036,-0.000982851,0.018863896,0.018777702,0.015819862,0.011235182,0.008559417},
{-0.085018575,-0.12121482,-0.12650254,-0.09670763,-0.051382918,-0.07113263,-0.112711936,-0.1353809,-0.108661614,-0.06492046,0.016079392,0.0013319923,-0.016808527,-0.0107995635,0.0052425032,0.07422816,0.0774671,0.06931391,0.06384604,0.052705143,0.08434329,0.086258665,0.078448325,0.07130043,0.059036013,-0.025816916,-0.042683568,-0.041252274,-0.028008012,-0.008304274,-0.029125575,-0.055844184,-0.07065255,-0.051664542,-0.028450366,0.023175502,0.010775326,-0.0033891578,0.0034987477,0.014187813,0.06760032,0.072660394,0.06833911,0.06563252,0.056159046,0.07931254,0.08483469,0.08232231,0.076950274,0.068025306,-0.07178223,-0.10981303,-0.121194884,-0.09993396,-0.06358164,-0.059200194,-0.1025753,-0.12795001,-0.10865815,-0.07531988,0.016076133,0.0007900228,-0.01671611,-0.014961098,-0.004414774,0.06665459,0.07238537,0.06613492,0.059390686,0.047809415,0.08150554,0.08601153,0.080280505,0.0722905,0.062001172},
{-0.0026942699,0.0037282226,0.008839857,0.015012657,0.01997522,-0.024006873,-0.01810507,-0.007894128,0.005662764,0.016119152,-0.030493578,-0.029778196,-0.019770313,-0.0040315012,0.009955363,-0.018810535,-0.021699829,-0.015085318,-0.000145053,0.010736111,-0.0019506749,-0.0048134625,-0.003066954,0.006480233,0.0126638245,0.0031065063,0.0076539246,0.00971951,0.013240599,0.017093983,-0.010775825,-0.006803399,-0.000976602,0.007859688,0.015661415,-0.016349034,-0.015330256,-0.00952846,0.0004536229,0.010514578,-0.010656149,-0.011957511,-0.008088608,0.0027152707,0.010736121,0.001633625,-0.00028482088,0.00042492765,0.008748614,0.013937602,-0.0038506987,0.0013862356,0.005738547,0.012178335,0.018347623,-0.02276538,-0.019556675,-0.011965144,0.00049712264,0.0120458305,-0.027604194,-0.029050253,-0.0225759,-0.009625848,0.003954548,-0.016908638,-0.020602066,-0.017231165,-0.0054263175,0.0047061974,-0.0005614889,-0.003543484,-0.004366282,0.0023436698,0.0076840036}
};
float conv1_bias[]={
0.17211123,
0.09362411,
0.058830142,
0.066478126,
0.07704222,
0.03128388,
0.035236713,
0.032600265,
0.13522635,
0.02960414
};
float conv2_weight[][250]={
{0.014875223,-0.0017935904,-0.008489659,-0.01067355,-0.016096318,0.039014373,0.043892797,0.03140063,0.0089491485,-0.009476104,0.08643707,0.1778906,0.15215972,0.033775304,-0.0161011,0.027893916,0.13371785,0.13410498,0.053257365,-0.0020948811,-0.025160717,-0.031418644,-0.0040945285,0.0071893306,-0.002954664,0.0048276545,-0.0044366927,-0.0074376464,-0.009921152,-0.010834549,0.02351277,0.026143808,0.014480907,-0.0014660684,-0.006692891,0.07813774,0.10488779,0.06634075,0.0036290525,-0.009790679,0.039128676,0.07149678,0.05007964,0.011095676,-0.005607903,-0.013128502,-0.02143267,-0.015663745,-0.005634885,-0.008065099,-0.00473912,-0.003024377,0.0015538926,-0.00011488411,0.0006043626,-0.0027115643,-0.0044930098,-0.0048049954,-0.0036114703,-0.00059428404,-0.007205852,-0.012118249,-0.007840452,-0.0033295348,0.0024466491,0.012245042,0.0111399,8.203255e-05,-0.009999229,-0.0046785804,0.04461482,0.053434946,0.0289492,0.00090439525,-0.006025442,0.042113896,0.04110989,0.049179237,0.056574397,0.03740501,0.016418409,0.025739813,0.04812666,0.056137938,0.035974763,-0.04405951,-0.041208208,0.015447611,0.062449828,0.04649071,-0.09773308,-0.1432713,-0.05741314,0.034417957,0.040198326,-0.05479876,-0.08733991,-0.052117098,0.009760382,0.027485006,-0.006689404,-0.0041742125,0.0017379256,-0.0008001544,0.00052919844,-0.0036878318,-0.006039118,-0.00629051,-0.004990666,-0.00075717986,-0.010682484,-0.017061563,-0.011273107,-0.0045546354,0.003716211,0.014651229,0.011834114,-0.002129318,-0.014059643,-0.005422349,0.06184801,0.07074124,0.03638154,-6.1336934e-05,-0.00804265,0.0013078969,-0.00043589025,-0.0018241613,-0.00022309736,-0.0010739544,0.004452484,0.003289004,0.0019644143,0.0003989476,-0.0020321107,0.006257913,0.01667762,0.015852517,0.0037010387,-0.0031084337,0.004791237,0.026806463,0.02968093,0.011776457,-0.0007749919,-0.0024499297,0.005450052,0.013461545,0.008091049,-0.00095324725,-0.002466223,-0.0015986848,0.0013286946,0.00019792159,0.0007628831,-0.0018064689,-0.0029585853,-0.0029941634,-0.0022188555,-0.00017363763,-0.004113596,-0.0070705246,-0.004501137,-0.0020837802,0.0015893179,0.007733245,0.0064481157,-0.00037327205,-0.0062194727,-0.0026310675,0.027439635,0.03175657,0.016644698,0.0002457327,-0.0036890002,-0.002132059,-0.0020355955,0.00039670535,5.7102825e-05,0.0035194594,-0.0004479978,-0.0022770814,-0.0028196652,-0.0025606737,0.0016692613,0.00021290264,-0.003966633,-0.0040528597,-0.0039661084,0.0021438268,0.021334345,0.014461163,-0.0035546287,-0.008095698,-0.0018492653,0.02910822,0.028483134,0.00662774,-0.0037970035,-0.002102714,-0.013132146,-0.00849486,0.0009995456,-0.0028071958,-0.00063820387,-0.0064613386,-0.009846185,-0.01072538,-0.009249211,-0.0025475062,-0.020358352,-0.03128127,-0.020886743,-0.008342518,0.0056294254,0.022542095,0.019741723,-0.0028048677,-0.023877429,-0.010049807,0.10633357,0.12466565,0.06619559,0.00071388885,-0.0138123045,-5.4666067e-05,-0.0008950099,-0.0014621507,0.00013679548,-0.00055597327,0.0033170509,0.0016789045,0.00074788945,8.689618e-05,-0.0015976635,0.003160533,0.0099978335,0.009981485,0.002823522,-0.0024024253,0.0039118747,0.024695244,0.027696364,0.010091097,-0.0014323567,-0.001425756,0.010923518,0.018148493,0.00902462,-0.00080582825},
{-1.9325034e-08,-2.7602072e-08,-1.4733013e-07,-2.7742654e-08,-8.006127e-11,-3.0699636e-09,-4.501418e-09,-1.9314111e-08,-3.744302e-09,-3.847583e-11,-9.828182e-09,-1.9148206e-11,-5.0862603e-10,-3.3314237e-07,-3.57322e-07,-6.04349e-09,-1.05349396e-10,-9.603357e-16,-2.8907568e-13,-4.824616e-07,-5.769286e-07,-4.912498e-06,-9.541194e-07,-3.382077e-09,-3.0116742e-10,-1.846642e-10,-1.1736682e-10,-3.140215e-11,-1.9374158e-16,-1.5592909e-16,-2.6052177e-12,-4.8407604e-11,-6.7504045e-12,-7.4098754e-14,-2.1925645e-15,-4.8976106e-13,-6.0549113e-14,-6.597746e-12,-1.692792e-09,-1.5997015e-08,-1.147874e-13,-2.2482685e-15,-1.563297e-22,-1.0051236e-14,-4.1280392e-09,-9.636548e-09,-1.948974e-08,-1.0072563e-09,-9.988107e-13,-1.4308692e-13,-5.683154e-18,-9.495803e-23,2.8203044e-28,-1.0136802e-34,3.1400504e-36,-3.0061904e-18,-2.702264e-15,-8.518376e-17,-1.0704783e-25,-1.1162217e-31,-8.714884e-16,-1.1438992e-14,-4.1280794e-15,-8.351032e-19,-5.8350984e-21,-8.972283e-14,-7.436609e-16,-2.1868412e-13,2.9697346e-13,-6.185272e-14,-1.8139258e-14,-1.8442184e-15,-4.199543e-15,-5.2215957e-12,-7.8843015e-10,-1.0337295e-05,-1.9641764e-06,-9.8408755e-06,-3.3914785e-05,-5.401558e-05,-3.224185e-06,-4.59042e-07,-2.8227412e-06,-3.7259095e-05,-6.622105e-05,-2.9446746e-06,-2.5239833e-06,-2.472719e-06,-2.023656e-06,-4.0977625e-06,-2.965801e-06,-5.7677476e-06,-7.486031e-06,-2.1963416e-07,-4.3619117e-09,-3.3276112e-07,-7.054401e-07,-2.5215568e-06,-3.5947295e-07,-7.5081413e-10,-6.159076e-17,-1.4101089e-21,1.1344175e-27,1.3209786e-28,-7.485449e-26,-6.713532e-17,-1.7245833e-14,-8.071636e-17,6.642865e-29,-2.926846e-34,-2.233726e-14,-5.178016e-13,-1.0893353e-15,1.2704716e-33,-2.53436e-40,-1.0378308e-14,-6.833839e-17,-2.1992826e-14,-2.07123e-14,-7.509656e-19,5.3627163e-28,-3.907485e-30,-1.0991241e-21,-1.3967628e-13,-1.539715e-10,-1.1590427e-30,-3.6392217e-25,-4.9625542e-23,2.3567447e-27,9.544666e-31,-3.409055e-22,-1.4285036e-24,-8.8017e-21,-2.2889356e-21,8.561762e-28,-1.2020618e-19,-1.4352908e-24,-4.521365e-20,-5.343766e-15,-7.461574e-17,-3.9382698e-17,-2.3004919e-26,1.2867409e-27,-6.389382e-17,-7.441636e-14,-1.4088162e-15,-1.0447147e-15,-3.9571874e-18,1.8263212e-27,-1.3620562e-17,-1.2179645e-24,-1.6696096e-31,-5.5420994e-35,1.655497e-39,-3.20599e-40,-3.9315197e-22,-2.743059e-19,-2.2353266e-21,2.6399775e-32,-3.216102e-35,-5.782566e-19,-9.514197e-18,-6.4437323e-19,-7.442661e-25,1.0146535e-29,-3.400121e-16,-2.3660052e-18,-4.4271426e-16,-9.136279e-15,-1.0833127e-15,-6.2436685e-18,-8.14307e-20,-1.784795e-18,-1.7570694e-14,-1.0904302e-11,-3.2128706e-16,-4.353188e-20,-2.7407206e-30,-1.2579649e-37,-1.1347558e-19,-9.977685e-16,-1.2381217e-16,-6.627806e-23,1.8762613e-32,-6.238054e-18,-7.578386e-17,-3.5487228e-14,-1.8878013e-14,-7.527711e-18,-6.5225306e-19,-8.585117e-21,-2.7270284e-17,-1.2772418e-14,-1.5272808e-12,-1.4175514e-12,-2.8923498e-20,-8.710618e-24,-5.2143895e-20,-1.5775986e-13,-2.1181144e-10,-1.4392674e-12,-6.0411366e-14,-5.0663233e-18,-1.6854471e-18,-1.8649294e-16,-3.4482536e-12,-2.327377e-10,-1.4841076e-11,-1.0388852e-17,-4.5556074e-22,-1.895748e-10,-3.1275689e-09,-9.2333405e-11,-8.820125e-19,2.0684538e-28,-1.5113254e-10,-6.5090927e-12,-1.7087051e-10,7.4544976e-10,4.917432e-12,-1.6088967e-17,-3.664158e-18,-2.1403144e-14,-8.216386e-10,-7.7728544e-08,-3.586701e-18,-2.7397258e-22,-1.8177036e-22,-4.1339913e-25,-1.2178458e-30,-6.529183e-17,-8.962072e-25,-2.1859883e-22,-1.8982333e-22,-1.1947569e-30,-2.4299983e-16,1.5845425e-28,-2.0478234e-24,-4.893405e-19,-6.093791e-18,-7.3370634e-16,-3.986674e-31,-2.0923623e-34,-8.5086285e-19,-1.0619151e-14,-5.568228e-15,-6.552919e-20,-4.057673e-23,-2.7415897e-30,-3.9560627e-20},
{0.033343665,0.062618375,0.07044232,0.04341615,0.015423527,0.014090444,0.044319917,0.064848706,0.04450239,0.011964965,-0.012858082,-0.02200052,-0.01845091,-0.022016142,-0.026645117,-0.009199266,-0.017274814,-0.025821295,-0.027620872,-0.028967977,-0.0008288391,-0.0072898045,-0.0049487343,0.002666087,-0.0022196034,0.026412021,0.040660005,0.03708556,0.019452283,0.005563347,0.014072037,0.028887656,0.029610408,0.0147599485,0.00213155,-0.008470034,-0.017081128,-0.01932533,-0.020884586,-0.020383297,-0.005146603,-0.0112984,-0.018482547,-0.017230429,-0.017137352,-0.0027018697,-0.005280861,-0.0017290205,0.0035615498,0.0031284913,0.000219135,-0.0017116258,-0.0023392336,-0.00033573472,0.0028504692,0.0031102651,0.0032243794,0.000959511,-0.00068785757,-0.0010660266,0.016020734,0.028443964,0.02900563,0.019632824,0.00872823,0.017725047,0.022373235,0.021368103,0.013229775,0.004141462,0.0057939696,0.0015251413,-0.0026323842,-0.004604395,-0.0053434847,-0.021242037,-0.021814454,-0.004919968,0.016036483,0.019108584,-0.05319502,-0.071193606,-0.052453462,-0.010535891,0.012487016,-0.041577883,-0.054429814,-0.03833115,-0.0014252142,0.018548813,0.010665764,0.019196922,0.03373975,0.046077803,0.04534902,0.042399295,0.05466834,0.065393545,0.06508502,0.053922582,-0.000238285,-0.0028553258,-0.0031712416,-0.00017313076,0.004274468,0.003804033,0.0037494053,0.00069935236,-0.0016174011,-0.0015652496,0.021718888,0.037984855,0.038175113,0.025565669,0.011570628,0.024528721,0.031697232,0.029985165,0.018529937,0.006298598,0.008190925,0.002551266,-0.0028462664,-0.0056881444,-0.0070013725,0.0033046294,0.006597092,0.006958767,0.0039318977,0.00077447563,0.0017134569,0.0070106233,0.012385073,0.010048058,0.0035886595,-0.00016104095,0.0009868086,0.0048268945,0.0035615566,-0.00095827965,-0.0003261384,-0.0020832992,-0.0029822101,-0.00356939,-0.004895264,-0.0005778372,-0.001620069,-0.001825558,-0.0022025355,-0.003479906,0.00027938047,-0.0009436401,-0.0012827307,-3.6668822e-05,0.001959463,0.0021575042,0.0020948143,0.0005656197,-0.0003110637,-0.00040116927,0.009910181,0.017280329,0.017435206,0.011756702,0.0051751924,0.010612361,0.013430417,0.012819318,0.007843691,0.0023160602,0.0034133038,0.000791511,-0.0018761,-0.003215068,-0.003485997,0.0006703563,-0.00080451724,-0.0011592918,-0.0011471104,0.00072325236,0.0041656876,0.003767348,0.0013058763,-0.0009141467,-0.00036457088,0.008376444,0.013691144,0.010623675,0.004698047,0.0027376537,0.0049529932,0.0057426402,0.0030439738,-0.00013018394,-0.00033303446,0.00025817158,-0.0026125351,-0.0039228946,-0.003844534,-0.002655376,-0.0018208034,-0.006285557,-0.006168478,-0.00032429828,0.007447339,0.0048854277,0.0054752356,0.00095385103,-0.0030648184,-0.003040918,0.036705814,0.06556245,0.066800885,0.045097727,0.02080969,0.04360805,0.056347717,0.053554162,0.033568483,0.012328094,0.014657121,0.005091085,-0.0036585731,-0.007774333,-0.010421814,0.0020122074,0.0044807615,0.0043325913,0.002349771,0.00023541579,0.0012999123,0.006163028,0.010805012,0.008564747,0.0031700428,0.0007039844,0.0029112396,0.0073638097,0.005774437,0.00054636603,0.00023129088,-0.0011438476,-0.0015812992,-0.002385854,-0.0041333553,0.0003656201,-0.0005566235,-0.0016953379,-0.0031299673,-0.0041238116},
{0.017095061,0.044096924,0.08580813,0.064242944,0.024344353,-0.0044985265,-0.032718427,-0.014521628,0.0028477332,0.001273314,0.008432844,-0.020862615,-0.023663802,-0.0031832538,0.0017200778,0.016020952,-0.006407557,-0.009689696,-0.0016359065,-0.0013741473,0.024176706,0.017330065,0.016734123,0.014097868,0.006014747,0.013489384,0.034367215,0.04577468,0.027807478,0.009768857,-0.008741175,-0.01770759,-0.008932617,-0.0026129575,-0.0019864552,-0.0036498413,-0.014256043,-0.012104591,-0.00050664565,0.0031741573,0.0018136852,-0.0050235987,-0.002856844,0.0014297414,0.0014454548,0.010504415,0.011270286,0.0132254455,0.009268085,0.005021441,-0.003974929,-0.0041297297,-0.00597015,-0.005952657,-0.0033562765,0.012496865,0.029766409,0.03227126,0.017565368,0.006840769,0.007326551,0.016793046,0.0230871,0.014035053,0.005821186,-0.0048813783,-0.0069251135,-0.004031951,-0.0024795725,-0.0015833825,-0.005177535,-0.007011832,-0.005222777,-0.001986613,-0.00091740093,-0.013937747,-0.044296708,-0.049401045,-0.0048579006,0.01569198,-0.0104213515,-0.033412818,-0.04995514,-0.0139504885,0.0112915505,0.018450905,0.03839652,0.02786515,0.013913838,0.012771164,0.024076201,0.053885393,0.046775997,0.023441935,0.008480055,0.013438423,0.039409325,0.03613202,0.024305042,0.013708411,-0.005517014,-0.0063988157,-0.008976582,-0.008498361,-0.004336937,0.017837953,0.041202225,0.04298078,0.022770133,0.008723652,0.010576966,0.02517761,0.033071548,0.019356325,0.008108334,-0.0066734324,-0.009006375,-0.004747578,-0.0028685513,-0.0019272675,-0.0068701627,-0.009240467,-0.006760523,-0.002458671,-0.0010110071,0.0023053703,0.0046433117,0.011637108,0.008695696,0.0037223098,0.0019458925,-0.0006956066,0.0053779464,0.0061924853,0.0025498313,0.0016158553,-0.0037423014,-0.0044077733,-0.0017467673,-0.001977908,0.0041136635,-0.00081033906,-0.0018247422,-0.00014282567,-0.000572679,0.004090539,-0.0002447563,-0.0020033596,-0.0011100672,-0.0011951348,-0.0025013436,-0.0026770236,-0.0038443364,-0.0037431668,-0.0020197316,0.007590154,0.017760288,0.018859226,0.010314661,0.0042337575,0.004492837,0.010443335,0.014163836,0.008442698,0.003539822,-0.0031554264,-0.0040197712,-0.002190556,-0.0015829809,-0.0011157477,-0.0031085534,-0.0041134553,-0.0030378164,-0.0010801023,-0.0004185732,2.5988067e-05,0.0012093401,-0.000968092,-0.00306065,-0.00053027173,0.005386808,0.016142301,0.014051726,0.005040479,0.0030890875,-0.0002725278,0.004366391,0.006699887,0.0031225304,0.0018234443,-0.0038422905,-0.004699745,-0.00179962,-0.00082313316,-3.818811e-05,-0.0032600882,-0.003791063,-0.0021489977,-0.0007237,0.00048458812,-0.0095158145,-0.010959748,-0.015152258,-0.014309984,-0.007364167,0.031328198,0.073309876,0.07761521,0.04133546,0.015237717,0.018701695,0.043904256,0.058081523,0.034592234,0.014770336,-0.010646105,-0.01609555,-0.008972212,-0.004146144,-0.0022471927,-0.011504089,-0.015802393,-0.01165243,-0.004452286,-0.0025934747,0.0015805718,0.003316982,0.009285656,0.00674326,0.002679043,0.00244558,0.0009421078,0.007731509,0.007533744,0.0032635233,0.0021381767,-0.003346972,-0.0035682153,-0.0011494035,-0.0016400414,0.0036760075,-0.0013655475,-0.0023344615,-0.00057622837,-0.0010327128,0.0035443632,-0.0011605368,-0.0026224495,-0.0016580718,-0.0015736374},
{0.0152468,0.0089417305,-0.002174145,-0.0083569735,-0.013593619,0.017972609,0.045304716,0.05400561,0.025170274,-0.0024457418,0.00061073236,0.07247306,0.12591101,0.081093624,0.019472707,-0.022569425,0.00093730923,0.07221884,0.08334541,0.04084511,-0.006463829,-0.03409855,-0.024663553,0.01165986,0.011699002,0.0056775417,0.0025897622,-0.0036414014,-0.0078206295,-0.009354154,0.013442226,0.0306368,0.027644765,0.007690614,-0.0004909525,0.0136682,0.057220954,0.064388506,0.03309346,0.0059804744,-0.007689386,0.01166942,0.036664348,0.03464799,0.013517514,-0.0054490156,-0.019914243,-0.014653572,0.00030818107,-0.0010878583,0.0011398278,0.0001329522,0.0009264642,0.0017864847,0.0017623658,-0.0020596301,-0.005481413,-0.0058080642,-0.004553366,-0.002516348,-0.0023288254,-0.006872748,-0.00777643,-0.009516794,-0.004059131,0.00662457,0.013463493,0.008169008,-0.005614392,-0.005974021,0.009003013,0.02618511,0.029842842,0.017041707,0.003735667,0.026499817,0.04015551,0.04036927,0.04301153,0.037234906,0.008052293,0.012912247,0.028836938,0.043924395,0.038343605,-0.007728242,-0.041116677,-0.02053067,0.023687791,0.03657504,-0.0068101105,-0.07308284,-0.07945688,-0.024956217,0.012531756,0.017649092,-0.018507646,-0.04115329,-0.027656958,0.0049098283,0.001153426,0.00020446393,0.0013736233,0.0022053758,0.002224747,-0.0028625703,-0.0077399644,-0.007752052,-0.005982341,-0.0031690283,-0.0036095185,-0.009842575,-0.011027313,-0.012922632,-0.0051171845,0.009583112,0.017537933,0.008839099,-0.008820094,-0.008159849,0.013646543,0.03663779,0.039408628,0.02136341,0.004255971,0.0025887957,0.00021611495,-0.0013223748,-0.0001097306,-0.0023030322,0.0031088123,0.0028351147,0.0034917018,0.0013555501,-0.0022360357,7.7233875e-05,0.006358264,0.014824702,0.009616147,0.0009499375,-0.003214959,0.0029366338,0.018097574,0.017207267,0.007089557,-0.0019316191,-0.0035615307,0.0027042972,0.009359145,0.005592498,0.0010234613,0.00030548926,0.00080814055,0.0012373604,0.0013136488,-0.0012425932,-0.0033415088,-0.0035791406,-0.0029143826,-0.0014474797,-0.0013498617,-0.0041359467,-0.0048018093,-0.0059554116,-0.0024452847,0.0044166194,0.008169257,0.0045146532,-0.0036250248,-0.0036397981,0.0057490086,0.01614135,0.017876945,0.01011101,0.0020529288,7.3545154e-05,-0.0006815815,0.00072107994,-0.000102449965,0.0021080489,3.4139382e-05,-0.0016520726,-0.002288892,-0.0031187888,-0.00019187154,0.002170774,0.0008133053,-0.0029835992,-0.0047630994,-0.0012003276,0.008615185,0.017741373,0.00709407,-0.0032291708,-0.0034260214,0.006573386,0.018670807,0.016801318,0.0061747422,-8.06523e-05,0.0005669625,-0.00058248476,0.0016789656,0.0032668144,0.002684394,-0.0052281544,-0.0137988,-0.01396832,-0.010421659,-0.006114294,-0.007031162,-0.017796341,-0.019247526,-0.02214847,-0.009229608,0.014717533,0.029483384,0.016064467,-0.014945385,-0.014404099,0.023133026,0.063081674,0.06916524,0.03762387,0.0081455475,0.0021574069,-0.00019451571,-0.0014065133,0.000111083085,-0.0017771912,0.002575228,0.0013586143,0.0014526577,0.00045870204,-0.0021211377,-0.00029250525,0.00400673,0.010078621,0.0063087665,-5.0526018e-05,-0.0030035777,0.0031264178,0.01754168,0.015299966,0.0059068794,-0.0022039826,-0.0024964565,0.0057320334,0.011242673,0.0061886585},
{-0.00687493,-0.0011225622,0.0042037433,0.0037299679,-0.0031969892,-0.0074434197,0.014001018,0.037431583,0.035887804,0.0070281387,-0.025024636,0.004986532,0.07299038,0.09643789,0.0465182,-0.042475216,-0.028807124,0.04621665,0.11741309,0.08334785,-0.019396722,-0.02717175,-0.030902024,-0.00027137244,0.010934633,-0.002441893,0.00042033766,0.0024506722,-0.00034878147,-0.0059605883,0.00032695057,0.01390394,0.022651637,0.015106529,0.00047593223,-0.007869544,0.02147435,0.052930776,0.049724996,0.017632576,-0.020888705,-0.0011333704,0.041461248,0.058760103,0.033106297,-0.0068964544,-0.011179318,-0.01483443,-0.006575268,-0.007498155,0.0001614743,0.0002193365,-0.0021750238,-0.0032429271,-0.005167025,-0.00192986,-0.004577965,-0.004141626,-0.006336594,-0.0065649073,-0.0023041011,-0.004926425,-0.007320786,-0.009807406,-0.007995381,0.0006310317,0.0027689703,0.0021856322,-0.0049207453,-0.008094733,-0.0030353412,0.011426413,0.030438472,0.034403745,0.016717147,0.04559533,0.04085024,0.029584594,0.04269878,0.039267793,0.038516887,0.019157428,0.01172617,0.026918901,0.029230077,0.039625417,-0.0010115759,-0.030551225,-0.002761125,0.019188125,0.04451673,-0.01967637,-0.08999942,-0.07382806,-0.020932347,0.05061158,-0.0005420819,-0.06522236,-0.06761972,-0.027497252,0.00012162066,0.00020160066,-0.002770813,-0.0044961036,-0.0067354455,-0.0027228165,-0.006322693,-0.0059526223,-0.009153983,-0.00895607,-0.0027863402,-0.006851486,-0.010504361,-0.013694429,-0.010947408,0.002298884,0.003949633,0.0014243077,-0.008386837,-0.011609748,-0.0032296984,0.017108567,0.041440196,0.04346553,0.02063701,-0.000707462,-0.00024801688,-5.5865574e-05,0.00084309897,-0.0014810859,-0.0013796211,-0.00023261347,0.0022629276,0.0030742448,-0.00028516998,-0.0034537222,-0.0011002885,0.006692359,0.010462699,0.00445572,-0.0068814764,-0.0050831567,0.0075858994,0.021701276,0.015221861,-0.0056701633,-0.0057134824,-0.0012759309,0.0124607505,0.011602553,0.0004762938,0.00046208783,-0.0012292751,-0.0019693126,-0.0029647683,-0.0011171965,-0.0026536705,-0.0025222024,-0.003952559,-0.0039525745,-0.0016045055,-0.0030415817,-0.0045807012,-0.0061384863,-0.004824527,0.0007155475,0.0020884771,0.0014760303,-0.0030859592,-0.005033501,-0.0016400774,0.0074085887,0.018701674,0.020429619,0.009805533,-0.00039034188,0.0006072125,-0.00048914814,-0.0039912,-0.0021517253,-7.335211e-06,-0.00018684192,-0.00038342533,-0.0043195835,-0.0035597554,0.0008716698,0.002775479,-0.00018333389,-0.005051137,-0.004814889,0.0023559283,0.011572024,0.01282925,-0.00018398245,-0.005200451,-0.00029238526,0.013323294,0.025519386,0.016798954,0.003975235,-0.001001076,-0.0010365805,-0.00523939,-0.007932352,-0.012374783,-0.0053077587,-0.011919124,-0.011144098,-0.016217029,-0.016142365,-0.0043963,-0.012454529,-0.018449226,-0.023709757,-0.019388037,0.0028140473,0.004847611,0.000684321,-0.015259227,-0.019933958,-0.0064709964,0.028293991,0.07122862,0.076039255,0.036246657,-0.0004890365,-0.00027602512,-0.00031569827,0.0007312776,-0.0014819818,-0.0016782379,-0.0007266849,0.00093908224,0.0015533277,-0.00058427546,-0.0027686087,-0.0011664525,0.004210254,0.0067671775,0.002419339,-0.006044142,-0.0045777033,0.006991649,0.018681068,0.0126597285,-0.0061100475,-0.0056543043,0.0007768013,0.015539589,0.013089186},
{0.049918268,0.058773775,0.039973523,0.005225387,-0.014169964,0.091554135,0.14840798,0.10978522,0.01624314,-0.027922794,0.015881766,0.06655915,0.06364325,0.009987853,-0.019658277,-0.039463222,-0.049974427,-0.04756108,-0.042792365,-0.03806674,0.02980336,0.023199864,0.022248833,0.032269403,0.022914395,0.03443811,0.03317255,0.014228607,-0.005297567,-0.01072108,0.07160831,0.07994304,0.041301414,-0.008255832,-0.015344992,0.01889062,0.026221633,0.011889042,-0.008437335,-0.010450965,-0.022679375,-0.031657707,-0.03552835,-0.027524032,-0.0235756,0.017274257,0.012012417,0.015014433,0.02374019,0.018428648,-0.004402851,-0.005633769,-0.0006481136,0.0008815263,0.003309163,-0.008038175,-0.009868506,-0.008308966,-0.005016831,-0.0021850425,0.026336761,0.028614065,0.009434,-0.006845361,-0.0075665605,0.06094007,0.06368306,0.037538227,0.008297969,0.0012828393,0.010095122,0.0057578613,-0.00012139513,-0.005326746,-0.0040481435,-0.005467708,-0.007526856,0.018358361,0.047257826,0.038451888,-0.082184084,-0.0700411,-0.0034715347,0.05005565,0.040617153,-0.123341,-0.12533276,-0.032714404,0.046895936,0.042198353,-0.030167814,-0.03825251,0.001157739,0.053923827,0.04475988,0.04779985,0.04756198,0.05234441,0.05804486,0.0432335,-0.006649483,-0.0077920216,-0.0016848663,0.00037470576,0.004191787,-0.011357151,-0.014169428,-0.01189276,-0.0068272217,-0.0023808205,0.0330563,0.034176547,0.00982754,-0.010144969,-0.009351187,0.08383415,0.085098125,0.04904474,0.010369223,0.0019246272,0.015232295,0.009899837,0.0013594487,-0.006053294,-0.0044683507,0.0037825804,0.004374043,0.0033447207,-0.0008397524,-0.0031791977,0.007204113,0.017948728,0.015795175,0.0029662454,-0.0046475544,0.0066361655,0.021434182,0.02087258,0.00547784,-0.0049773483,-0.003223642,-0.0012376106,0.0015503863,-0.0015919185,-0.005769174,-0.0005490125,0.00041611152,-0.00028087513,-0.0015047881,-0.003624897,-0.0023547052,-0.0030288359,0.00012212287,0.001084474,0.0026217012,-0.0046624294,-0.005753042,-0.0050324723,-0.0031490736,-0.0014653879,0.016098911,0.016923487,0.005337742,-0.004451266,-0.004688691,0.037266955,0.038151834,0.022146074,0.004850026,0.00086051004,0.005983139,0.0033352445,-0.00027788995,-0.003549648,-0.002783102,-0.0009022959,-0.0018831509,-0.0013952117,-0.0017369242,0.0007355581,0.00024896406,-0.0031417473,-0.0049984893,-0.0051983455,-0.00077052915,0.024643758,0.016877249,-0.00017143214,-0.0073128026,-0.0030898168,0.027097374,0.022384452,0.0054209996,-0.003643723,-3.8117156e-05,-0.0009451103,-0.0027759438,-0.0066012396,-0.008194026,-0.0065842597,-0.013051715,-0.014818124,-0.004056312,-0.00055318733,0.0053367186,-0.021348352,-0.025805498,-0.021122063,-0.011662562,-0.003984483,0.055166632,0.058794625,0.017386338,-0.016803958,-0.015740007,0.14481296,0.14878814,0.08724328,0.018771915,0.002803139,0.027362663,0.01808526,0.003450753,-0.009050067,-0.0060447906,0.0021596346,0.0019382844,0.0019130746,-0.0012178435,-0.0027803497,0.0044007436,0.012693393,0.011635418,0.001844116,-0.0040142913,0.0075504556,0.022948766,0.022322034,0.0059111984,-0.004560614,-0.0009181568,0.0047189943,0.006853177,0.00061072875,-0.004548355,-0.0011911484,-0.0010509436,-0.0018407364,-0.0044469624,-0.0058393576},
{0.011748208,0.027357094,0.04870768,0.039921667,0.019199423,0.0003941608,-0.010436563,0.0009545577,0.011009637,0.008277339,0.004796638,-0.010095964,-0.011822856,-0.0074863303,-0.00443637,0.010675731,-0.00015002451,-0.0021225926,-0.0025826714,-0.0021780021,0.00969261,0.009542321,0.009669151,0.0037149005,-0.003136997,0.009212745,0.020893427,0.027717963,0.019733625,0.008418796,-0.0021488864,-0.0043358323,0.0010390389,0.004141587,0.002370173,-0.0007117786,-0.006645866,-0.0071095843,-0.004718585,-0.001690621,0.0026121472,-0.0006163739,-0.0007450544,-0.00047912658,0.00073777954,0.0039458526,0.0059162322,0.0062882667,0.0022176707,-0.00026454282,-0.0018953497,-0.0025737705,-0.003014755,-0.002462379,-0.00055615127,0.005128267,0.011997144,0.013709879,0.008436195,0.0035963897,0.005846606,0.01164144,0.015837794,0.012501018,0.0061402507,-0.00025988277,-0.00061491865,0.001166742,0.00068033364,0.00028035732,-0.00076286006,-0.0024635743,-0.0023953186,-0.0017770389,-0.00030402932,0.000742453,-0.014708199,-0.018733477,-0.00048332606,0.009322246,-0.0070482516,-0.020783972,-0.0301937,-0.013874078,0.0034822116,0.0059219357,0.01320867,0.008151188,0.0027949037,0.006048226,0.011785887,0.027501645,0.02756709,0.018012457,0.008842463,0.009687473,0.022176879,0.024077063,0.018849712,0.010498584,-0.002794119,-0.0038651212,-0.0044277385,-0.0035037552,-0.0008651957,0.007052014,0.01640226,0.018104412,0.010775469,0.004455957,0.008207971,0.01665856,0.02218914,0.017086277,0.008351771,-0.0004681421,-0.00043832723,0.0021435092,0.0013787088,0.00066127145,-0.0009848457,-0.003160668,-0.0031643799,-0.0021676244,-0.00017558469,0.0015198048,0.0023346357,0.005565103,0.0050053704,0.0029747281,0.0013204716,0.00038791413,0.0032496261,0.004513008,0.002846233,0.001064193,-0.0010799079,-0.0014081656,-0.0004556384,-0.00041387984,0.0022985474,6.7179186e-05,-0.0004627553,-0.0006910751,-0.00058552955,0.0022124797,0.00042628055,4.5306268e-05,-0.00034554646,-0.0006426494,-0.0011098341,-0.0015467195,-0.0017769308,-0.0014221269,-0.00028458438,0.003362666,0.00723989,0.00819153,0.0051829484,0.0022567643,0.0037456646,0.0072419206,0.009765393,0.00760752,0.0037135433,-0.00017532476,-0.00020247175,0.000898641,0.0004368695,0.00018185956,-0.00042688567,-0.0014760711,-0.0014486426,-0.0010179919,-9.116141e-05,-0.00038851105,1.7364266e-05,-0.00064797973,-0.0011861342,-0.0002389322,0.0029075844,0.0074471324,0.0071518607,0.0031287542,0.0015817694,0.0012679629,0.0042161746,0.0058173975,0.0040527484,0.0019323579,-0.0009256417,-0.001292459,-0.0004024155,-0.00012568884,8.644689e-05,-0.0007569754,-0.0015429092,-0.0013116377,-0.0005082216,0.00048799135,-0.0055715563,-0.007350063,-0.008359967,-0.0068837875,-0.002444544,0.011319414,0.028771002,0.032321855,0.018921392,0.0075929896,0.013841567,0.028918803,0.038892012,0.030387439,0.014878257,-0.00077405374,-0.0014751623,0.0030995973,0.0025542667,0.0014249841,-0.002022166,-0.005656307,-0.005491092,-0.004049787,-0.0010734028,0.00094455876,0.0013685378,0.0039538955,0.003686184,0.0021793717,0.0014354769,0.0008941413,0.004000817,0.0047800574,0.0029358675,0.0011997748,-0.0008731113,-0.00083321106,0.0004102543,0.00018936992,0.0020445269,-0.00015223514,-0.0006839036,-0.0008847549,-0.00078391033,0.002228276,5.6297667e-05,-0.00032395704,-0.00065255666,-0.0007525098},
{0.031356167,0.070308626,0.1050029,0.07331514,0.031788543,0.0043927752,-0.01407801,0.009371637,0.01463188,0.0069978894,0.0027355782,-0.031922214,-0.035687406,-0.024493387,-0.014100444,0.0069942134,-0.015734395,-0.018264499,-0.019197594,-0.019866431,0.02113645,0.015333156,0.013696474,0.0012851655,-0.015855845,0.025914576,0.05054638,0.055971168,0.03299026,0.014880855,-0.0014780659,-0.0068823425,0.0012709133,0.0026515895,0.00013784738,-0.006851717,-0.0217946,-0.021794342,-0.0132189505,-0.0059328163,-0.004414716,-0.0108550945,-0.010203819,-0.009646823,-0.0067459624,0.008065883,0.01005053,0.009589096,0.0010582351,-0.0043641413,-0.007070722,-0.008555364,-0.00942963,-0.0074938424,-0.0049766055,0.01213664,0.029603459,0.031988915,0.018623257,0.0075670653,0.017212993,0.031412724,0.03597983,0.025199164,0.012788046,0.003321237,0.00082424993,0.0033120494,0.0025588367,0.00070855045,-0.0051806765,-0.007895204,-0.0047820974,-0.0033577268,-0.0019007006,-0.024543395,-0.0519873,-0.04542682,-0.0031188976,0.020694308,-0.042995706,-0.06854795,-0.06920384,-0.02415892,0.008440071,-0.004209762,0.020006854,0.021949938,0.01912975,0.021214675,0.033622243,0.07030999,0.075481154,0.057977833,0.040054563,0.037162263,0.0665997,0.07094394,0.065588765,0.048070394,-0.009880925,-0.012428486,-0.013618695,-0.010691076,-0.006786485,0.017046215,0.040195487,0.04209787,0.023904176,0.009366076,0.023902288,0.04474112,0.05019313,0.034301225,0.017254021,0.0045409,0.002087458,0.005305029,0.0042175082,0.0012353407,-0.00687453,-0.010451787,-0.0061827837,-0.0040552034,-0.0021969073,0.0037576256,0.0074302163,0.0129911145,0.009999767,0.005375019,0.0032095532,0.0028159674,0.009780409,0.009170301,0.004362122,0.0030334373,-0.003012022,-0.0033647234,-0.0018680242,-0.0021983737,0.0040748157,-0.0019225726,-0.0026270468,-0.0027656818,-0.0032797402,0.003444286,-0.0006486627,-0.0016709403,-0.0030976601,-0.0042673317,-0.004405195,-0.0053509036,-0.00584413,-0.0045657153,-0.002973555,0.007390664,0.017657854,0.018702537,0.010996003,0.0046150675,0.010577052,0.01928499,0.02193577,0.015274248,0.0078077395,0.0017935808,0.0009901383,0.002860079,0.0017626662,0.00028524513,-0.003164381,-0.0046722204,-0.00280165,-0.0019177577,-0.0010173863,-0.0014453921,-0.0012632202,-0.002134043,-0.0029587767,-0.0014607395,0.0068457434,0.016803838,0.014012293,0.006390429,0.0035919005,0.004185147,0.010075659,0.0107505685,0.0068000522,0.0043178652,-0.0018897839,-0.0029102236,-0.0016713097,-0.00089253805,0.00047324624,-0.0043121916,-0.005203268,-0.0035898492,-0.0021322852,0.0003275579,-0.017007884,-0.02172612,-0.024022661,-0.018933851,-0.012147444,0.029856073,0.07084484,0.07538404,0.04309271,0.016755302,0.04176796,0.078321174,0.08826998,0.06055076,0.030763064,0.008686084,0.0025897631,0.00723736,0.007424956,0.0037092385,-0.011333697,-0.018304313,-0.0109694395,-0.0072890427,-0.0045318455,0.0022947777,0.0050711837,0.009964631,0.0077384147,0.004069946,0.003243804,0.0042070784,0.01148957,0.010050408,0.0048590633,0.0038349566,-0.0016918267,-0.0013251042,-9.864474e-06,-0.0009435682,0.0042668404,-0.0019781361,-0.002600092,-0.0027617787,-0.0033463563,0.0032325445,-0.001355629,-0.002364805,-0.0035181283,-0.004294972},
{0.025859162,0.047607467,0.065473974,0.04872884,0.031278003,0.01689762,0.06558875,0.14643148,0.14666437,0.07668705,-0.016535236,0.022478327,0.122163184,0.14726716,0.08812766,-0.029290685,-0.03849539,-0.01855033,0.00485371,0.006674692,0.037860062,0.0025898577,-0.020242564,0.0070234165,0.025926365,0.019455994,0.03374797,0.03879499,0.025199376,0.018406387,0.020155372,0.06436502,0.09827068,0.07823192,0.035390932,0.002240267,0.0413395,0.08043766,0.071311474,0.032298625,-0.016362462,-0.018153055,-0.0112595735,-0.008887546,-0.010112365,0.022497945,-0.0001777403,-0.010367294,0.0036073301,0.015141608,-0.00025272457,-0.0025695814,-0.0018317126,0.00042743288,0.0025867375,-0.0015062778,-0.0024905137,-0.0052279416,-0.00840664,-0.0017990151,0.0015059512,0.00712489,0.008925061,0.003416425,0.0028073252,0.011657346,0.041521855,0.063767284,0.052539982,0.024300285,0.004071171,0.02186476,0.034810405,0.029002298,0.014697076,0.06428563,0.055696614,0.040394496,0.0440755,0.0329287,0.034514688,-0.004914928,-0.033162404,-0.014299623,0.006851884,0.017450666,-0.06781119,-0.13381618,-0.08846249,-0.013643526,0.038647912,-0.026630063,-0.089811124,-0.05944382,0.0014075305,0.047113735,0.04375893,0.022601545,0.006390613,0.013447281,-0.0013107473,-0.004119046,-0.0031612888,-0.00028369622,0.002222462,-0.0022444373,-0.0042656804,-0.00793889,-0.0122967465,-0.0028617305,0.0024942625,0.008839482,0.009508443,0.0020733327,0.002925474,0.017619066,0.057897564,0.08521037,0.068088554,0.030876182,0.006509863,0.03209903,0.049378656,0.039674584,0.019897308,0.0023424283,0.0024664693,0.0037514807,0.0036885228,0.0011623857,0.0024733425,0.0036804331,0.013724175,0.015136707,0.009047142,7.149348e-05,0.00093522226,0.021415215,0.028852073,0.019714491,-0.0036847643,-0.0033988226,0.0077462886,0.015831312,0.0128861405,-0.001184652,-0.0039082696,-0.0047163744,0.0011915285,0.0027731794,0.0005019532,-0.0009594994,-0.00057290297,0.0011424675,0.0020285216,-0.0008889447,-0.001453581,-0.0032510215,-0.0050442894,-0.0009436359,0.0011024642,0.004606474,0.005476509,0.001803834,0.0016075526,0.0076233987,0.025814846,0.038513605,0.031429622,0.014453265,0.0024344402,0.013508258,0.02135009,0.017587254,0.008845692,0.00064335385,0.0011486439,2.7739025e-05,-0.00027826193,0.0017018998,0.0012216165,0.0035532592,0.00052614335,-0.003050307,-0.00034771033,0.0044197883,0.017162656,0.015636163,0.0033631185,-0.0008717,0.0067454055,0.031002358,0.03815397,0.021225808,0.0061484696,0.00062885974,0.010048207,0.01565213,0.010772708,0.0028349003,-0.004397712,-0.00984612,-0.007496747,-0.0033559531,0.0013997415,-0.0048908126,-0.008952163,-0.014972037,-0.022199875,-0.00609757,0.003245941,0.012667312,0.014050822,0.003255176,0.0050067934,0.028584747,0.097107895,0.14579529,0.11883324,0.054315552,0.012034995,0.056169245,0.086427495,0.07001056,0.03535138,0.0019427377,0.0010697056,0.0013539814,0.0017457153,0.00046542354,0.0019905057,0.0024237793,0.008999182,0.009759221,0.005867631,0.00051851955,-2.0013613e-06,0.01850025,0.025478492,0.017149005,-0.0027756211,-0.0020788123,0.011711125,0.020510841,0.015303595,-0.0023454544,-0.0039198254,-0.0024464042,0.0025621748,0.0029189312},
{0.01908078,0.041692644,0.06381893,0.05943226,0.033165533,0.009747894,0.0077857687,0.03718668,0.062302038,0.04257484,0.006387376,-0.017149394,-0.032118723,-0.0297321,-0.020480892,0.014674963,-0.0022392168,-0.012893222,-0.019357558,-0.022194196,-0.0053890003,-0.007930603,-0.004326163,-0.0025165626,-0.008550564,0.016575601,0.029861983,0.037985213,0.03078108,0.015714874,0.0063697533,0.007655198,0.023899617,0.030727262,0.018287469,0.00014360347,-0.014105458,-0.02257552,-0.021363389,-0.015297094,0.004685568,-0.0045448565,-0.010164413,-0.011480561,-0.01207574,-0.0067800786,-0.0052612154,-0.0024926085,-0.0020102067,-0.0019894533,0.0009293455,-0.0011652802,-0.0023363733,-0.002570446,0.0010656301,0.00458799,0.0069107376,0.004425365,0.0008679507,-0.0010344568,0.008969556,0.018499529,0.028569492,0.029970132,0.017159723,0.00771463,0.0092387,0.01363319,0.014999357,0.009418328,0.008693979,0.0032995213,-0.0015263438,-0.0029642412,-0.0025181365,0.00071396446,-0.014483681,-0.011994868,0.008626527,0.016025672,-0.018406108,-0.04579632,-0.05996954,-0.03834749,-0.0056769536,-0.012138446,-0.018789105,-0.028267767,-0.020529754,0.0014622946,0.0016644362,0.024345485,0.039144192,0.040960863,0.031045703,0.024225308,0.043721776,0.05392345,0.054218136,0.04028136,0.0004918398,-0.0022638326,-0.0037491678,-0.0037115645,0.0013659508,0.006203781,0.0089641735,0.0053021847,0.0005081112,-0.0017684253,0.012069679,0.025534464,0.03895831,0.039663676,0.022441018,0.010415309,0.013392599,0.020296311,0.021866253,0.013492302,0.011348931,0.004377889,-0.0019760837,-0.0038101377,-0.0032451581,0.0032591776,0.0045475974,0.006358876,0.005276264,0.0023941372,0.0018109971,0.0019071739,0.0062236413,0.011893388,0.008482511,0.0029643944,-0.0003745286,-0.0011143456,0.0029067916,0.002685826,0.0044015376,0.0005191362,-0.002140014,-0.004089476,-0.0035936346,0.001848703,-0.0014134955,-0.0025471926,-0.0032021394,-0.00355966,0.00072876073,-0.0005958354,-0.0013234585,-0.0014032034,0.00090413814,0.0030075603,0.0042981617,0.0026587383,0.0005661583,-0.0005656255,0.0056465617,0.011454815,0.01740145,0.018077299,0.010229763,0.0046783644,0.0054430347,0.008232477,0.00910642,0.0056957793,0.005169859,0.001908552,-0.000977496,-0.001768928,-0.0014349159,0.0012570915,0.00030689107,-0.000840516,-0.0007844753,0.0008589959,0.0038954853,0.005541343,0.0040043164,0.0012136434,0.0002752095,0.0037989446,0.008367974,0.013060569,0.011743276,0.0055608456,0.0018653654,0.0006663485,0.0018006432,0.0026035719,0.0021698482,0.0027193371,-0.00083947845,-0.0024268855,-0.0019701824,-7.6395256e-05,7.218761e-05,-0.004798701,-0.007196221,-0.0069322255,0.0017276786,0.009525604,0.014689352,0.008783358,0.00030497857,-0.0034457482,0.020113535,0.04389368,0.06800719,0.06966656,0.039896354,0.018220713,0.024102453,0.036321923,0.03898828,0.024135303,0.020093177,0.008095023,-0.0030881048,-0.0066149766,-0.0059389793,0.0027553297,0.0033018098,0.0042763003,0.0033694226,0.001112695,0.0015063734,0.0020867477,0.0057853493,0.010127349,0.0070572086,0.0029382273,0.0003597337,0.00084132137,0.00560833,0.0044616894,0.0042746714,0.0005962542,-0.0021188688,-0.0037744793,-0.0031404472,0.0033655996,-0.000148613,-0.0017749,-0.0031327808,-0.003435168},
{-1.4053143e-13,-4.870516e-16,-3.29369e-16,6.4185293e-16,-7.2370426e-16,-1.1190003e-13,-5.8466114e-18,8.357888e-21,1.4317126e-21,4.6780416e-21,-2.370606e-13,-4.6131294e-16,6.6774217e-16,5.70408e-16,-3.753771e-16,-1.2226744e-13,3.8515456e-16,6.8716517e-16,-8.32519e-17,-1.0072973e-16,-1.1689303e-13,4.8072796e-17,-8.611585e-16,2.8110043e-16,-2.4181224e-16,-4.895515e-16,-2.1774848e-17,3.0477908e-16,4.3478355e-16,8.195504e-16,6.0725906e-21,-1.5067009e-21,-1.7115047e-22,-4.6317465e-21,-4.260543e-21,1.6430207e-17,-3.462622e-16,-4.3859472e-16,7.338742e-17,2.1588075e-16,2.6479343e-16,2.1807038e-16,-7.431401e-17,3.6203525e-17,-4.1804506e-16,9.2954176e-17,9.416171e-18,5.942335e-17,8.0378576e-17,2.235638e-16,1.6020333e-20,2.4193536e-17,8.7191547e-17,1.3414544e-17,-9.321059e-22,-8.358416e-16,-2.4326172e-16,1.8530602e-16,-1.8464156e-16,2.2418662e-16,-2.3297558e-14,1.2596076e-16,-1.8663051e-23,2.6234306e-17,3.1542253e-17,-4.4431494e-16,-2.982424e-17,1.6705286e-17,8.490282e-17,-5.0395853e-17,-2.4890694e-15,-1.361396e-15,-3.3515545e-17,1.1704185e-16,-1.6042074e-21,-4.0941323e-13,-8.137489e-12,-6.370766e-12,-3.8375e-12,-2.3021194e-12,-3.500844e-14,-1.7735432e-12,-1.1770266e-12,-7.77019e-13,-5.72514e-13,-8.633055e-14,-2.55544e-12,-7.309731e-13,-2.5879198e-13,-1.4099071e-13,-6.1424753e-13,-7.0631925e-12,-6.0491255e-13,-4.0266442e-14,-1.2973116e-14,-1.6523608e-13,-6.3809553e-13,-8.493867e-15,-6.384293e-16,-1.6810806e-16,-3.2904023e-18,-2.922924e-17,-1.10488883e-16,-2.9872757e-21,1.7992594e-21,2.2717662e-16,1.2972345e-16,1.0429537e-16,-3.0705537e-16,-6.650463e-17,1.3367548e-16,-4.7522287e-17,-5.7783266e-23,3.1078638e-17,-5.628866e-17,-3.714751e-21,2.8270208e-17,6.770944e-17,-2.6983426e-18,-8.846055e-17,-4.280832e-18,-3.0274357e-17,1.5606522e-16,4.3796226e-17,-4.1534454e-23,8.041203e-17,-4.5582913e-17,-6.811176e-17,-2.542603e-17,1.6503215e-16,-1.6085554e-14,-5.1600824e-17,4.274871e-17,-4.5027762e-17,7.528181e-17,-1.4017006e-14,-3.929535e-17,-5.3245437e-17,-1.3306116e-17,4.63889e-17,-1.8907787e-15,-6.1759945e-17,-1.0987754e-16,-3.442388e-17,-8.536168e-17,-3.640621e-15,5.2996396e-17,1.2253584e-17,-3.2106344e-17,6.998273e-17,-8.346887e-22,2.438373e-17,2.425074e-17,-2.062309e-18,-5.211233e-22,1.546975e-16,3.8869267e-17,-6.611505e-17,8.428947e-17,-9.745383e-17,-2.3187986e-15,-4.173863e-17,3.357724e-23,3.3662756e-18,-6.0997444e-18,-2.3684275e-19,1.1746986e-17,-2.3845834e-17,-5.9698907e-19,3.6964485e-17,-3.4850636e-16,7.240792e-17,-8.079021e-17,-2.025996e-17,-4.4198627e-22,-6.691182e-17,7.3716047e-17,-9.748387e-17,-1.0002615e-16,-3.0385333e-15,-9.8354514e-17,1.0986915e-16,-1.5511235e-16,-1.3649346e-16,-1.3831069e-14,-2.354165e-17,1.6625774e-17,-3.8342616e-22,5.558721e-22,-5.1739374e-18,6.597925e-18,3.7733928e-17,3.9497242e-17,3.6892937e-17,4.1447526e-17,7.0967564e-17,8.415567e-17,-6.571252e-17,-8.635564e-18,-2.837163e-18,-1.2780932e-21,3.5774813e-18,-1.5744507e-16,-1.1315521e-21,-2.3591458e-21,-4.9488837e-16,2.3322073e-16,3.843758e-17,6.109641e-16,8.0022677e-17,-1.7072632e-14,2.528363e-16,-8.86855e-23,-2.335912e-17,-1.0279986e-16,-1.1852828e-16,-5.901409e-17,-1.5573947e-16,1.6784228e-16,-5.711068e-17,2.6574762e-17,-2.0891378e-16,6.7920515e-17,3.3775955e-17,2.300533e-21,-6.9734833e-14,-1.5808992e-16,1.2350177e-16,1.1893955e-16,1.7927581e-16,-9.894401e-14,9.896564e-17,-7.154608e-17,7.586901e-17,9.189748e-17,-3.6114395e-14,5.627711e-17,1.7589056e-17,1.8568248e-17,-2.2560005e-17,-8.600108e-14,8.9400384e-17,-6.755129e-19,1.2080473e-16,1.2726753e-17,-5.4247764e-14,1.3950662e-17,-8.336249e-18,-5.745791e-17,3.8213263e-17},
{-0.00046816145,-0.018274982,-0.010567644,0.00092636666,-0.0006468165,0.03485724,0.017968753,0.015396614,0.014407557,-0.0022570242,0.12756872,0.18497242,0.12880795,0.01777856,-0.017752426,0.06648789,0.19605911,0.14487694,0.025931966,-0.02940384,-0.0277998,-0.005987139,0.0022284053,-0.017518984,-0.022896029,-0.0045978916,-0.010715482,-0.005310317,-0.0021831836,-0.0024944514,0.018838849,0.014616739,0.011608049,0.003767617,-0.006547894,0.10058561,0.10788119,0.056635432,-0.0043690028,-0.013724495,0.06839239,0.09907361,0.04983719,-0.009852181,-0.01928048,-0.012183535,-0.01391062,-0.021229278,-0.019964255,-0.016856747,-0.001883636,-0.0015868058,8.103161e-05,-0.0032427944,-0.0011845004,-0.0063918713,-0.005711563,-0.0022068534,-0.001949497,0.00047263544,-0.012008676,-0.013544385,-0.003963875,0.004012258,0.007908119,0.011477297,0.003517539,-0.002189537,-0.0047048884,0.000800943,0.055872597,0.06272234,0.028869707,-0.0020570138,-0.008791623,0.05209685,0.048679054,0.042132612,0.049146045,0.03375253,0.04470998,0.04712866,0.03974769,0.030511849,0.0181057,-0.030444318,-0.012567531,0.021738391,0.04225783,0.022269461,-0.13037266,-0.14382906,-0.034753036,0.05373088,0.045332566,-0.09841243,-0.12010761,-0.03921782,0.04649367,0.040967762,-0.002581607,-0.0022883865,-0.00022525915,-0.0049847616,-0.0016355421,-0.008253383,-0.0071047335,-0.0030548193,-0.0030943793,0.0010976278,-0.017381601,-0.018745815,-0.0062356675,0.0055136383,0.011191497,0.01216054,0.00058682024,-0.004983123,-0.0062971013,0.002496461,0.0763454,0.08126612,0.035861466,-0.0039062214,-0.011197082,0.00015387185,-0.0022973856,-0.0019869427,0.00092624576,0.0006251994,0.0026513704,9.589294e-05,-0.00014460702,0.0014543264,0.00026459186,0.010462402,0.015435737,0.012039551,0.0029874623,-0.001998463,0.010315792,0.03474551,0.029274866,0.008606934,-0.0031342302,-0.002672961,0.013609222,0.016839286,0.0047430345,-0.005480395,-0.0007866543,-0.00075849873,0.00035305947,-0.0016968526,-0.0003094389,-0.00437419,-0.003865837,-0.0013350841,-0.0011977023,0.00059473614,-0.006986179,-0.0076946896,-0.0019838372,0.0024922406,0.00495755,0.0071566356,0.0018654021,-0.0014656973,-0.0029636743,0.0005722901,0.033933718,0.0366601,0.01609795,-0.0015573183,-0.005160276,-0.002082536,-0.0011405988,-0.00016009824,-0.002037457,0.004089931,-0.0026839122,-0.0024451914,-0.0013215439,-0.0021022495,0.0026502502,-0.0031957838,-0.0042739636,-0.002444042,-0.0016532555,0.003921291,0.022445707,0.00973208,-0.0041168113,-0.00665495,0.00050962926,0.036919434,0.029772876,0.0032110019,-0.008047256,-0.0026166847,-0.0055643287,-0.0047986936,-0.0017698917,-0.009936583,-0.004404594,-0.012972586,-0.011257197,-0.005538009,-0.0056096637,0.00062452815,-0.03224013,-0.03511382,-0.012841876,0.009603476,0.018729623,0.017667804,-0.0007215518,-0.008322276,-0.0099907955,0.0044028377,0.13234882,0.14456278,0.06636139,-0.0059536556,-0.020218227,-0.0005468529,-0.0021566157,-0.00139489,0.0010156779,0.00084364804,0.0014704678,-0.0008770591,-0.00066990143,0.00069968525,0.000590645,0.0060812347,0.008049022,0.0070627346,0.0027772486,-0.0011931498,0.008708591,0.030507477,0.02685197,0.007978353,-0.0026909728,-0.000587672,0.020168377,0.022060826,0.006972817,-0.005182466},
{-0.023042453,-0.030968178,-0.024684286,-0.016142609,-0.013766524,-0.018324003,-0.024959564,-0.013902595,-0.00660135,-0.0045485743,-0.023928002,-0.030591607,-0.026351955,-0.0021711565,0.012803431,-0.014583265,-0.027016541,-0.022409696,0.007857911,0.022724558,-0.021679813,-0.029138366,-0.032525312,-0.023858761,-0.010953616,-0.017379483,-0.017507682,-0.01207803,-0.008641945,-0.008763489,-0.014282081,-0.011865919,-0.0060989694,-0.003919208,-0.0016285089,-0.017009275,-0.018251777,-0.01055668,0.004447437,0.010229571,-0.012532414,-0.014482728,-0.0051417057,0.011050116,0.015697945,-0.015099352,-0.01770007,-0.016529392,-0.011582679,-0.006289149,-0.0050553265,-0.0064592534,-0.007271859,-0.0068623284,-0.006581752,-0.0063277963,-0.008983199,-0.007826006,-0.006335207,-0.0059175463,-0.007816383,-0.007264365,-0.0041484158,-0.005363858,-0.0064869546,-0.008072633,-0.0077909073,-0.0068331035,-0.0050766952,-0.004451609,-0.007542068,-0.009149718,-0.0027683019,0.005887939,0.0082641365,0.028822998,0.03795973,0.03499524,0.030862853,0.02626132,0.039376657,0.044007223,0.031558964,0.024181237,0.021885455,0.044115108,0.046285063,0.02964182,0.016855014,0.010262986,0.044610806,0.04966534,0.027257878,-8.413676e-05,-0.01233155,0.035186753,0.041481525,0.019064585,-0.00832449,-0.019789217,-0.006468829,-0.008013144,-0.009114811,-0.008637917,-0.008189132,-0.008554627,-0.0120070195,-0.010483096,-0.00867522,-0.008037145,-0.010564843,-0.009536001,-0.00555095,-0.0074951877,-0.008846518,-0.011041772,-0.010053004,-0.008640468,-0.0068596364,-0.006094603,-0.010596383,-0.012320383,-0.0031360316,0.008069541,0.010855678,-0.0020503837,-0.0038434223,-0.0043766163,-0.0032387213,-0.0025318179,-0.0020661696,-0.0040694242,-0.0035667804,-0.0020861567,-0.0015417959,-0.002291177,-0.003786364,-0.0038333654,-0.0022946545,-0.00047085958,-0.0022882638,-0.004291553,-0.0051407386,-0.00065906707,0.0030574708,-0.0018725337,-0.004349352,-0.0055393283,-0.0018328074,0.0017204169,-0.0034142784,-0.004258571,-0.004745074,-0.004384311,-0.0041249897,-0.0038882766,-0.0055188388,-0.004799117,-0.0039534126,-0.0036003944,-0.0048880684,-0.0044419765,-0.0025627813,-0.0033151573,-0.003961216,-0.0048750546,-0.004705909,-0.004122755,-0.0031559956,-0.0027733191,-0.004523448,-0.0055122143,-0.0015521449,0.0036413532,0.005073002,-0.0030291567,-0.0037834907,-0.0033323583,-0.00340474,-0.0023137205,-0.0042393235,-0.004066603,-0.002350747,-0.0026244228,-0.0020606245,-0.004355764,-0.0027367868,-0.00066724676,-0.0014604656,-0.0019231857,-0.0043906374,-0.0043276963,-0.00069917866,0.0007047688,0.0005486159,-0.0046287077,-0.005016234,0.0012892867,0.005825002,0.00575609,-0.0097234,-0.012478938,-0.014590017,-0.014123005,-0.013723023,-0.014342655,-0.02031008,-0.01808047,-0.014874564,-0.01398835,-0.017657273,-0.01624465,-0.009407247,-0.012746485,-0.015197003,-0.019114329,-0.017092917,-0.014496622,-0.011364744,-0.010250099,-0.018578991,-0.021476243,-0.0060862214,0.0131298015,0.017911186,-0.0014809889,-0.002628482,-0.003526876,-0.0027806787,-0.0022743756,-0.0018608951,-0.0034555474,-0.0031634527,-0.0018545197,-0.0015125601,-0.0018698963,-0.0030077456,-0.0030539327,-0.0022004112,-0.001114214,-0.002050608,-0.0035046055,-0.0048041446,-0.0010091077,0.0024456999,-0.0015556106,-0.0036399227,-0.0048862095,-0.0009833233,0.0024526222},
{-0.010643723,-0.01675901,-0.011991128,-0.012073805,-0.013140687,-0.004181089,-0.013685854,-0.014168059,-0.008262934,-0.0071794894,0.03667546,0.03633465,0.005007038,-0.013965652,-0.012107094,0.03430023,0.060028624,0.033293627,-0.010161894,-0.022929104,-0.008155651,0.0022123877,0.0006184571,-0.010599127,-0.016923357,-0.008840527,-0.009720756,-0.007896648,-0.0073166583,-0.0069699446,-0.0048658564,-0.008518014,-0.007910642,-0.0042449916,-0.0042565865,0.023636032,0.016861139,-0.001602224,-0.00911384,-0.006111936,0.023953661,0.028010236,0.009267053,-0.011405408,-0.011605,-0.0044256267,-0.002396143,-0.0058669457,-0.009052725,-0.009318713,-0.0042033494,-0.004132693,-0.0041512116,-0.0053363754,-0.0035563894,-0.0045690844,-0.003751739,-0.0025714485,-0.0043406263,-0.0037830344,-0.004252528,-0.004593218,-0.0028550618,-0.0017513423,-0.0011391266,0.00024247955,-0.0037801005,-0.0058229095,-0.0036651501,-0.0014973738,0.016153384,0.015268741,0.0036413653,-0.004799355,-0.0039925063,0.008640947,0.011008339,0.013769327,0.02568873,0.024794476,0.011745781,0.017231103,0.015690003,0.019620506,0.017041646,-0.0030528605,0.009783678,0.017816775,0.020296248,0.013206775,-0.04032309,-0.028389506,0.0034206107,0.023599176,0.017468719,-0.037756123,-0.03681165,-0.005275589,0.020854678,0.013678637,-0.005515053,-0.005639265,-0.0057720803,-0.0073532215,-0.0046371017,-0.0060924883,-0.004915187,-0.003794535,-0.006314385,-0.005014427,-0.0060363873,-0.0064593116,-0.0039982283,-0.0025237596,-0.0013908877,-0.00039143898,-0.0059692743,-0.008125238,-0.004740296,-0.001724984,0.021981077,0.019548433,0.004126546,-0.006631157,-0.0049680895,-0.0010978855,-0.0020911945,-0.0010683829,-0.00072141935,-0.0015900278,-0.00063658337,-0.0018478151,-0.002141654,-0.0010990814,-0.0013906047,0.002150983,0.0014636366,-0.0012239419,-0.0016698589,-0.0013674052,0.0040669576,0.009014649,0.004341051,-0.0015493215,-0.003180021,0.0006352839,0.0047134575,0.0039512236,-0.00077184546,-0.0037786132,-0.0025395795,-0.002496227,-0.002524109,-0.0032673995,-0.0020882378,-0.0029332319,-0.002233755,-0.0013749184,-0.0025982826,-0.0022228786,-0.002470944,-0.002647482,-0.001546548,-0.0010614961,-0.0007211455,8.8686975e-05,-0.002406003,-0.0035114188,-0.0021773942,-0.00089547335,0.009631545,0.008758729,0.0018317738,-0.0029671404,-0.0023481343,-0.0025696086,-0.0016872074,-0.0021944523,-0.0035039198,-0.0009989458,-0.0023558217,-0.0017092499,-0.0013101185,-0.0027089736,-0.001584116,-0.0021495214,-0.00233547,-0.0014796873,-0.0016845192,-0.0008258268,0.003023665,-0.0009209778,-0.0030148213,-0.0025232432,-0.00073161494,0.009767744,0.006084712,-0.0013156217,-0.004043043,-0.0018268054,-0.009532828,-0.009954392,-0.010116636,-0.012832371,-0.008358994,-0.010066387,-0.008083842,-0.0072441217,-0.011274551,-0.009008193,-0.011200979,-0.011988725,-0.00772276,-0.004669403,-0.0024785232,-0.0006795739,-0.010298358,-0.014236178,-0.008451914,-0.0030481466,0.039541367,0.035996605,0.008447939,-0.011400637,-0.008802207,-0.0007401493,-0.0016701366,-0.0007645339,-0.00046469388,-0.0012026327,-0.00067540223,-0.0016645635,-0.0016792881,-0.0008937642,-0.0013623391,0.00093442213,0.000102635124,-0.0014563553,-0.0013472122,-0.0011531076,0.0033818777,0.007637469,0.0033608784,-0.0012814419,-0.0025206993,0.001440717,0.0063557215,0.0049081673,-0.00024691096,-0.0035829535},
{-2.024425e-15,-2.0025991e-15,-6.724763e-16,1.9069517e-15,-2.0408916e-15,-1.13966415e-07,-3.090636e-09,6.1900985e-14,6.7516907e-15,1.6779218e-16,-2.0968812e-08,-2.228888e-09,-1.9983044e-09,-3.1566108e-10,-1.5815184e-14,-9.551152e-06,-6.910853e-06,-8.106631e-06,-1.17793525e-05,-1.872158e-06,-9.0585476e-05,-6.651815e-05,-4.5626628e-05,-6.38303e-05,-3.1457505e-05,-1.2575259e-15,1.0925994e-15,-1.0529065e-15,-3.1204456e-16,-1.2182483e-15,-3.0780381e-15,-1.7996424e-15,6.9254076e-16,1.1309952e-15,1.6357289e-15,1.6609807e-15,1.8511486e-15,-2.0867667e-15,6.9334125e-16,6.522356e-16,-9.1864194e-08,-4.99671e-09,-3.329737e-09,-9.211112e-10,1.6381468e-13,-9.940379e-07,-2.5322126e-07,-1.7965517e-07,-1.1962712e-07,-3.420808e-08,9.317064e-16,-1.6842177e-16,7.0432224e-16,-7.2916376e-16,7.035235e-16,-2.6152695e-16,1.8707705e-16,-5.398009e-16,-4.395432e-17,-8.621573e-16,9.971407e-16,-8.243624e-17,-6.141514e-16,-9.914828e-16,8.218233e-16,-4.577813e-16,-9.521186e-16,2.627502e-16,7.5659063e-16,-6.969348e-16,-6.275236e-16,-5.661828e-16,-5.8289843e-16,1.493953e-15,1.2830399e-15,-0.0009711203,-0.0009074688,-0.0008650988,-0.0008544882,-0.00055231614,-0.000650515,-0.00080176647,-0.00073916704,-0.0006396493,-0.00050425006,-0.0004594887,-0.00051199656,-0.0003891927,-0.00055693,-0.00057303946,-0.0004347435,-0.00040183432,-0.0003099867,-0.00041980823,-0.00040953295,-0.00031806141,-0.00034339042,-0.00028539775,-0.00026775256,-0.00020241369,1.0194416e-15,-1.3441067e-15,-1.2830781e-15,5.576317e-16,6.833234e-16,-4.8196524e-16,9.007541e-16,-4.5516094e-16,2.562044e-16,6.611138e-17,7.3361444e-16,-2.3335345e-16,1.3236417e-16,8.5507436e-16,1.1112708e-15,1.6210658e-15,-1.3631144e-16,-9.549842e-16,-1.1179041e-15,-2.2912225e-16,-2.7464247e-15,-1.9512871e-15,-1.0316334e-15,-5.511448e-16,-1.5666088e-15,3.034646e-16,-4.1171403e-17,-4.439441e-16,3.798159e-16,-4.4376956e-16,-5.3688204e-16,-2.0129419e-16,4.2345374e-16,-1.0865412e-16,4.830267e-16,-1.0672314e-16,-5.962987e-16,-1.4281846e-16,4.6037194e-16,5.3688013e-16,6.0513865e-16,2.5098094e-16,7.983859e-16,7.2249983e-16,-5.1799945e-16,-1.2500028e-16,-3.5384542e-16,-3.7758802e-16,1.148948e-15,-1.1077444e-15,2.0977903e-16,6.0668756e-16,3.750565e-16,6.3589823e-16,2.0777591e-16,3.950253e-16,-4.4002973e-16,-4.928058e-16,-5.080868e-16,-5.7256367e-16,-6.229762e-16,1.4990911e-16,1.3947459e-16,-2.8075616e-16,7.615254e-16,-2.5863473e-16,6.317668e-16,5.1481276e-17,-2.6040667e-16,3.2750592e-16,-8.439747e-16,9.9090996e-17,-1.1306466e-16,-9.116228e-16,6.1907743e-16,-2.8626185e-16,2.8315742e-16,-1.684949e-16,-3.5679156e-16,7.719818e-16,3.2925777e-16,3.212093e-16,3.226266e-16,1.3868915e-16,-3.829768e-16,-4.2657418e-16,-4.6855983e-16,-2.0037591e-16,-5.4145194e-16,-1.0247266e-15,6.7656974e-16,-9.7684075e-17,-3.8761617e-16,-3.661204e-16,8.453894e-16,-6.5625836e-16,5.058995e-16,1.011952e-15,-6.133226e-16,-1.0694343e-15,-2.3762457e-15,2.8340873e-15,-3.2984485e-16,4.2225948e-16,-8.949596e-16,-1.9503876e-16,-1.3497946e-15,1.1600961e-15,-7.170348e-16,4.1299847e-16,1.8647715e-13,2.5745753e-15,-1.2794408e-16,-2.1686066e-15,-9.535111e-16,-4.813378e-12,-7.465888e-15,1.5510128e-15,1.8522474e-15,1.6418361e-15,-1.3637501e-08,-3.0944539e-10,-2.658514e-10,4.0901825e-14,-3.1626465e-15,-5.7250414e-17,2.2817366e-16,3.9507292e-16,3.3117262e-16,-1.1170191e-16,-5.595031e-16,-6.732024e-17,4.526574e-16,1.7419627e-16,-4.044647e-16,-2.2081177e-16,-5.7582343e-16,3.1519237e-16,-1.5522101e-16,-6.2310927e-17,1.1957217e-16,-4.3654673e-16,6.4858425e-16,6.746234e-16,-8.601675e-17,-7.1829003e-16,1.2412622e-16,4.836506e-16,7.5281535e-16,2.1879386e-16},
{0.020309158,0.04320633,0.060135648,0.052033868,0.027407,0.011025572,0.0157252,0.043019373,0.061492193,0.04088271,0.0046969475,-0.01771006,-0.02948337,-0.02786585,-0.017994255,0.009030938,-0.00806889,-0.017107517,-0.022089044,-0.022308184,-0.006836961,-0.013477607,-0.010180101,-0.0068278355,-0.01348035,0.01677006,0.029692074,0.03487052,0.026169524,0.012596052,0.008798348,0.013008535,0.026482254,0.029878112,0.018936992,-0.0008254359,-0.013987456,-0.021278167,-0.019907018,-0.013086689,0.0013455859,-0.0072561353,-0.011703914,-0.011985867,-0.01124361,-0.007746142,-0.0071102334,-0.004113113,-0.0026450714,-0.0031572578,0.0007385071,-0.0011271834,-0.0025914425,-0.002491399,0.00060237653,0.004408188,0.005920657,0.0030306745,-0.00020523186,-0.0017332612,0.00938624,0.019455891,0.028430335,0.028478181,0.01666559,0.009401043,0.012514274,0.016739383,0.016319191,0.011008762,0.008397543,0.0027980164,-0.0018237757,-0.0030570172,-0.002379111,-0.007852998,-0.013284629,-0.0057957848,0.013549724,0.019807674,-0.027385268,-0.046650644,-0.054856356,-0.03194616,-0.0018291682,-0.021151664,-0.026653223,-0.032605425,-0.02033419,0.0012203774,-0.00021416027,0.023086734,0.039215665,0.043060075,0.033119094,0.027823903,0.050242182,0.060926232,0.06149979,0.047056668,0.0004485655,-0.002109699,-0.0039214035,-0.003300908,0.0010730894,0.0059430967,0.007671962,0.0035044583,-0.00086401624,-0.0025602013,0.0126954075,0.026575768,0.03836433,0.037617378,0.021690875,0.012794723,0.017809073,0.024225593,0.023505189,0.015458263,0.011029425,0.0038225243,-0.0022367996,-0.0037542433,-0.0028949797,0.0035852173,0.0048536686,0.0061605573,0.004346766,0.0016664333,0.0018324362,0.0030270182,0.0074998797,0.011668659,0.007754228,0.0028330646,8.2121085e-05,0.00049722614,0.0035087292,0.002784597,0.003922313,-0.0002501344,-0.0025639904,-0.0041775648,-0.0037007888,0.0020914613,-0.0011513737,-0.0017233745,-0.001964793,-0.0026215645,0.00051049853,-0.00064205774,-0.0015357417,-0.0014235375,0.0005554875,0.0028882313,0.0036986738,0.0017767034,-0.0001012127,-0.0010009374,0.005861352,0.012023297,0.017310547,0.01717374,0.009936966,0.0056431754,0.0076002395,0.010289846,0.009992781,0.0066885445,0.005006218,0.0016529992,-0.0011140035,-0.0018380265,-0.0014338292,0.0007471685,8.011355e-05,-0.00086825254,-0.0008769133,0.00023159789,0.0033430269,0.0046717906,0.0030370373,0.000471461,-0.0004904334,0.0040561333,0.008992724,0.012616168,0.011092168,0.0056380043,0.0020494899,0.001824067,0.0027291141,0.003128528,0.0030378199,0.0017972462,-0.0014546587,-0.002866038,-0.0023099463,-0.00040343747,0.00021343166,-0.0047729355,-0.00763232,-0.0058392254,0.0020877805,0.009383527,0.01252537,0.005801997,-0.001976463,-0.0049472954,0.021352757,0.045501307,0.066685066,0.0659515,0.038485758,0.022670675,0.031615246,0.04291841,0.04191065,0.027651235,0.01953111,0.0071248733,-0.003469986,-0.00622626,-0.0047583347,0.0029401518,0.003454027,0.0041134246,0.002724685,0.00058532046,0.0014500137,0.0027732525,0.0065383986,0.009582948,0.006246118,0.002783839,0.0010140511,0.0024412596,0.0060242047,0.0043513454,0.0039632483,2.5723686e-05,-0.002101938,-0.0035713685,-0.0030633518,0.0034175997,-4.560491e-05,-0.0011762625,-0.002115448,-0.0024649422},
{0.008512947,0.011524688,0.012746438,0.0073094396,2.2670181e-05,0.004310702,0.015551953,0.033072583,0.03231065,0.013976602,-0.0064120525,0.002840523,0.027600033,0.035261508,0.019748142,-0.00962106,-0.012363508,-0.0076262373,-0.0018402922,0.0010215864,0.0108148875,0.0025781936,-0.0025276763,0.0027918566,0.0062289527,0.005426536,0.0075854873,0.0071612983,0.0028041482,-0.00051755644,0.0044469154,0.013997989,0.021212967,0.016586728,0.006493612,-0.0021833966,0.007021906,0.01709661,0.016301177,0.007541013,-0.0059714383,-0.0057421913,-0.0037166413,-0.00253563,-0.0021509754,0.006087156,0.0012272872,-0.00088363484,0.0018414615,0.0033138138,0.0005718985,7.854547e-05,0.00026289755,0.0012947338,0.0017367165,-0.00018261361,-0.0007769892,-0.0015520987,-0.002131032,-0.0010599653,0.0011422856,0.0016415486,0.0014262738,-0.00054987054,-0.0015694054,0.0034102425,0.009670221,0.01366395,0.0107009215,0.003657054,-0.0005604166,0.0029466136,0.005708089,0.0050864355,0.0026948787,0.0074178358,0.009413593,0.008996024,0.012186729,0.010303845,0.002047725,-0.0023920846,-0.0051242374,0.0023410458,0.0078059416,0.002349674,-0.013669415,-0.026348349,-0.015624398,-0.00035880244,0.0107336575,-0.0022213678,-0.01746411,-0.013101764,-0.0015641635,0.012481734,0.012769087,0.0069317333,0.00077019085,-0.00019246487,0.00032133635,-0.00013798785,0.00012473318,0.0021960184,0.0024997725,-0.00028055755,-0.0011551143,-0.0022094364,-0.0030254996,-0.0014500653,0.0015572377,0.0019022748,0.0013895576,-0.0012999603,-0.0022011695,0.005042331,0.013455678,0.018310202,0.013823196,0.0044847145,-0.0006222644,0.0045149643,0.008214768,0.006982129,0.003615138,0.0011760572,0.00076794025,0.000548363,0.00033231717,-0.0005551583,0.0011467657,0.0012066821,0.0032293866,0.0031112372,0.0010715497,0.00013547699,0.0003092774,0.004660394,0.0065053403,0.00392869,-0.0009708566,-0.0014834129,0.00075946975,0.0027499434,0.0025740338,0.00021231406,-0.00060673995,-0.00079582335,0.00053037895,0.0008972715,0.00066392496,0.0003781599,0.00044361825,0.0012540817,0.0013515758,-0.00014279831,-0.00048818506,-0.0009586351,-0.0012725486,-0.00061880436,0.00083050516,0.0011578618,0.0009798675,-0.0003129895,-0.0010192271,0.00213228,0.005967304,0.008359488,0.0064421915,0.0021501242,-0.00045886537,0.0017902732,0.0035155632,0.0031095291,0.0016734907,0.00029797287,0.00021760861,6.6012566e-05,0.00023497376,0.0007400448,0.00027641424,0.00023404624,-0.00036702823,-0.00090374163,-0.0004255129,0.0013092328,0.0035897454,0.0028714354,0.00017965057,-0.0009741561,0.0016087095,0.006625867,0.007952915,0.0043479456,0.00085483666,-0.0005938007,0.0014448689,0.002627501,0.0019583208,0.0005164578,-0.00075720693,-0.0016309799,-0.0011239334,0.0014462234,0.002515513,-0.0006738315,-0.0023924764,-0.003969734,-0.005534786,-0.0028456394,0.0020383252,0.0023297993,0.0015962039,-0.0026406464,-0.003835326,0.0086680995,0.023041958,0.03165275,0.024220187,0.007896574,-0.0005441867,0.007955776,0.014318167,0.012223598,0.006195697,0.00090983737,0.0002996222,1.9691732e-05,3.1465665e-05,-0.00041691848,0.0010594452,0.00081851723,0.0019085122,0.0017164554,0.00036425987,0.00029999597,0.00016204837,0.0040813596,0.005629133,0.0032976163,-0.0007457778,-0.0011370756,0.001673263,0.003901983,0.0030487496,-0.000336502,-0.0009597232,-0.0005436159,0.0005529997,0.00089052407},
{0.0035807965,-0.00235739,0.008063016,0.030279351,0.031824227,0.0077232355,0.0016609455,-0.0061697876,-0.0069713057,-0.0012527535,0.014036829,0.01275227,0.0041982243,-0.0067307395,-0.009648898,0.008469289,0.008583522,0.005141591,-0.0011230911,-0.0047662854,0.0027539635,0.0042235292,0.003160683,0.0046721995,0.0015410099,0.0007497817,0.00058356347,0.010126557,0.019534836,0.017038817,0.0037127512,0.001304441,-0.0029404636,-0.003715741,-0.002075095,0.008850057,0.0066976855,0.000282532,-0.0054683485,-0.006383116,0.0048563867,0.0035799535,0.00020256169,-0.0022767242,-0.0026380399,0.0016811565,0.0010551028,0.000931489,0.0022008487,0.0017562826,-0.0012505851,-0.0009234835,-0.0010565197,-0.00094697543,-0.0011537018,-0.00063810684,0.00063127984,0.006452807,0.011490041,0.009788572,0.00035663944,0.0005638447,0.0044977376,0.008730492,0.00865174,0.0017871098,0.001496595,0.00023724356,-0.0008854553,-0.001072255,0.002426072,0.0015995019,-2.6814268e-05,-0.0015938737,-0.0021596295,0.018378241,0.014303904,-0.004847833,-0.014694144,-0.0077468106,0.00769109,0.006445681,-0.0066323555,-0.015969181,-0.012222519,-0.0045857984,-0.003206059,0.0028336172,0.011248507,0.006816979,-0.005895177,-0.0037262002,0.008811404,0.021463722,0.01593539,-0.0043140813,-0.0004172203,0.008582083,0.01614353,0.011914975,-0.0017257369,-0.0012151642,-0.0014979048,-0.0015009916,-0.0017945169,-0.0012279402,0.00075077004,0.008714308,0.01574355,0.012973275,0.00035792688,0.00058777427,0.006048438,0.012557201,0.012275132,0.0022829664,0.0018775169,0.00017935489,-0.0010661923,-0.0011275256,0.0031990367,0.0021015569,-9.9565834e-05,-0.0020715338,-0.0027266291,0.0013037882,-0.000101945065,0.00033699788,0.0034500286,0.003968826,0.0017315474,0.00032467174,-0.00014467575,0.0014913974,0.0024861495,0.0017852547,0.0010336409,0.00030866504,-0.0011141091,-0.001383411,0.0019942822,0.0016438472,0.0015693196,0.0001277304,-0.0007912884,0.0015398278,0.0011843924,0.00049720355,-0.00013173919,-0.0013120417,-0.00065519323,-0.00047625884,-0.00063120044,-0.0005800825,-0.0007007164,-0.00019188088,0.0006315876,0.0041106907,0.0069399406,0.005861368,0.00034875888,0.00057712174,0.0030797555,0.005404331,0.0053268857,0.00097232324,0.00083268463,0.000119016375,-0.0004711476,-0.00059850625,0.0014791156,0.0009529649,-3.9018305e-05,-0.0009341916,-0.0013054237,-0.00077334256,-0.00026582455,0.0003881624,-0.00032531758,-0.0010896947,6.816422e-06,0.0010483481,0.004310273,0.005574114,0.0036138585,0.00037742945,0.00011060388,0.0013697379,0.0020360926,0.0023061698,0.0011178625,0.00038195075,-0.0006115772,-0.0017412486,-0.0009370658,0.0012440692,0.00039952755,-0.0006870921,-0.0015525385,-0.0013115619,-0.0035190275,-0.0026802039,-0.0028706747,-0.002831329,-0.0034740942,-0.0032864555,1.46120365e-05,0.014866279,0.028468,0.02347876,5.1799136e-05,9.253181e-05,0.009525628,0.022277107,0.02176626,0.0044318875,0.0036822604,0.0003324266,-0.0024049974,-0.00236533,0.0057735234,0.0038208412,-2.8871822e-05,-0.0037184854,-0.004865983,0.00096577633,-0.0002748807,-0.00016059892,0.0024463828,0.0029768662,0.0013021926,0.00026628296,0.0001869318,0.002158091,0.0030949803,0.0011665764,0.0006913114,0.00012215858,-0.0009608484,-0.0009788345,0.0017245399,0.0015708539,0.0014532867,0.00010029391,-0.00086178037,0.0016584629,0.0012967498,0.00065043074,-0.00037113437,-0.0014541197},
{-2.4973387e-08,-5.660732e-08,-1.394967e-07,-1.9083468e-07,-1.9871796e-07,-1.8193695e-07,-3.2641873e-07,-3.2161373e-07,-1.320661e-07,-6.951038e-08,-1.3937223e-06,-5.103106e-08,-4.408049e-07,6.673179e-07,5.227484e-07,-6.081136e-06,-9.4198754e-07,-4.985019e-07,-2.5213626e-07,-1.0191023e-05,-2.2456186e-06,-7.762576e-06,-4.5058914e-07,-5.7778315e-08,-2.8753794e-07,-2.955148e-08,-5.8005337e-08,-5.5509933e-08,-7.0197295e-08,-8.620938e-08,-1.07437074e-07,-1.6053734e-07,-1.0716354e-07,-4.3558046e-08,-3.3659475e-08,-2.1608672e-08,-4.3329823e-08,-7.399951e-08,-9.679231e-08,-3.839022e-07,-5.535729e-08,-1.9749324e-09,-9.023752e-11,-4.5251333e-08,-8.745049e-07,-1.2675344e-08,-1.838942e-09,-1.2901248e-08,-4.0509583e-08,-9.428198e-08,-1.2441724e-08,-1.4286432e-08,-5.651245e-09,-1.2246071e-09,-7.135861e-09,-4.3126882e-14,-7.350118e-13,-2.1436368e-14,-2.3663067e-09,-1.0417049e-08,-4.616227e-08,-5.994768e-08,-3.9773965e-08,-3.329275e-08,-5.4889092e-08,-5.1276075e-08,-6.970052e-08,-9.445876e-08,-9.569042e-08,-1.0388281e-07,-1.5764396e-08,-5.7078186e-08,-9.023485e-08,-6.9553295e-08,-3.757833e-08,4.465002e-06,-1.3887606e-06,-2.844135e-06,-2.9825899e-06,-2.1059868e-05,8.4676503e-07,-3.5346295e-07,-8.921433e-06,-4.646773e-05,-5.4477863e-05,1.0137811e-06,-2.2782999e-07,-1.9033894e-06,-2.3630434e-06,-6.9614243e-06,-6.7054765e-07,-2.6142888e-07,-5.7606098e-08,-5.202334e-08,-1.4004469e-07,-6.6186647e-07,-5.521266e-07,-4.77246e-07,-2.0897996e-07,-2.1672345e-07,-1.9493832e-08,-2.056459e-08,-6.792291e-09,-2.0436628e-09,-7.026346e-09,-6.275089e-12,-1.8546416e-11,-2.1429702e-16,-2.0284194e-09,-1.3815182e-08,-7.5316485e-08,-8.863833e-08,-5.166185e-08,-3.521628e-08,-5.5777335e-08,-6.4516556e-08,-7.940853e-08,-1.2367902e-07,-1.1495259e-07,-1.1581589e-07,-2.2576428e-08,-7.383463e-08,-1.2735423e-07,-1.0311132e-07,-6.4357586e-08,1.1480255e-18,-1.6616831e-26,-5.68027e-09,-1.959871e-08,-2.275267e-08,-2.1815474e-10,-1.03577245e-08,-1.7436566e-08,-1.4557258e-08,-7.867209e-09,-3.1849254e-10,-7.3626327e-09,-2.4365166e-08,-2.2404762e-08,-1.7803384e-08,-1.0329955e-12,-1.6462985e-09,-1.0453601e-08,-1.2348018e-08,-1.6414321e-09,-6.8390103e-12,-3.428982e-11,-4.077976e-15,-5.9423033e-10,-1.4716665e-08,-7.2714395e-09,-8.65296e-09,-3.1309182e-09,-1.07112555e-10,-3.1543963e-09,-3.4243563e-17,-4.4130247e-14,2.7662502e-18,-8.358556e-10,-5.8083747e-09,-2.3895787e-08,-3.1092494e-08,-2.027256e-08,-1.4696542e-08,-2.8088417e-08,-2.6054737e-08,-3.5628712e-08,-4.816874e-08,-4.6203294e-08,-5.014558e-08,-5.13081e-09,-2.8137835e-08,-4.6352273e-08,-3.6713313e-08,-1.4570479e-08,-6.907478e-09,-1.5068288e-08,-1.2892173e-08,-6.4002377e-09,-1.7573758e-08,-1.9271643e-11,-4.9161227e-11,-1.4668704e-10,-4.0239136e-09,-1.3926012e-08,-3.424433e-08,-5.23064e-08,-2.783294e-08,-2.056054e-08,-4.167162e-08,-2.968197e-08,-5.1398946e-08,-5.2729792e-08,-5.197378e-08,-6.373083e-08,-7.55942e-09,-2.7996101e-08,-3.138762e-08,-3.1959964e-08,-3.2415837e-08,-3.9149576e-08,-3.5844817e-08,-1.0799649e-08,-1.0641367e-08,-2.2263835e-08,-9.677015e-09,-1.6154697e-08,-7.2216884e-14,-6.850155e-09,-3.2911572e-08,-1.9574256e-07,-2.2632311e-07,-1.267778e-07,-1.02662455e-07,-1.3142844e-07,-1.6245255e-07,-1.8943356e-07,-3.0381852e-07,-3.0851453e-07,-3.121055e-07,-7.342978e-08,-2.0055288e-07,-3.3383176e-07,-3.076642e-07,-1.765277e-06,-6.0272495e-18,-4.1146807e-24,-4.867757e-09,-1.4705979e-08,-1.6971581e-08,-4.781039e-20,-2.1859718e-09,-1.1635588e-08,-1.2233168e-08,-6.7588606e-09,-1.3718099e-10,-6.7102492e-09,-2.1617758e-08,-2.0489288e-08,-1.6475859e-08,-4.116772e-14,-2.1993036e-09,-1.8409116e-08,-2.0148386e-08,-1.13423555e-08,-5.870219e-13,-2.1371247e-12,-1.6804183e-15,-2.6482352e-10,-6.25051e-09}
};
float conv2_bias[]={
0.009329998,
-2.9823183e-10,
0.004504919,
0.0038996085,
0.0069366507,
0.0046229186,
0.0076430184,
0.0031071512,
0.0064486978,
0.011230842,
0.0046250387,
-1.00252075e-13,
0.009601779,
0.00013320791,
-0.00052179606,
-2.939047e-07,
0.0047181402,
0.0021954451,
0.0020308646,
-8.277354e-08
};
float fc_weight[][320]={
{-0.0044342903,-0.035873633,0.018033655,0.0080077415,-0.02576951,0.014578198,-0.008445804,0.029707493,0.010478348,0.016649721,0.0057242624,-0.011879932,0.15803689,0.00802515,-0.03788224,-0.059979722,-2.1332033e-12,4.0422866e-11,-5.495195e-15,1.0977716e-14,-8.7498503e-16,-1.1992378e-13,1.8366549e-10,-9.890958e-16,2.8987996e-09,8.0389005e-13,9.639384e-08,4.8104124e-07,-1.3996619e-09,-2.9845828e-16,-4.1283628e-15,-3.0046267e-13,-0.006385098,-0.029943377,-0.029886186,-0.030005818,-0.018087914,-0.023980908,-0.019797454,-0.018950362,-0.022796419,0.00073178136,-0.014364809,0.007247949,0.009144819,0.0025068927,-0.008788226,0.0070326915,-0.02609441,-0.012344772,-0.019762367,-0.01190137,-0.024736907,-0.010011685,0.0032002106,-0.02788681,-0.0052215024,-0.018800862,0.0155698275,0.019069592,-0.059963416,0.029052537,0.0037474097,0.040702373,-0.028807035,-0.004366345,0.007031241,-0.008676596,0.006105254,0.005911402,0.018237177,0.04847249,-0.015834792,0.0073398934,-0.030788759,0.031214392,0.06919273,-0.039321173,-0.020551166,-0.04285481,-0.0359794,0.007581042,0.013585071,-0.0069220006,0.010261059,-0.004482174,0.02528381,0.04981779,0.004615492,0.022844132,-0.027889617,0.049512133,2.872862e-05,-0.046393245,-0.035652336,-0.023963204,-0.01583376,-0.036855686,-0.0063584717,-0.02838365,-0.015722508,-0.031364404,-0.002473392,0.00990342,-0.05183081,0.022713318,0.008288753,-0.01950055,0.11407173,0.037213802,-0.010311326,-0.07994411,-0.011905199,-0.009813468,-0.012218945,-0.008301609,-0.012018743,-0.0038214405,-0.0031183765,-0.010979811,-0.0032386677,-0.007235878,0.00761228,0.008202353,-0.024200603,0.0070027946,-0.0017062146,0.021336097,-0.0125837,-0.019554999,-0.033630084,-0.023964038,-0.022317866,-0.013480322,-0.01500685,-0.043692265,-0.0128240995,-0.016502883,0.015243843,0.01942336,-0.056786343,0.028603366,0.005642959,0.030183902,-0.067472905,-0.008982042,-0.010849935,-0.039318465,-0.026195785,-0.028587436,0.037203476,0.027778078,-0.018872926,0.031378433,-0.030787298,0.06516145,0.06275448,-0.056652457,-0.092159264,-0.022444895,-0.018802913,-0.028698206,-0.032199014,-0.01999197,-0.022193119,-0.005914971,-0.016304886,-0.011630137,-0.0072892183,-0.012239588,0.008313696,0.021101186,-0.0021722042,0.011133401,-0.009518368,0.029852618,5.152078e-10,6.693076e-18,3.008024e-17,4.6282e-14,1.542507e-11,7.4661626e-17,3.910056e-17,1.376036e-17,6.0991244e-14,1.22156875e-17,7.640333e-18,9.207986e-38,-8.930448e-14,9.48242e-12,6.3260613e-15,2.0201097e-25,-0.012782996,-0.05040283,0.02118552,0.014911395,-0.042150985,0.009611095,-0.022900345,0.013499274,0.05377999,0.032889992,0.028535323,-0.046633177,0.19730762,0.041079987,-0.061330076,-0.057479564,0.010291183,0.023709847,0.019266218,0.017531944,0.014203266,0.018102316,0.019041987,0.004893578,0.009082533,-0.0025801687,0.01167924,0.020600349,-0.037126865,-0.005335319,-0.0034098357,0.0059425496,0.004294958,-0.0042988607,0.01689524,0.01803068,-0.0059111784,0.009684623,-0.0033013776,0.005273845,0.027034614,0.009155468,0.015799198,-0.01869607,0.057101507,0.015636198,-0.012586578,-0.015559201,-2.7212212e-15,7.5191173e-16,1.9898576e-15,-9.957734e-16,-1.6349486e-14,4.8016985e-15,1.578995e-15,-1.1182949e-15,2.5748804e-14,3.127623e-15,3.3219168e-16,6.6448803e-16,-6.9907376e-16,1.4775159e-15,5.2343695e-17,2.0526328e-16,-0.012153874,-0.02854379,-0.03267108,-0.022003207,-0.019443488,-0.007723696,-0.017373193,-0.012526651,-0.013796024,-0.011911677,0.007288596,0.024048531,-0.0070523545,0.00739484,-0.010934608,0.02495995,-0.011340493,-1.7999535e-05,-0.00046104717,-0.0070633893,-0.00453937,-0.0059047295,0.009302042,0.0071396963,-0.007876905,0.004712327,-0.008706379,0.014273065,0.011806524,-0.0152788935,-0.019065222,-0.00636722,-0.0059421635,-0.0071677086,-0.004222945,-0.002361484,-0.009660714,0.00027209288,-0.0080593685,0.00031507912,-0.0027479143,0.0009533287,0.010818227,-0.010423367,0.020034136,0.010256201,0.0021899976,0.022331534,-1.2343684e-13,-6.0881456e-12,-1.41340915e-14,-2.0158143e-16,-6.8726288e-12,-5.9326524e-12,2.2290814e-09,-2.0966913e-10,3.3601813e-07,2.1986683e-12,1.936443e-08,7.686474e-06,-3.5737003e-07,-3.7206008e-10,-1.0493742e-11,1.3413703e-07},
{-0.031087674,-0.03594855,-0.00065993716,-0.012286779,0.003020078,-0.058118504,-0.03878217,-0.04208108,0.10437442,-0.052612457,-0.021424102,-0.0126583,-0.044099405,0.030910071,0.08126957,-0.021008598,-8.633807e-13,1.6389977e-10,-1.0165367e-13,-5.717887e-15,-1.5852485e-13,-2.5138154e-13,-1.3680355e-14,-1.1139516e-17,-5.1821275e-10,-2.1380265e-12,7.796205e-07,2.0058797e-05,-1.5695915e-09,1.3722593e-11,-1.9862487e-07,3.0470508e-06,-0.012744697,0.0093235625,0.018226417,-0.0023768884,-0.017059648,0.0055692573,0.018744918,0.003651441,0.017326618,-0.029619293,-0.022675011,-0.028648876,0.031986784,-0.057023246,-0.025816996,0.02126588,0.0013668719,0.009498292,0.006279628,0.0029076785,-0.029472554,0.0011093391,0.00057766424,-0.0011669465,-0.045641057,-0.021066234,-0.017469002,-0.029054161,0.079165585,-0.03428414,-0.018502949,0.07775213,-0.03099517,-0.0043493975,-0.003643189,-0.008229465,-0.037816826,-0.038616944,-0.029830208,-0.014976802,0.05003143,-0.031755496,-0.011219465,0.034451883,-0.011397934,0.027057836,0.033317525,-0.029038502,-0.026399508,-0.0006856571,-0.0138327265,-0.014021682,-0.0435051,-0.029370531,-0.029198214,-0.00712369,-0.04957091,-0.01613608,-0.0004169657,0.089418046,0.014288143,0.049097523,0.011152943,-0.033679806,-0.016985053,-0.014937015,0.026459126,-0.004591815,-0.0011860563,-0.031469956,0.00242934,-0.010769787,0.12444711,0.0034297267,-0.0279268,-0.022851607,0.044422504,-0.09115586,0.006334906,-0.06733398,-0.003249829,0.0019666997,0.00012330918,-0.0030318857,-0.014142828,0.0012740269,0.000445447,-0.0015572613,-0.021342697,-0.011871117,-0.010437226,-0.015242942,0.025722206,-0.019724851,-0.007837301,0.0478855,0.0016229678,0.011306854,0.020412456,0.012523592,-0.018506229,0.01600385,0.022094263,0.011457516,-0.05400304,-0.019064222,-0.015867181,-0.044100806,0.06928166,-0.05824172,-0.019094737,0.07917593,-0.046032216,-0.0018829722,-0.021460883,-0.028317068,-0.06525182,-0.049172394,-0.05320085,-0.05327614,0.035174724,-0.056091554,0.0035052793,0.14675009,-0.076138765,0.027882636,-0.003128514,0.028660256,-0.010474342,0.0066246614,0.0035486703,-0.00724471,-0.01770062,0.007856511,0.007853003,-0.0024811195,-0.014176127,-0.019847518,-0.02433775,-0.025976157,-0.0055158203,-0.041433353,-0.0004759041,0.068388306,6.1008905e-07,-4.1511773e-11,8.170714e-10,1.8329495e-09,5.835156e-07,-5.9858965e-11,2.2062553e-10,1.4037768e-10,7.362675e-08,3.0448863e-09,-8.7280886e-12,-5.604317e-14,1.8733648e-06,8.488287e-08,-3.6669795e-16,-1.9094505e-18,-0.024581037,-0.04863702,-0.0014228151,-0.020483468,0.031194821,-0.058557082,-0.041192863,-0.058569796,0.10524915,-0.06724496,-0.023232665,-0.025927,-0.08632506,0.03525937,0.08967576,0.031335823,0.0057967426,0.008139161,0.0008079229,0.029186824,0.005731783,0.007712538,0.011402233,0.033696108,-0.0087655345,0.029474633,0.035861034,0.058472317,0.017749885,0.022152845,0.003666319,0.008182462,-0.0018125932,-0.0161821,0.0063318196,0.006404639,0.013147123,-0.0073088417,-0.0022923904,-0.0035851784,0.04995931,-4.5308145e-05,0.0016857571,-0.01148084,-0.026790176,0.008642455,0.02578794,0.00675556,-0.0001662401,-8.1251565e-05,-8.215224e-05,-9.4024945e-05,-0.0001383718,-0.00012823944,-7.6210934e-05,-0.00010091048,7.068424e-05,-0.00013836328,-9.2107584e-05,-9.714452e-05,-5.294963e-06,3.238831e-05,-2.2269483e-06,-6.2689564e-06,-0.010941295,0.007979508,0.0072290977,-0.0051433216,-0.018158076,0.0072625326,0.01052175,-0.0003626207,-0.0077876374,-0.01876886,-0.02217504,-0.02386393,0.014673278,-0.039548926,0.0015048551,0.06424827,-0.0068157073,0.0024484242,-0.0017595609,3.7640362e-05,-0.010112896,-0.007461609,-0.008629512,-0.005915672,0.007830384,-0.006602426,0.00080690556,0.033382226,-0.014120233,0.00529822,-0.002510012,-0.002856382,-0.0018293425,-0.0021029569,-0.0029129188,-0.003285438,-0.0035088896,-0.001423368,-0.004658212,-0.0028654428,-0.0039169486,-0.006061212,-0.0067596626,-0.00976948,-0.0152094895,-0.011375011,0.018099545,0.06749369,-7.821905e-14,9.200409e-11,-1.8575773e-15,-4.940271e-18,-2.581391e-17,-2.3982073e-18,-2.768795e-15,-3.677116e-12,-5.370067e-06,-2.9180186e-17,-1.1468618e-08,4.775759e-05,-5.0293474e-06,8.630858e-08,-2.6244118e-07,3.074712e-05},
{0.004339156,-0.020558963,-0.031761322,-0.023888482,0.053730726,0.049444877,-0.00936521,-0.028259557,0.03755596,0.04190885,0.0061202184,-0.00093018456,-0.039378654,-0.048759058,-0.04378893,0.020684978,-1.4424e-41,-5.3088e-41,1.0473763e-35,5.3213e-41,1.255811e-39,3.233359e-33,1.4778115e-38,4.7636e-41,4.1825024e-20,-7.266e-42,1.2935e-41,5.419e-42,4.150969e-35,-2.9287e-41,3.6685203e-16,1.1705039e-15,-0.009723359,-0.00939878,0.020122962,0.049138207,-0.019936634,-0.015983433,-0.011303496,-0.005604748,0.04119256,0.0398894,-0.008307168,-0.01515524,0.029164819,0.041489054,-0.0049389256,-0.0017702533,-0.0074555073,-0.0009814792,0.03052925,0.047102347,-0.016281314,-0.0059822053,-0.0021750354,0.005432205,-0.010248239,-0.014820145,-0.0063156527,-0.0033098643,0.010600074,0.021998622,0.00049227267,-0.02213283,-0.009153602,-0.014834704,-0.02131834,-0.010918963,0.033032387,0.01232745,-0.021153226,-0.016343245,0.022711927,0.026825324,-0.0059494926,0.0045353104,-0.032957185,-0.032677338,-0.0034801948,0.0379648,-0.017672664,-0.017375264,-0.020840662,-0.01041716,0.022767507,-0.011442624,-0.024290184,-0.016531663,0.014898982,0.005307395,0.003088029,0.011606237,-0.038046286,-0.03427733,0.013895009,0.053499516,-0.008322154,-0.020726278,-0.016758135,0.024848802,-0.007731979,-0.016433854,-0.019587502,-0.012352447,0.036305144,0.060594913,0.013101413,-0.028841557,0.010118591,0.027162323,-0.011395122,0.0031221153,-0.0029393074,0.0013405174,0.020285064,0.028995598,-0.007908891,-0.0033724164,-0.0016521045,0.0018896868,0.0028091667,-0.00091913773,-0.0056766006,-0.0047258344,0.007429619,0.011329134,-0.0013757268,-0.009432803,-0.011521768,-0.0031078828,0.038349174,0.06588385,-0.027519444,-0.009235332,-0.0053650374,0.003467903,0.0039141844,0.004326789,-0.011651938,-0.01116646,0.02535935,0.037590522,-0.0021800525,-0.026199518,-0.020793032,-0.02077462,0.009491361,0.03082169,0.006958191,-0.028639372,-0.023715572,-0.01830658,0.039896347,0.04024133,-0.0282975,-0.042145856,-0.01549009,-0.020610517,-0.0033201582,0.05382726,-0.01011755,-0.00064664125,0.031169336,0.046688844,-0.015731098,-0.011621227,-0.009624467,-0.0026408609,0.031555966,0.018310329,-0.013002655,-0.010536122,0.028155938,0.027508229,-0.0074572293,-0.004897214,4.878593e-19,-8.312623e-29,-5.4862933e-33,-1.4762888e-26,5.1920487e-27,3.444677e-28,-5.7067754e-31,1.5421875e-29,-4.7200633e-37,7.230966e-19,-4.0152716e-21,-1.8603739e-35,-9.763819e-16,-2.8372134e-14,-6.1572306e-19,-2.1726966e-29,0.0064490293,-0.016149957,-0.031578388,-0.02817385,0.04804513,0.053320352,0.0014205662,-0.03274345,0.024762074,0.04114425,0.013569325,-0.0056121186,-0.038646087,-0.052277032,-0.060890913,0.0053509823,-0.013373169,-0.0120752575,-0.018153409,-0.02758748,-0.025073525,-0.012460717,-0.0077339686,-0.0057637217,-0.021921102,-0.00896891,0.003236268,0.003647524,-0.015912658,0.0018089449,0.017132083,0.0148819,0.0024020001,-0.0026722387,-0.015177484,-0.017361902,0.009875899,0.014065147,0.0046512093,-0.008548184,-0.007503073,0.010618906,0.008637256,-0.0016343951,-0.0054453975,-0.012705764,-0.013113423,-0.0021099108,1.2951089e-15,6.456782e-16,-2.0554664e-17,-1.0943314e-15,1.830861e-15,-1.1322588e-15,5.247309e-16,7.872672e-16,-1.5022585e-15,-1.425438e-15,7.3677923e-17,3.9758006e-16,-4.921449e-16,2.4600836e-16,-2.5870475e-16,4.8933824e-16,-0.010662009,-0.001345002,0.029168775,0.046380315,-0.01670114,-0.0130337505,-0.009763045,-0.0023637812,0.035217952,0.024561362,-0.011199869,-0.008998412,0.032258134,0.0325626,-0.0059603066,-0.002695246,-0.0036109833,-0.0037886016,0.0016744355,0.007548857,0.0034258312,-0.0058175544,-0.0043819128,-0.0030867385,0.009770294,0.01114385,-0.0038946713,-0.0073133474,-0.0046082507,-0.0025278737,0.0006478155,0.013588414,-0.0009543304,0.0063341754,0.015330241,0.009508872,0.00071463326,0.0014857723,0.00091971754,-0.0008569502,-0.0018096311,0.0007084722,7.2061506e-05,-0.002478231,0.0044335146,-0.0029182937,-0.005993888,-0.0063956105,-1.1064801e-13,4.0041e-41,1.0766211e-25,1.6186782e-20,-1.963433e-18,3.7387e-41,-3.0613e-41,1.9351792e-34,5.0597997e-09,-3.0250214e-18,-3.2041736e-31,-4.0377477e-18,-3.0580875e-11,-2.9479337e-17,2.1999687e-11,2.1952027e-09},
{-0.0014570581,-0.0005549286,-0.02556396,0.003625369,-0.023907522,-0.026877834,-0.03500621,0.002051263,-0.01110454,-0.037269417,-0.006995995,0.05286717,0.049902994,0.022329671,-0.057376727,-0.016721798,-4.4553678e-35,-6.6837085e-36,-2.250803e-28,4.2811e-41,1.1816716e-33,1.1889e-41,3.2489e-41,-1.647e-42,7.2007885e-37,3.8831313e-25,2.9986282e-18,-6.5074847e-25,7.55967e-40,1.9502676e-31,3.8592734e-19,-1.869008e-33,0.06553211,0.024244746,0.0125701735,0.019854585,0.0036833475,0.0037162118,-0.014251666,-0.003651082,-0.0074103363,-0.019619053,-0.028091649,-0.010809353,-0.028328372,-0.020559683,0.011012098,0.033431597,0.051813252,0.005031592,0.0057441564,5.49787e-05,0.035825245,0.002211736,0.0111718895,0.021084167,-0.011020535,-0.011396342,-0.02639807,-0.021998022,-0.028899617,-0.023131138,0.014048209,0.010509506,0.012209123,-0.0066889934,-0.0037885327,0.016369577,-0.017323993,-0.017883833,-0.010563593,0.008249652,-0.022914985,-0.019093165,0.01979261,0.03554356,0.029196495,-0.0061308853,-0.030342473,0.001059704,-0.017979413,-0.020723272,0.004625766,0.014740744,-0.02253889,-0.015715031,0.0046073818,0.018444106,-0.02503936,-1.4999975e-05,0.041737642,0.035948128,0.010792816,-0.025368948,-0.009926118,0.0058677085,0.094534956,0.05297249,-0.008645495,0.011523451,-0.029529829,-0.01284273,-0.03919853,-0.033903837,-0.01898447,-0.036240242,-0.03995715,0.0008424563,-0.011277192,-0.029219164,-0.039823342,0.044060573,0.030814514,0.0061122654,0.0060736164,0.0049457713,0.01211046,0.00077892584,0.0058880798,0.010351719,-0.0035243304,-0.00808459,-0.013535766,-0.0077680172,-0.010069627,-0.0062037003,0.012733557,0.01205913,0.072672136,0.022406328,0.010276513,0.012380687,0.033152442,0.0059763277,0.0032142305,0.018161716,-0.012729515,-0.0155912135,-0.035796285,-0.030867474,-0.03877149,-0.02799596,0.020168886,0.025939837,0.048403826,-0.0154387625,0.020908441,0.03825603,-0.03397167,-0.04465439,-0.038137794,-0.015729133,-0.049781468,-0.022985866,0.043083522,0.052652966,0.0050189355,-0.044314105,0.03615201,0.052887768,0.051363543,0.01309088,0.015053452,0.018939361,0.004641336,-0.0035338185,-0.005238746,0.0045728735,-0.0069351904,-0.021156793,-0.019791652,-0.0034868568,-0.019410105,-0.007867008,0.024831679,0.029527273,-9.120267e-15,-1.557634e-14,6.9881e-41,-1.2633195e-38,-7.571187e-17,4.955924e-26,-9.317619e-39,9.6102605e-34,-3.6729785e-18,1.64139e-39,-8.22407e-40,-4.880442e-39,-5.8049015e-22,-1.0724096e-25,-3.6567683e-29,1.917945e-29,-0.026994266,-0.008042769,-0.027951114,-0.0022925602,-0.023420574,-0.03547384,-0.03906594,0.0048167743,-0.01145317,-0.03557599,-0.017175594,0.053246174,0.053189505,0.030744832,-0.045099135,-0.029386679,-0.036872383,-0.01586699,-0.0023007018,-0.016644733,-0.006961578,0.0005789843,0.0005064863,-0.019196535,0.0018329315,0.011338982,0.007687318,-0.015440587,-0.011182809,-0.0027253097,-0.0027174195,-0.022579445,-0.017312912,-0.003258257,-0.013802277,-0.011064052,-0.0040759193,-0.008474008,-0.016586896,-0.00805747,0.0039210874,-0.002178238,-0.012887086,0.002273229,0.024066474,0.016451068,-0.014895334,-0.019373026,1.5018078e-16,1.1403135e-16,1.4412607e-16,-2.6109645e-16,8.6429617e-16,-6.832668e-16,1.4240425e-16,2.0543293e-16,-9.382969e-16,5.9152927e-16,-1.4188424e-16,-9.164162e-17,6.329358e-16,1.7219523e-16,3.3240683e-17,7.3259546e-16,0.053250283,0.015464193,0.0136496015,0.0187267,0.006020483,-0.000606613,-0.00807878,-0.0017955928,-0.0061781057,-0.021019466,-0.020554606,-0.0050627408,-0.020001238,-0.01027183,0.019998245,0.028525036,0.011543915,-0.0028201898,0.0038597074,0.005750025,-0.0029339518,-0.006035003,-0.009640549,-0.003756249,-0.0063214707,-0.0046533355,0.0074756616,0.010918133,0.001315717,-0.011301509,0.004584113,0.010118426,0.00035756288,0.0014763306,-0.0015648383,-0.0013797213,-0.0016826498,-0.00068262103,0.0027193564,0.0017644663,-0.002538111,-0.0075628953,-0.005844891,-0.00060367427,-0.0025627695,0.0051556635,0.0050499733,0.0012139721,-8.0106345e-11,-9.582256e-26,2.8785386e-17,5.2605123e-22,-3.6908953e-35,6.894256e-28,-4.0172732e-23,-6.0584324e-20,1.8418787e-36,-5.1687807e-23,3.35802e-09,5.564083e-09,-1.6578846e-21,-1.2028524e-24,1.0677966e-09,4.9225974e-09},
{0.02783894,0.039724458,0.021091506,0.049081728,0.027642917,-0.046364613,0.046233755,0.043522127,0.02768398,0.03809392,0.010779529,-0.06652657,-0.04563858,-0.00699303,0.0029464625,-0.036687598,0.00073019176,2.863556e-06,-1.4884092e-21,1.8319084e-15,1.7676407e-30,0.00028014975,0.00023438616,1.1400677e-08,2.7622104e-06,-1.2594207e-16,-4.1138835e-11,4.5882625e-10,2.2470867e-05,1.0567527e-06,2.982458e-07,0.00033785973,0.035729047,0.033469886,-0.029354779,-0.030706916,-0.005242673,-0.0190224,0.005955998,0.038684625,-0.0113972295,-0.028275002,0.016549064,0.01713231,0.030776318,0.03982626,0.008061978,-0.009334799,0.030609312,0.026954284,-0.007265558,-0.0046107015,0.03503331,0.040276576,-0.02856881,-0.020782618,-0.026119318,-0.016515791,0.024014845,0.019645471,0.010441527,0.012491661,-0.013831717,-0.017433358,0.014189767,0.04038823,0.02252034,0.033704355,0.0082140975,-0.026605453,0.041735798,0.02779805,0.03391078,0.039336253,-0.029888488,-0.038210664,-0.009062706,0.016295277,0.003411387,-0.018088898,0.008703165,0.0186979,0.030655647,0.029971786,-0.022121787,0.00914084,0.029914225,0.008746017,0.03432487,0.030907836,-0.042710334,-0.023638427,-0.0032427977,0.007603439,-0.015088943,-0.01578871,0.018541805,0.059225563,-0.013960154,-0.055558633,0.014220802,-0.037093125,0.024406232,0.059367523,-0.0018428928,-0.017692253,-0.013467417,-0.011137325,0.0049800267,0.028976707,0.029202824,-0.019881576,0.031522717,0.021561604,-0.0068753613,-0.0061688246,0.018749401,0.017785953,-0.011709829,-0.0045423387,-0.013932588,-0.0048741843,0.016112557,0.010217459,0.013199384,0.0158962,-0.00653917,-0.0045120944,0.038249016,0.03611938,-0.022620704,-0.024877978,0.03042051,0.025980677,-0.040097736,-0.014727234,-0.04067275,-0.03081649,0.027448503,0.029020226,0.022796758,0.02988,-0.0077029485,-0.01153702,0.07530754,0.041269466,-0.01896121,-0.014291411,-0.051090516,0.012575203,0.05126826,0.03618112,0.02504607,0.017916597,-0.04007099,-0.06259404,0.044536833,0.043660767,-0.012798894,-0.006212032,0.05664313,0.031099107,-0.029842466,-0.02066331,0.0047269603,-0.010653753,-0.0009728682,0.02809562,-0.020788165,-0.0124753,0.018649591,0.012142221,0.032663774,0.034242034,-0.01253504,0.0016398694,-1.1426225e-11,-4.141873e-17,-2.7448463e-16,-1.2467904e-14,1.3891532e-12,-3.5194738e-16,8.2229567e-26,-6.2968855e-18,-1.403547e-14,-7.311093e-29,-5.333099e-21,-5.8336006e-15,-7.347214e-18,-8.9002695e-17,-1.6927798e-19,1.6855582e-28,0.064421,0.011802409,0.009336511,0.044666722,0.013764015,-0.035435896,0.03521554,0.033549126,0.010690139,0.031840917,0.02662489,-0.07537752,-0.056598917,-0.034117397,-0.008526827,-0.023911266,-0.019699536,-0.013471647,-0.0071181394,-0.010746305,-0.030615928,-0.0022829333,-0.015061979,-0.023138516,-0.019753555,-0.017670395,-0.026395392,-0.021221854,-0.0181554,-0.01836432,-0.015107637,-0.0035487833,0.014375791,-0.009228553,0.00026434136,0.016605033,-0.0058106673,-0.009528813,-0.0015495731,0.00665643,-0.0026134513,0.004773841,0.0007206316,-0.019790059,-0.015122957,-0.017811168,-0.0022234928,-0.00013668949,4.3469284e-17,-5.088667e-17,1.7683967e-16,9.059505e-16,-4.5071172e-17,-1.2061918e-17,-5.144179e-17,5.255907e-17,2.2502165e-17,-5.2860292e-17,7.509706e-17,-4.1060372e-17,-4.058183e-18,4.845707e-17,-1.5101494e-16,-1.5416083e-16,0.047105607,0.028414618,-0.029828407,-0.021719554,0.0014909828,-0.013429982,0.0032385304,0.030976683,-0.01194263,-0.01798193,0.013641448,0.012626087,0.03448881,0.0314679,-0.0090698525,0.004057356,0.02287947,0.017993722,-0.0028988612,-0.0056930757,-0.009790345,0.006802092,0.017629381,0.0130393775,0.011049846,0.0036869969,-0.008426039,-0.011570809,0.015102864,0.016435059,0.0034292615,-0.00035637125,0.0233634,-0.0017212793,-0.0017920109,-0.0007913444,0.024827894,-0.008804146,-0.0063404613,0.003914089,-0.00805624,0.015273219,0.014212308,-0.0036331038,0.0017813346,-0.005073249,-0.0058727134,-0.00048502532,0.0041995603,0.0010093639,0.0001815469,1.2052394e-05,-3.424123e-14,0.0016342674,0.004099849,0.0006434905,0.0030079712,0.00054015045,2.2403257e-05,-0.00012035178,0.005629369,0.002106247,0.00013585803,0.0014145988},
