#ifndef NET_H
#define NET_H
float conv1_weight[][75]={
{0.019791886,0.013325076,0.012984095,0.027354186,0.03870903,0.033293948,0.02085103,0.044846136,0.056088075,0.04864695,0.035666157,0.048771974,0.06822497,0.060455166,0.06688974,0.05800894,0.08678609,0.08255354,0.07440288,0.08405705,0.03134126,0.07027048,0.07205134,0.10381983,0.03787543,0.001855388,0.012925619,0.022995656,-0.002580421,0.0012335987,0.00394086,-0.0033744846,0.03877121,0.0104721915,0.024106253,0.036893122,0.020731691,0.07172064,0.01442715,0.015490115,0.06948582,0.063362114,0.050191153,0.050959375,0.05782608,0.04144217,0.07033897,0.05469918,0.095405735,0.061987363,-0.052126247,-0.081638746,-0.08611683,-0.09704355,-0.090268165,-0.109891154,-0.12184786,-0.07860333,-0.083439,-0.08010388,-0.0746957,-0.09905679,-0.05122647,-0.090799466,-0.082445696,-0.0068955487,-0.050623752,-0.034737673,-0.05291333,-0.01302455,-0.063714884,0.020342886,-0.052963547,-0.023983153,-0.0111678755},
{0.03656644,0.042294137,0.0036299713,0.0144815445,0.011447686,0.04225452,0.024487313,0.048583668,0.021653218,0.022525443,0.058919594,0.03604082,0.025043234,0.017070193,0.015280288,0.04696029,0.058455117,0.033267394,0.015169977,0.006782482,0.005357656,0.027313123,0.0069708885,0.009230975,0.012252934,0.021704257,0.018749492,0.030626684,0.028028319,-0.012788062,0.039278533,0.026880102,0.02331456,0.04904716,0.02552374,0.04710156,0.03358217,0.01815765,0.028759092,0.03534374,0.041746553,0.04927179,0.011823602,0.031855248,0.018481812,0.03602398,0.014947589,0.020364009,0.02505129,0.03339008,0.04282619,0.042187072,0.04451197,0.03673542,0.040840227,0.057492502,0.075892255,0.05920172,0.042551745,0.033478145,0.066048086,0.07118029,0.06430533,0.053286415,0.046995547,0.061928336,0.072640866,0.07789328,0.064753816,0.05037729,0.046682946,0.053304926,0.05650273,0.04835698,0.04404066},
{-0.0074321963,-0.023868738,-0.025459047,-0.0072592734,0.051926486,-0.0053118384,-0.0062612053,-0.01787075,-0.0028340924,0.05344424,-0.0035141155,-0.0023315307,-0.0065980186,0.013308494,0.048992317,0.019845268,0.04144403,0.07145839,0.05837694,0.040113233,0.016044032,0.048826303,0.05094793,0.05634649,0.06821,-0.014403488,-0.020478005,-0.014819246,-0.020933177,0.026863338,-0.0084356675,-0.024325116,-0.033894733,-0.017961035,0.027909648,-0.004163558,-0.018120283,-0.011361666,0.030818447,0.05282595,0.0075615468,0.019466776,0.062435217,0.020373868,0.014715516,0.013419658,0.041367948,0.076008186,0.017103055,0.018497456,-0.05904189,-0.07424112,-0.06351653,-0.055342767,0.022908477,-0.06002472,-0.07364758,-0.08420432,-0.05436408,0.017995616,-0.0662087,-0.06581149,-0.057481658,-0.033974417,0.0137154795,-0.05497929,-0.030417975,0.016841982,-0.011738612,0.036792733,-0.031901736,-0.016690535,0.037895083,0.002267911,0.040635906},
{-0.032336652,-0.048348375,-0.06307214,-0.034444313,-0.047629494,-0.05911608,-0.04894299,-0.015085037,0.010908596,-0.023476994,-0.026349816,0.014725165,-0.005203494,0.022312175,0.02963793,0.009760145,0.025410151,0.022172863,0.02472515,0.04816235,0.04559697,0.048580807,0.02850439,0.015361558,0.040915955,-0.02977746,-0.036064398,-0.05591158,-0.057536468,-0.055249028,-0.049870197,-0.0528109,-0.03288545,-0.0021824169,-0.023028543,-0.034094736,-0.03532382,-0.026059989,-0.015060099,-0.009251071,-0.0114518115,0.010611258,0.033988744,-0.008220436,0.03639371,0.010755967,0.0057123858,0.013434656,-0.02341808,0.022517236,-0.010314995,-0.020349365,-0.022186894,-0.029531125,-0.029319722,-0.013644636,-0.0061884965,0.020844692,0.0434899,-0.001081961,0.021894125,0.042054463,0.05650102,0.043795586,0.042155214,0.056569062,0.09230878,0.09274849,0.034328777,0.076952316,0.06273747,0.074950755,0.08324739,0.031551965,0.015204832},
{-0.07468821,-0.025737945,-0.032075807,-0.016680658,0.02516543,-0.059923142,0.018282933,-0.008269275,0.03149045,0.035248876,-0.074523926,-0.06844683,0.07308969,-0.015860356,0.023418909,0.013381324,-0.04245634,-0.03582356,-0.083509,-0.026934804,-0.038835693,-0.07388602,0.026759788,-0.017461987,0.0005952159,-0.11075381,-0.016086211,-0.07208054,-0.01263595,0.031939197,-0.10620726,-0.0474521,-0.019374497,0.009128066,-0.055244207,-0.13788511,-0.088256694,0.01176998,0.034137174,-0.033784494,-0.054336723,-0.06245042,-0.093200795,-0.13356662,-0.026252083,-0.08836334,-0.06938294,-0.027906727,-0.04913401,-0.013338726,0.018237995,0.049010772,0.07363012,0.049664628,0.092645414,0.031815488,0.1182759,0.12412696,0.116526954,0.10432472,0.036323797,0.04477347,0.14535645,0.14391412,0.10654667,0.09756524,0.09567866,0.1029541,0.02707131,0.077248156,0.05870414,0.060954675,0.090832725,0.1097662,0.05036649},
{0.014649026,0.003135504,-0.0059634075,-0.0052789534,0.017623903,0.026986849,0.008750768,-0.010522362,-0.007908053,-0.0038056758,0.022681814,0.008387709,-0.0024303475,-0.01016563,-0.0011682953,0.027521295,0.0005568975,0.003539412,-0.0020350486,-0.008679956,0.03159716,0.008048315,0.0020238794,-0.007465833,0.0017240709,0.012497293,-0.000570576,-0.009299055,-0.004935061,0.010492251,0.022015788,0.00765652,-0.014670118,-0.012085592,0.0037088918,0.017139954,0.0035465306,-0.0053986767,-0.01383233,-0.0073741344,0.017597396,-0.0031340756,-0.00011815983,-0.0054370435,-0.01440939,0.026126212,0.009026641,-0.00038482048,-0.01068489,-0.0053753564,0.0009713824,-0.019600272,-0.029103706,-0.02335963,-0.020814862,0.014602164,-0.007819612,-0.037133247,-0.029625585,-0.018373055,0.008334767,-0.013284895,-0.024675474,-0.028715014,-0.030365618,0.014522048,-0.023287805,-0.01851525,-0.025707426,-0.03545663,0.021498285,-0.0022803047,-0.021371769,-0.035414014,-0.027786419},
{-0.031932633,-0.083501674,-0.059843343,-0.06513991,-0.046148706,-0.06613042,-0.05182544,-0.05828939,0.027916722,0.0021127071,-0.029444847,-0.019246912,0.015833884,0.06964572,0.028267067,-0.011503388,-0.009387449,0.075155675,0.07563397,0.07184637,0.017298853,0.03944342,0.023811886,0.06451161,0.012384071,-0.06341741,-0.091251045,-0.08899585,-0.05927614,-0.03200762,-0.083556265,-0.0752457,-0.081100225,0.017859893,0.03256273,-0.043026198,-0.05417422,0.013543714,0.04242826,-0.001597203,-0.031167148,-0.01071719,0.04184676,0.044564128,0.013469695,0.0035656097,0.0050642975,-0.0004962159,0.012180329,-0.01659338,-0.009059748,-0.0376923,-0.040977255,-0.03176402,-0.028902918,-0.027607702,-0.015690561,-0.025703177,0.053082436,0.057733573,0.031204518,0.039641395,0.05690002,0.07503934,0.059534855,0.05386776,0.067372076,0.102735884,0.11892329,0.055740934,0.048664793,0.08317,0.05879223,0.08888967,0.03302145},
{0.06771069,0.043823957,0.06512712,0.062000796,0.03947309,0.078193285,0.08222569,0.05796876,0.07814547,0.0495788,0.062065978,0.08935598,0.07676257,0.046072483,0.06607283,0.09235494,0.09381564,0.071874514,0.052710716,0.03778857,0.029140946,0.078776166,0.048835807,0.060712833,0.036818784,0.058144737,0.048215177,0.06145403,0.0369223,0.059840806,0.07075404,0.066177204,0.09074339,0.086200714,0.06018548,0.076171085,0.0798663,0.083301514,0.08264034,0.043363888,0.09152902,0.09725147,0.081650816,0.076512046,0.04073227,0.040982146,0.054859616,0.03651519,0.057550747,0.022870295,0.023987662,0.017735513,0.05074393,0.018384337,0.03475375,0.044375718,0.058999397,0.03400405,0.024412833,0.026617441,0.050570246,0.062637016,0.06018904,0.0543008,0.026039992,0.03802831,0.05901796,0.054406844,0.04064982,0.03591067,0.030042937,0.02545343,0.035443768,0.030629862,0.008611436},
{0.019288355,0.021340495,0.012435394,0.0407734,0.0400999,0.022380058,0.03187657,0.07146401,0.07469961,0.063257284,0.009262921,0.0569356,0.0723191,0.08290525,0.07902606,0.020123772,0.05264531,0.07432152,0.087499425,0.09625474,0.042587064,0.049685642,0.06690876,0.078564316,0.06894284,0.012191577,0.025682036,0.022995628,0.027840521,0.042416457,0.03374324,0.05734365,0.06596779,0.062364247,0.082762025,0.014583121,0.07671306,0.073845446,0.09429183,0.0708567,0.055601366,0.050670817,0.081205174,0.079711094,0.09766255,0.03680529,0.073254354,0.0671611,0.08053667,0.078751,0.0055338023,0.022980263,0.027407479,0.032811213,0.05632315,0.030849027,0.054555304,0.06536415,0.073787384,0.08879729,0.02883811,0.080426596,0.100749835,0.09422372,0.108321935,0.03556738,0.07222882,0.097559765,0.111285694,0.10808651,0.03265345,0.058024887,0.072374746,0.07823553,0.08836246},
{0.0008408791,-0.020129452,0.014342727,-0.011726652,-0.040512208,0.013510813,0.02858292,0.02315827,-0.008567811,-0.0637248,0.020666182,0.03258999,-0.0045020785,-0.035635952,-0.0719912,0.028322648,0.03877383,0.051015552,0.011278618,-0.035190012,0.02415958,0.029282868,0.044173993,-0.015911184,-0.06359987,-0.010320035,-0.028294373,0.0018216432,-0.018218799,-0.04082136,-0.0035823109,0.00989789,0.008391863,-0.027957877,-0.057009023,0.007288963,0.007103335,-0.018261116,-0.048743676,-0.07647037,0.01393675,0.022665821,0.019052813,-0.005761804,-0.039281223,0.005004868,0.009369096,0.020751702,-0.017734647,-0.07476787,0.025116535,0.02390415,0.04758894,0.019283298,0.003386227,0.053214625,0.07301674,0.05657048,0.035827726,-0.020532357,0.07696678,0.08184065,0.06536688,0.019986292,-0.024726726,0.08604576,0.103292935,0.098530434,0.056118395,0.0131427,0.07564416,0.09065808,0.09100117,0.026444985,-0.026209056}
};
float conv1_bias[]={
0.09491889,
-0.028207568,
0.06274064,
0.06831899,
0.1234126,
0.06671917,
0.031344432,
-0.015384783,
-0.00011009878,
0.060972434
};
float conv2_weight[][250]={
{0.01006293,-0.006082259,-0.017208721,-0.023193866,-0.020686043,0.007991626,-4.9211867e-05,-0.022568475,-0.027944755,-0.020044886,0.019925583,-0.0057712724,-0.02734961,-0.03277201,-0.02057746,0.022929356,-0.017118525,-0.042193446,-0.044984475,-0.029010182,0.015552459,-0.015503635,-0.027869334,-0.022807203,-0.01504988,0.03515084,0.017337952,0.021989595,-0.000523421,-0.021271303,0.032401357,0.02717618,0.03705738,-0.00392122,-0.02636458,-0.0084335795,0.009851382,0.032385632,0.0016429635,-0.006491665,-0.02383313,0.025913741,0.04004058,0.016201712,-0.00068928907,-0.0046266224,-0.0011502252,0.001030636,-0.011367491,-0.008691015,0.015159943,0.0039538355,-0.0064117005,-0.018769471,-0.01996346,0.0035309428,0.008336214,-0.008447911,-0.012534732,-0.009699129,0.009105658,0.0074759,-0.013848241,-0.013589821,-0.0037260929,0.019879244,0.00632245,-0.020951753,-0.020317852,-0.010677868,0.02333229,0.0029190192,-0.013127901,-0.006874517,-0.006415399,0.0074012717,0.011865391,0.0034340553,-0.0012240304,-0.010862164,-0.0065102843,0.012399968,0.01066528,0.008919111,-0.0025125046,-0.015038798,0.010282282,0.026301546,0.03533481,0.016553838,-0.009666334,0.0060056928,0.009220849,0.0052384636,0.00544655,0.0019081802,0.008185009,0.004619944,0.008880063,-0.0011647684,-0.012978809,0.034214057,0.03181426,0.02362282,0.011893968,-0.031809144,0.014619764,0.028963707,0.024931595,0.016790148,-0.02752006,0.010788072,0.027854308,0.04006541,0.02844096,-0.015976826,0.03483071,0.052167516,0.050117925,0.046478804,-0.009209028,0.019052977,0.026515316,0.039889794,0.036557447,0.0032196364,-0.005996057,-0.0021502601,0.0066100787,0.008689028,-0.0004930922,-0.007164153,-0.0013662522,0.008547173,0.008128306,-0.0012450129,-0.0074828193,-0.0065453188,0.0055594887,0.0061627566,0.0010701567,-0.007058793,-0.0056900955,0.0024516871,0.0025839773,0.00050026213,-0.0066397996,-0.0026006934,0.002135919,0.0053943037,0.0010429131,0.025638936,0.008367283,-0.01244088,-0.012489798,-0.011530899,0.01755715,0.009845796,-0.004619909,-0.0043474776,-0.021682002,0.013975215,0.03162972,0.031994052,0.021670958,-0.00664073,0.016476862,0.007497778,0.0040779803,0.0126016075,0.008048486,0.008021014,0.0021858476,0.0041888254,0.0038459448,0.036273647,0.018359872,0.011608343,-0.015040647,-0.03849394,0.021969346,0.030676367,-0.00054857804,-0.033954207,-0.051994998,0.0020199534,0.036174007,0.025450194,-0.030748282,-0.041284036,-0.031946637,0.031052643,0.032026537,-0.008057697,-0.026172532,-0.015856436,0.015951233,0.0054602087,-0.03576434,-0.024558365,0.039098676,0.043921642,0.01367834,-0.038912274,-0.03925145,0.021172069,0.015448978,0.0059867,-0.050301977,-0.051914982,0.031434108,0.039362382,0.014876489,-0.014606804,-0.01869981,0.0109722195,0.031931423,0.021328405,-0.008464779,-0.009679623,0.0031831786,-0.007917592,-0.01663624,-0.022795582,-0.008248715,0.0031254014,0.014947138,0.03503277,0.022794696,-0.0035207872,-0.006514513,0.020878512,0.040519137,0.032399327,0.0012542122,-0.035933655,0.00898949,0.06578985,0.048714027,0.023008823,-0.04550665,0.002907885,0.050114818,0.033944983,0.016054388,-0.02439689,0.0089662,0.033921063,0.021063,0.018265847},
{-0.0001711746,9.84689e-05,0.0013317373,0.00093773153,0.000277821,-7.9057965e-05,-0.0001598759,0.0004855172,0.00071793306,-0.00010647039,6.0041126e-05,-0.00056671735,-0.0015633655,-0.0018455089,-0.0023754262,-0.0037865662,-0.0013032686,-0.00014618468,-0.00094519433,-0.0023850135,-0.0028329287,-0.0014338297,-0.0004615691,0.00027361079,-0.000100075886,-0.0046276273,-0.0042515164,-0.0052709416,-0.009828707,-0.006111308,-0.012124055,-0.009874239,-0.0109521,0.0008029871,-0.00884374,-0.01212179,-0.019969119,-0.008337512,0.0045273867,0.00046156778,-0.00813515,-0.02465794,-0.00864807,-0.002305247,-0.010990654,0.0059077023,-0.0226406,-0.016395293,0.007027475,-0.0011165005,-0.0006814315,-0.00048286736,-3.4992816e-05,0.001694418,-0.00013672595,-0.0007964021,-0.00062438217,0.00010046435,0.00012589194,8.2649225e-05,0.00016394879,0.002120603,-0.0027592897,-0.0012905982,-0.0003370139,-0.00014404565,-0.0004038764,-0.00071805745,-0.0007341195,-0.0012880306,-0.0009713442,-0.001258179,-0.0003926823,-7.979743e-05,0.0006137021,-0.0062095355,-0.0017765027,-0.0008252047,-0.0017974678,-0.0001738077,-0.0020713808,-0.0011293782,-0.0011400894,-0.0026583257,-0.0010923378,4.9138675e-05,0.0007329894,-0.0040028156,-0.005759316,-0.0005744331,0.00028820193,0.0014409585,0.00038528076,-0.004529655,-0.006320636,-0.001018544,-0.0018983367,-0.0016314778,-0.0008668011,-0.0031683394,-0.007987958,-0.0075341514,-0.0056602187,-0.0038228903,-0.0027156577,-0.005557095,-0.0014518889,-0.004528586,-0.0008052476,-0.00043183964,-0.0025669474,-0.000977264,-0.0026155552,-0.0018072954,-0.00056499796,-0.0006185209,-0.004361937,-0.012070741,-0.00080776,-0.003715602,0.0036276386,-0.0008657059,-0.013432078,-0.006568985,-0.0017401512,-0.0005478179,-0.0005742536,-0.0007714873,-0.0003716339,-0.0010379339,-0.00029885492,-0.00059916836,-0.0003542768,-0.00025035095,-0.0007800479,-0.00025860177,-0.00034144445,-0.00035336186,-0.00026317092,-0.0010410555,-0.00023756316,-0.00063881493,-0.00026786432,-0.00020880447,-0.00043935206,-0.000632485,-0.0006818012,-0.00042527975,-0.00026025678,-0.00024087637,-0.0023379803,-0.0034867711,-0.0037087868,-0.0035005277,-0.0008671975,-0.0014143329,-0.001638763,0.00077898783,-0.0027308394,-0.000501323,0.0033240162,-0.0005950902,-0.008455201,-0.0058762156,4.4781605e-06,0.017354134,0.009147241,-0.004420141,-0.0019520253,-0.006057313,0.0020286706,-0.0045876335,-0.0026310221,-0.00019537615,-0.0034301477,-0.0066585336,-0.0031027363,-0.0033600659,-0.01759691,-0.0049398597,-0.010474152,-0.0108773215,-0.008787503,-0.0010861192,-0.009064895,-0.019576523,-0.009682229,-0.009910991,-0.013184155,-0.011283465,-0.030376216,-0.010855746,-0.031769566,-0.031456653,-0.009532508,-0.025639152,-0.012601609,0.01269091,-0.030911215,0.002911257,-0.010924277,-0.004292551,-0.016028015,-0.004837861,-3.4801992e-06,-0.019399244,0.0031671915,0.0015108376,-0.012847053,0.00073135685,-0.009871531,-0.02824292,-0.029016877,-0.015917853,-0.010308661,0.013197503,0.016205732,-0.018794492,-0.0398136,-0.0045915083,0.018860409,0.014906728,-0.035247747,-0.011769676,-0.019364264,-0.0067048287,-0.0051392275,-0.0030025917,-0.010698931,-0.0012507712,-0.005784229,-0.0021705034,-0.0021007017,-0.005753545,-0.0006358362,-0.0043200064,-0.0011313987,-0.00134781,-0.01013145,-0.0019260221,-0.0052616056,0.012778832,-0.002980837,-0.01744229,-0.015332536,-0.0052482593,0.007042617,0.0021976703,-0.008683497,-0.020623932},
{-1.920477e-05,-4.867318e-05,-3.1555224e-05,-4.7782454e-05,-2.6321273e-05,-4.228184e-05,-1.913675e-05,-1.5362846e-05,-2.2539563e-05,-1.8972536e-05,-6.221629e-05,-5.7719157e-05,-2.6969145e-05,-3.71346e-05,-3.3901717e-05,-3.6138135e-05,-3.8559454e-05,-3.715486e-05,-4.5352528e-05,-2.6105068e-05,-1.12703354e-07,-8.92616e-07,-2.9536259e-06,-8.047129e-05,-7.322064e-05,-0.003643936,-0.004776837,-0.0052930512,-0.0045948885,-0.0026383593,-0.003797605,-0.005324098,-0.006228007,-0.0060435547,-0.004233956,-0.0040246686,-0.0059847236,-0.0068979124,-0.0072122985,-0.0056866356,-0.0047668996,-0.0065661757,-0.0073391832,-0.00748794,-0.00617017,-0.0042528603,-0.006047451,-0.0067116995,-0.0072966507,-0.006182792,-8.493429e-05,-3.8318016e-05,-7.771359e-05,-1.9658768e-05,-1.4160051e-06,-0.00017557631,-8.622663e-05,-8.7394794e-05,-1.7857152e-05,-4.242807e-06,-0.0003137443,-0.00037564564,-0.000106160805,-2.42676e-05,-4.724448e-06,-0.00045494348,-0.0003417382,-0.00011605051,-5.5685716e-05,-6.4309147e-06,-0.00016203374,-4.7280424e-05,-5.9151553e-05,-4.1630283e-05,-2.9760791e-05,-0.00010173922,-0.00036567368,-0.00042426545,-0.0005742359,-0.0002257854,-0.00014952067,-0.0001766906,-0.00042682214,-0.00034698026,-0.0001433681,-0.0002576375,-0.00047853016,-0.0005038218,-0.0003961238,-0.00035209535,-0.00056521414,-0.00054012134,-0.0004988564,-0.00041812696,-0.0001564283,-5.3015967e-05,-0.00010751159,-0.00010348673,-0.0001779704,-0.00014214266,-0.00025794347,-0.00013251886,-2.2021362e-05,-1.8141796e-05,-5.807662e-07,-0.00046823698,-0.00049751584,-0.0005078277,-0.00011027116,-2.6216781e-05,-0.0010366795,-0.00086599233,-0.0005388708,-0.00012583379,-9.834013e-06,-0.0010360861,-0.00092932506,-0.00050737825,-0.00017326933,-6.4365384e-05,-0.0018946528,-0.0017271634,-0.0007034544,-0.00029290665,-6.377376e-05,-3.7381962e-08,-7.3014554e-08,-6.659209e-07,-7.9913093e-07,-2.3710115e-06,-2.213921e-09,-6.6968173e-09,-1.163197e-08,-2.971824e-08,-1.7888387e-06,-6.4017507e-09,-4.2897463e-10,-1.6476943e-09,-3.2799794e-09,-3.9302783e-08,-4.1797734e-09,-1.8384025e-10,-1.3361019e-09,-1.7293843e-10,-9.22714e-08,-1.23887e-08,-1.5341924e-09,-1.4976624e-11,-2.8057823e-10,-1.6030517e-08,-0.00073177344,-0.0005139469,-0.00090198993,-0.0007248691,-0.00012527771,-0.00083931437,-0.00064820494,-0.0009832216,-0.00056738406,-0.00011165685,-0.0011539384,-0.0013998735,-0.001060029,-0.00083630555,-0.00029253107,-0.0019681854,-0.0020162351,-0.001233075,-0.00068350247,-0.0002741305,-0.0008412401,-0.0007801848,-0.00057248434,-0.00055177504,-0.00019061878,-0.0042937314,-0.0059226677,-0.005473448,-0.0053134756,-0.0032761341,-0.0050650816,-0.007043812,-0.0074834577,-0.007596353,-0.0051199123,-0.00540857,-0.0076390896,-0.008309713,-0.008278217,-0.006751923,-0.0065074735,-0.008684536,-0.009188467,-0.009215626,-0.007869052,-0.0062474795,-0.008129741,-0.008745958,-0.00905486,-0.008091346,-0.007897101,-0.008394987,-0.009082626,-0.007770306,-0.004423763,-0.008168803,-0.00938127,-0.010410076,-0.009311895,-0.0060314247,-0.008781219,-0.010200165,-0.010782353,-0.010411229,-0.0076479195,-0.009213631,-0.010608329,-0.010954568,-0.0104380185,-0.008946222,-0.008185415,-0.009607357,-0.009823275,-0.010019322,-0.008672894,-0.00026726592,-0.0011498298,-0.0012441538,-0.0018558049,-0.0010673953,-0.00035337574,-0.0006227415,-0.0013294211,-0.0017716282,-0.0012101682,-0.00019689898,-0.0008286156,-0.0016775312,-0.001993833,-0.0021343583,-0.0005312637,-0.001331195,-0.0021718477,-0.002454305,-0.0018736046,-8.6025066e-05,-0.0005015164,-0.0013487666,-0.0015526072,-0.0019599174},
{-1.2945743e-07,-1.3988445e-09,-4.302084e-11,-5.9668603e-09,-5.413024e-06,-9.0729e-07,-2.7386975e-06,-2.1270716e-10,-1.5085786e-09,-6.3682912e-09,-4.981775e-06,-3.126557e-06,-1.938161e-06,-6.032257e-09,-1.482428e-14,-4.3257915e-06,-8.3671995e-07,-1.6007552e-06,-7.033869e-08,-9.398679e-09,-1.0232209e-05,-1.48694135e-05,-1.4808344e-05,-9.508815e-06,-7.641804e-08,-0.0001425249,-0.00020932862,-0.0002345782,-2.8005054e-05,-1.9792957e-05,-0.000108041066,-0.0007328004,-0.00042406132,-0.00014913398,-5.3204123e-05,0.00016113232,-0.00035635926,-9.034288e-05,-1.0505139e-05,-8.148151e-06,0.000559247,-0.00020488242,-1.941114e-05,-8.6704244e-07,-2.3078638e-07,0.00034586553,-0.0003002954,-0.00014649834,-7.79929e-06,-1.6577217e-10,-2.4230865e-06,-1.0837047e-06,-7.320607e-07,-5.2733753e-07,-6.653497e-07,-2.1562023e-06,-3.2165701e-06,-2.8172692e-06,-2.6762905e-09,-5.0366836e-11,-3.4061582e-06,-3.4461918e-06,-4.9177775e-06,-4.3378964e-07,-4.8585827e-07,-1.2887455e-06,-3.929913e-06,-1.3613496e-07,-1.2551762e-06,-7.9387013e-07,-4.632002e-06,-1.4223065e-05,-1.1750228e-05,-5.708723e-06,-9.299726e-07,-2.1891074e-05,-2.9508246e-05,-3.0757622e-06,-1.9561912e-05,-4.0570085e-09,-4.5656755e-08,-3.3202312e-07,-8.907154e-08,-5.9665666e-07,-6.8147095e-08,-4.9963433e-06,-1.3861924e-06,-2.5659938e-06,-2.759417e-08,-1.3779298e-08,-6.089748e-06,-2.6461834e-07,-1.4980207e-06,-4.6350683e-09,-2.189488e-08,-9.759161e-06,-1.5229024e-05,-1.8636778e-05,-1.1930532e-05,-2.9925302e-06,-0.00017283522,-3.0839612e-05,-4.838488e-05,-4.8494316e-05,-3.892559e-08,-0.00014042873,-9.990734e-05,-0.00012462832,-9.742656e-05,-3.2331165e-05,-1.8251992e-06,-7.749648e-05,-0.00016138711,-0.00010237077,-5.7572517e-05,-7.2566513e-07,-1.6554295e-06,-1.098431e-05,-6.170034e-07,-7.3755095e-06,-6.8733325e-06,-4.512599e-05,-4.600611e-05,-4.2317365e-07,-1.1213247e-09,-4.53714e-06,-3.9426404e-06,-2.9101193e-06,-2.886716e-06,-3.849338e-06,-4.0075124e-06,-4.5888933e-06,-3.6376382e-06,-4.218624e-06,-3.1525863e-06,-5.5476685e-06,-3.143749e-06,-3.7614109e-06,-5.0697436e-06,-3.0340022e-06,-7.707007e-06,-3.1098218e-06,-5.2754594e-06,-6.184356e-06,-3.151904e-06,-7.2037965e-06,-2.6121254e-06,-5.3247286e-06,-6.5856684e-06,-5.8739774e-06,-0.00015395234,-7.76307e-05,-2.458685e-05,-5.385073e-06,-1.9585167e-08,-1.1884566e-06,-1.6830668e-07,-2.3844234e-07,-1.780894e-07,-4.979269e-07,-1.6482292e-06,-2.9463238e-06,-1.9945135e-06,-3.7748894e-08,-5.5122907e-08,-7.4850966e-08,-2.1585486e-06,-1.6493804e-08,-6.1006262e-09,-1.3871332e-08,-4.666964e-06,-2.283062e-05,-1.7203525e-05,-1.7287448e-05,-1.2538801e-06,-0.000109164306,-0.00030779667,-2.6444304e-05,-0.00010196655,-0.00011155752,0.00011848203,-0.00064401014,-0.00041292168,-0.00012755665,-7.382273e-05,9.5188414e-05,-0.00028061942,-8.272447e-05,-2.8431554e-05,-4.535868e-06,0.00076195475,-0.00019363528,-2.6375343e-05,-4.1784933e-06,-4.54832e-07,-0.00014928858,-0.00041173163,-0.00011133299,-1.1775773e-05,-6.2802506e-08,-0.0025178986,-0.0011967403,4.3642118e-05,-0.00041466206,-0.00016926455,-0.0011870537,-0.0021555182,-0.00078921055,-0.00021858084,-0.00023003995,-0.00033180142,-0.00055802055,-0.00011093635,-2.8560193e-05,-2.9995508e-05,-0.0019138644,-0.0006757178,-8.895799e-05,-2.0594613e-05,-7.756526e-07,0.00055732334,-0.0002926273,-0.00041331604,-0.00013761442,-5.367563e-10,-5.7898774e-06,-0.0003736567,-0.0002982177,-3.7752936e-05,-4.2594907e-05,-1.9738067e-05,-6.2115374e-05,-0.000133803,-4.0664065e-05,-4.6574867e-05,1.3486791e-05,-2.7898623e-05,-1.5496364e-05,-1.7482497e-06,-1.2010449e-05,-8.749958e-07,-5.612512e-05,-3.285356e-05,-1.21742005e-05,-1.586399e-05,0.00012346578,-1.3731412e-05,-5.0987062e-05,-7.654798e-05,-3.2923144e-05},
{-0.0042774524,-0.013142285,-0.019995166,-0.0070585255,0.0041584494,-0.0066235065,-0.019665573,-0.018000333,-0.007431501,0.012081875,-0.011786582,-0.022071265,-0.017947575,0.0011192616,0.024397558,-0.0012342937,-0.010896568,-0.00894109,0.013613678,0.02737956,0.004064664,0.0010951891,0.0021335895,0.013028633,0.025273245,0.0037384718,0.004637176,0.0014522587,-0.00566258,-0.012456692,0.0027420376,-0.019224087,-0.015565314,-0.008657552,-0.018828442,-0.006244703,-0.024424203,0.0031520822,-0.016826404,-0.020420127,-0.0034338795,0.01799075,0.007827445,0.00068347546,-0.01261436,0.006660961,0.026658216,0.043180887,0.036399443,0.02104266,0.002143086,-0.009985306,-0.00818297,-0.008449516,0.0025919864,0.005645346,0.012207709,0.007599186,0.0013841238,0.015348821,0.010886961,0.014076667,0.0046324614,0.014516429,0.01722322,0.013262455,0.009565248,0.012387598,0.011027751,0.013487571,0.019378023,0.019007472,0.016404316,0.0036956957,0.012380167,-0.004156717,-0.0033671884,0.0017939899,0.008309388,-0.00045586049,0.019773727,0.027004246,0.038016222,0.030867172,0.01752696,0.038172096,0.04087451,0.04575416,0.042580865,0.027315725,0.029405441,0.043643165,0.047413364,0.04386656,0.018452516,0.027650362,0.03796439,0.035138573,0.021321934,0.0041363817,0.03761676,0.04779897,0.058785938,0.04516733,0.032494962,0.031259265,0.057804562,0.06942784,0.048442483,0.023234919,0.05364031,0.08727214,0.09147117,0.062544286,0.021859825,0.05746442,0.080883205,0.08702028,0.054309513,0.016243137,0.03941755,0.059394985,0.07360379,0.044302307,0.00648616,0.0016739413,0.0019856293,0.0027241781,0.009583608,0.014893815,0.0032144883,0.0033303483,0.002766921,0.008920511,0.014941069,0.0032668714,0.0025211982,0.002344963,0.007440696,0.016103774,0.0022713998,0.0024745413,0.0033925888,0.008755017,0.020768512,0.0039680405,0.0033195387,0.0070936475,0.01130925,0.021342613,-0.0033223233,-0.009008522,0.0013991054,0.0050903256,0.008849469,0.015600578,0.035224922,0.051117018,0.02848291,0.020432819,0.041042622,0.05906614,0.054442894,0.04933578,0.032818373,0.037026826,0.046968542,0.048016544,0.0544597,0.019758465,0.034002103,0.049932428,0.05164925,0.028273553,-0.00081361545,0.0013424761,-0.0052975174,-0.02231336,-0.019982168,-0.020967953,-0.03475014,-0.04910352,-0.051412772,-0.017920563,-0.027100187,-0.04278785,-0.03532554,-0.024149759,-0.011888105,-0.014164318,-0.014523178,-0.019863134,-0.018686827,0.012581017,0.019808495,-0.015498823,0.019435588,0.013016046,0.041598786,0.0066702114,-0.022027057,-0.032644484,-0.018031858,-0.029969497,0.0068041394,-0.028238665,-0.028405333,-0.027787214,-0.030460931,0.0031942416,0.0038458076,-0.01787407,-0.0074478844,-0.02031976,-0.010329842,-0.019763367,0.01396868,0.032005556,-0.00089561596,0.025721315,0.017555924,0.034200516,0.027542885,0.0067881607,-0.016575458,0.008942912,0.010719143,0.020605613,0.028193591,-0.00073413015,0.019762894,0.024169216,0.026197484,0.03228231,0.0010894443,0.029248487,0.029767625,0.03661691,0.041657593,0.0140085835,0.031456444,0.039591152,0.04197086,0.038258977,0.023740783,0.015056581,0.035142846,0.027875943,0.041885816,0.01252718},
{0.016261756,-0.0021470455,-0.017112326,-0.011738141,-0.0014479979,0.0068335976,-0.017369935,-0.025974877,-0.019923227,-0.0049656485,0.0054046605,-0.006712136,-0.008965804,-0.002801458,0.0056989556,0.018906852,0.0016835062,-0.0043605105,0.004169976,0.0132520115,0.023077555,0.0072616898,0.0042750197,0.008536798,0.010546803,0.007750936,0.0025512814,5.2051564e-05,0.010036426,-0.016725138,0.0036256195,-0.0001706473,-0.0012981562,0.004409589,-0.0038096954,-0.023676366,-0.018705498,-0.001214169,-0.02834972,-0.021124704,0.0047332207,0.010489981,0.00426814,-0.003978665,-0.006012087,0.006192879,0.016207496,0.027823834,0.0014057567,0.0051933224,0.02237831,0.0072150994,-0.00853251,-0.014957388,-0.0064411685,0.013309951,0.0014703198,-0.007453171,-0.006287488,-0.004081793,0.023503374,0.027998708,0.012879952,0.013097414,0.01603064,0.04573777,0.019846464,0.011133918,0.008183669,0.016537637,0.033055935,0.012381946,0.006996841,0.01018778,0.010573466,0.009434779,0.018031467,0.0076801656,0.008599069,-0.0027373154,0.00970601,0.015234979,0.0075285095,0.011132035,0.012828626,0.028634058,0.055469893,0.058480497,0.049891666,0.028923707,0.052491836,0.067754745,0.060799062,0.04119904,0.028803863,0.03462768,0.021651903,0.019553984,0.016391633,0.01234418,0.0230202,0.04817181,0.057240285,0.055408686,0.043200728,0.0382029,0.05875492,0.07266652,0.059641756,0.04466047,0.035151824,0.05860141,0.074250795,0.05888417,0.055793718,0.05676858,0.068478055,0.072459154,0.05606787,0.051123828,0.05203377,0.06544496,0.054958984,0.04244815,0.0468077,0.0025229624,0.0007631472,-4.041537e-05,0.0010904124,0.009136335,0.001900076,0.0025906714,0.0013512255,0.0053789816,0.006050243,0.0018660445,0.002439308,0.0021015778,0.008433727,0.011317463,0.002490008,0.0017894077,0.0016689791,0.0067460076,0.011026084,0.0045031887,0.001633203,0.004721632,0.007720934,0.010309599,0.023860848,0.021212704,0.012628826,0.0059819147,-0.0025767484,0.013093859,0.006242781,0.012739649,0.0075717946,0.01318052,0.042071607,0.03570883,0.06634853,0.044789027,0.035571158,0.086480424,0.070241116,0.064523764,0.041210208,0.040217314,0.06027368,0.025475567,0.025070867,0.01812975,0.020529373,-0.0055209617,0.0016016932,-0.015773568,-0.020831486,-0.0041752034,0.0024261435,-0.01465259,-0.047792714,-0.038028,-0.019921366,-0.016953966,-0.022781506,-0.028522514,-0.05149417,-0.04752851,-0.034845453,-7.1803166e-05,-0.014768943,-0.031243887,-0.012109655,0.016617289,0.03853115,0.008355853,0.011850662,-0.022781841,-0.011053485,-0.015039538,-0.009635886,-0.026272416,-0.03230129,-0.013319178,-0.05300569,-0.025934137,-0.055130802,-0.032975573,-0.025268847,0.014703836,-0.031123416,-0.018668145,-0.017748715,0.033647038,0.02567235,-0.021764966,0.00387648,-0.011270237,0.01347415,0.046433825,0.00074837107,-0.007153904,-0.002626284,0.007801228,0.024383701,0.027049487,0.017301137,0.016221132,0.017807867,0.020593347,0.023132944,0.02112478,0.014593436,0.01956247,0.04439414,0.04557077,0.047011912,0.014179801,0.009938654,0.05243628,0.04270421,0.042091247,0.019129543,0.004815669,0.03809421,0.014532363,0.012774619,0.017924076},
{0.046224445,0.0434439,0.05853404,0.057352904,0.04647917,0.05498746,0.06026573,0.06861682,0.0669787,0.07514904,0.056852635,0.059387702,0.07492613,0.06355289,0.063025706,0.058988743,0.06065271,0.061930135,0.06445184,0.0589863,0.056276575,0.06947798,0.07399696,0.054703943,0.052959576,0.033352215,-0.0017890135,-0.044075172,-0.023465885,0.020691464,0.0041963686,-0.0075079217,-0.0495757,-0.026643747,0.017799025,0.03797451,-0.018524054,-0.054211732,-0.030216865,-0.0120901605,0.009065384,-0.020953469,-0.03219455,-0.038708113,-0.0046643997,0.011400522,0.0049639465,-0.004376979,-0.031021211,0.0077002323,0.01492094,0.009637401,0.035194337,0.04319774,0.041325647,0.018369293,0.019428827,0.03096274,0.04954707,0.0519889,0.021292731,0.029214934,0.029351622,0.04633134,0.063393705,0.016539566,0.026207408,0.039121836,0.032692593,0.053629715,0.026621334,0.05128745,0.045537196,0.039745,0.057080038,0.011173504,-0.0041020475,-0.018901473,-0.0031163604,-0.003871345,0.0074649467,-0.0006426566,-0.014196588,-0.0060050087,-0.0029668764,0.0009456024,-0.012041468,-0.022100821,-0.015983837,-0.0040915255,0.00023094745,-0.007635869,-0.0076130694,-0.012236997,-0.007788287,0.025936563,0.016882583,0.020804584,0.009592249,0.009648751,-0.00871065,-0.027347445,-0.027208624,-0.008398636,0.011207844,-0.013717247,-0.038627334,-0.03387892,-0.015515307,-0.003959298,-0.021813717,-0.034380898,-0.03406366,-0.013911977,-0.0020225768,-0.0059855585,-0.023235723,-0.032427628,-0.0074083204,-0.001200953,-0.0036779365,-0.016455997,-0.018631281,-0.0066729374,0.009959004,0.020045348,0.031748492,0.031603992,0.013696439,0.0138330255,0.026976392,0.035077658,0.030743252,0.019885216,0.013319211,0.02645755,0.036974017,0.031786583,0.01999934,0.013513143,0.03357994,0.039183695,0.03482674,0.024192493,0.014295389,0.02107271,0.029883571,0.024841955,0.025342485,0.014254933,0.0015338772,-0.018913306,-0.017067019,0.0072541204,0.012718904,-0.009551292,-0.0135974595,-0.016408209,-0.007914583,0.007964856,-0.0023930082,-0.018467722,-0.012147919,-0.010080844,0.0060162526,-0.013857341,-0.017986765,-0.011986094,-0.01765241,-0.0076533398,0.01055164,0.022118859,0.02516042,0.010536021,0.021457788,0.061814275,0.02227179,-0.018024163,-0.0074347663,0.05334388,0.07253588,0.023400124,-0.028536566,-0.007554434,0.036259063,0.046173558,0.009702273,-0.020470103,-0.0038449843,0.04915203,0.04161183,-0.015982755,-0.020386325,-0.026462764,0.003923829,0.007752991,-0.0016739592,0.019828139,0.014991049,0.023920624,-0.010992262,-0.038299713,-0.053666104,0.010790217,0.058903746,0.02680169,-0.04375736,-0.058196224,-0.0060821013,0.03416107,0.034569483,-0.046634145,-0.056380503,0.004593247,0.030300405,-0.017533666,-0.05414856,-0.028772814,-0.021420432,0.035242785,0.0077380054,0.018171277,-0.029159004,-0.0128612975,0.050828595,0.04780183,0.0045307092,-0.022639005,-0.037796464,-0.017754994,0.013803669,0.010746907,-0.024269942,-0.04491125,-0.014229794,0.031203406,0.002106919,-0.033405744,-0.04248954,-0.018893648,0.025595412,0.0031440265,-0.02153126,-0.024268229,-0.026299914,0.027096163,0.015165312,0.0064632026,-0.0010909167,-0.012230906},
{-0.008874784,-0.028845418,-0.034300804,-0.02251887,-0.0005788721,-0.007652538,-0.013991444,-0.018673228,-0.0134136975,-0.014799307,0.016018063,0.022934373,0.014983112,-0.008008258,-0.028710386,0.017458335,0.030810956,0.020255957,-0.0038370618,-0.03118144,-0.008146492,0.0019164489,0.002762442,-0.013983957,-0.026758583,0.018737784,0.027898159,0.004992979,-0.00813706,-0.0044652424,0.04993038,0.031239573,0.014614847,-0.011131022,-0.0067413626,0.032896906,0.043072816,0.027836207,0.006102005,-0.00722214,0.049386,0.06700366,0.054955736,0.04619496,-0.012298418,0.04132681,0.073010564,0.07883269,0.050216086,0.0056604906,-0.01856941,-0.019513384,-0.016819676,-0.00538013,-0.0047667343,-0.026281202,-0.021233357,-0.0074361986,0.0031855397,-0.013499339,-0.010081033,0.0048989537,0.0158878,0.0032526236,-0.018771626,0.00018336841,0.01314205,0.016381186,-0.0070692403,-0.015951948,-0.009667297,-0.010917826,-0.0087288,-0.017609464,-0.0153670795,0.010463648,0.0021741155,0.0009749739,0.005207042,0.0027410917,-0.018902095,-0.018715734,-0.009427899,0.00062067556,0.0032306155,-0.011873218,-0.004468146,0.00620314,-0.0061784713,-0.018912638,0.0031757834,0.018804615,0.012402188,-0.0068471893,-0.02578773,-0.004944743,-0.00468381,-0.0029291469,-0.0037122285,-0.009319591,-0.024413567,-0.012050179,-0.0012843648,0.0014196556,-0.023636045,-0.040523734,-0.03580369,-0.028103992,-0.0015624219,-0.008522089,-0.052415766,-0.042517487,-0.025678251,-0.010804117,-0.015019886,-0.02257508,-0.03941645,-0.026766675,-0.034124218,-0.03081947,0.01933796,-0.014109391,-0.017349014,-0.034885626,-0.03522125,-0.0041292077,-0.0042232736,0.00036065487,-0.0041477825,-0.0015751985,-0.0016159036,-0.0002354158,-6.558097e-05,0.00057623786,-0.0024911475,-0.0008328492,0.0003692143,-0.0021709434,0.0010441745,0.0025924116,-0.007242255,-0.0024196121,-0.004332878,0.0013044105,0.0052931025,-0.009766716,-0.0057540354,-0.0061641578,-0.00021345925,0.0020606834,0.0049409764,-0.005663293,-0.012579211,0.0137292445,0.0036809354,-0.030544939,-0.033009667,-0.013277461,0.009022995,0.00060467765,-0.017784243,-0.011000388,0.011555186,0.0079699885,-0.03789376,0.001551588,0.030538471,0.009290939,-0.018939335,-0.04170275,-0.0037337767,-0.0035652898,-0.0051667313,-0.014543039,-0.016298812,0.033266503,0.006667455,-0.01035741,-0.023112712,0.010012825,0.080526784,0.02802345,0.0014919848,0.00034245942,4.6885565e-05,0.07795054,0.041384645,0.032679617,0.019366838,-0.024862016,0.06344251,0.09111426,0.08337188,0.051379014,0.005098319,0.08391744,0.12531637,0.11210315,0.07084014,-0.009538505,0.0898865,0.006592088,0.00120647,0.0010378814,0.01100851,0.052679624,-0.013711108,-0.010342329,0.016884565,0.0064495965,0.08871761,0.053653244,0.04399115,0.0061523337,-0.05569202,0.11024268,0.12119192,0.05719079,-0.014891979,-0.0876308,0.09906325,0.11255209,0.077983215,0.01057938,-0.030981187,0.017804584,0.023225404,0.0025355497,-0.017054996,0.013977688,0.0044138087,0.018294916,-0.0016168342,-0.011416989,0.02790596,-0.0011981695,0.007966468,0.004146009,0.017316604,0.0032183882,-0.0036563235,0.016715122,0.0129625285,0.04315273,0.008962251,-0.004824883,0.0021207079,0.028426105,0.04293053,0.014562031},
{-4.0953733e-08,-9.683462e-08,-4.3189917e-07,-2.8195298e-06,-2.1490864e-06,-2.2302426e-15,-6.8369757e-18,1.8702695e-25,-6.675089e-12,-2.4638205e-09,-3.1833572e-14,-9.292141e-19,8.256624e-28,-4.0010135e-18,-6.1421174e-11,-1.6932147e-09,-5.2508735e-12,-8.943253e-13,-2.291112e-15,-7.2327574e-17,-2.3726435e-12,-6.621145e-11,-1.216387e-12,-2.6633576e-12,-1.5313671e-14,-7.9039266e-05,-0.00045798993,-0.00063771405,-0.0005986117,-0.00023918026,-5.101957e-05,-0.00057799503,-0.00085364404,-0.0009138696,-0.0006035091,-2.6415347e-07,-5.3686144e-05,-0.0002503969,-0.00039070297,-0.00034950426,-5.521615e-13,-4.3178431e-07,-1.5724489e-05,-9.281496e-05,-0.00011392102,-9.355947e-18,-4.529598e-10,-4.4574513e-08,-6.3537773e-06,-5.5267856e-06,-2.792911e-06,-1.1208242e-06,-5.191287e-08,-5.861205e-09,-6.73449e-10,-2.3187197e-09,-8.6867497e-10,-1.1988776e-12,-8.252914e-13,-6.388303e-11,-1.3827351e-11,-1.2781548e-10,-5.1073763e-12,-8.279127e-21,-1.4730083e-13,-5.564394e-10,-1.8903046e-09,-2.2343377e-10,-1.3156337e-11,-5.2018875e-14,-2.4536126e-15,-4.5607544e-09,-8.9568915e-15,-2.636517e-11,-1.731393e-20,-9.637752e-10,-2.6715196e-07,-6.686602e-08,-1.6163047e-07,-3.8358627e-10,-1.2033317e-14,-5.7949765e-12,-2.0446282e-11,-2.741816e-12,-1.5517614e-09,-1.0515257e-18,-4.4542373e-18,-5.991915e-17,-1.5098568e-13,-2.4699882e-14,2.092952e-30,-2.6845703e-16,-1.3381196e-19,-7.2402488e-12,-7.793521e-13,2.9609956e-36,4.774712e-30,-2.7877426e-23,-2.0322684e-20,-7.159359e-18,-8.550429e-06,-1.7690179e-06,-2.5631034e-06,-4.2022115e-09,-1.5928798e-08,-2.2726628e-05,-3.6669117e-05,-3.4570334e-05,-7.1843925e-07,-3.4072564e-06,-3.1611694e-06,-5.654871e-06,-2.9761602e-05,-9.921967e-06,-2.4735795e-05,-8.254665e-14,-1.8359028e-08,-1.8465157e-07,-3.8217354e-07,-8.733897e-06,-1.2123529e-19,-2.3199858e-12,-2.4804137e-08,-1.11718005e-11,-2.4785828e-07,-5.6899717e-22,-1.9114177e-28,1.9284103e-38,2.7707704e-33,2.6259262e-25,-4.3380034e-31,-1.8170022e-28,2.263e-42,1.3910019e-38,-2.853082e-30,-3.21977e-13,-4.9559377e-18,5.3109953e-36,-1.1934884e-34,2.4654304e-33,-1.7852102e-10,1.4705931e-26,8.930436e-26,-3.0646774e-28,-8.060118e-25,-5.098732e-10,-2.2500202e-16,-1.8566897e-37,-5.770544e-14,-3.6742326e-23,-1.0565398e-06,-4.397789e-06,-3.2252748e-07,-9.083202e-07,-8.775575e-10,-8.015973e-08,-3.3366015e-07,-1.9300503e-09,-1.8723773e-10,-3.2917374e-11,-2.2342818e-12,-6.4340346e-13,-8.576686e-11,-1.3986771e-11,-6.03345e-10,-6.993934e-21,-1.9456865e-08,-1.973522e-10,-1.9312328e-08,-4.4312845e-10,-7.721978e-22,-5.5404596e-12,-3.0058688e-12,-3.3732815e-11,-5.7249486e-11,-0.00017133233,-0.0007346021,-0.00092766987,-0.0008220996,-0.00044798688,-0.00014406106,-0.0010083852,-0.0010496447,-0.0009208563,-0.0008583743,-3.5051557e-06,-0.00016319918,-0.00040292312,-0.0004137561,-0.00041336773,-6.5810877e-09,-1.7521825e-06,-5.127425e-05,-8.150698e-05,-0.00010654258,-2.9644024e-12,-7.529377e-09,-2.954133e-06,-1.7759852e-05,-1.3704099e-05,-0.0007465505,-0.0015488575,-0.0011387501,-0.00085776823,-0.00035773218,-0.0009599358,-0.0019745354,-0.0017240511,-0.0013229598,-0.001078702,-6.330234e-05,-0.0004991788,-0.0005220627,-0.0007054245,-0.0003892869,-2.8972417e-07,-7.988711e-05,-0.00013326258,-0.00018223359,-0.00019433752,-1.0599165e-09,-3.7775485e-06,-2.0252253e-05,-6.633569e-05,-2.974334e-05,-4.6418563e-07,-1.0693574e-05,-9.3759314e-05,-4.556949e-05,-2.9797988e-05,-6.620909e-08,-3.3929432e-06,-5.532011e-05,-7.194849e-05,-5.5419343e-05,-1.4515702e-11,-1.0011411e-09,-3.036206e-06,-1.6598515e-06,-9.928345e-06,-6.8009567e-16,-3.676e-19,-4.863753e-07,-3.4906347e-07,-1.6735912e-06,-3.0751057e-16,-5.4327484e-28,-2.684021e-10,-6.552619e-10,-1.063853e-07},
{4.6314226e-06,3.4108485e-05,-0.000933335,-0.0019113541,-0.0029825978,0.00022484698,-0.00046583716,-0.0024393438,-0.0033242132,-0.0039104405,-0.0024089324,-0.0062722876,-0.0051348447,-0.004935767,-0.0045777415,-0.0026702622,-0.0052857064,-0.00695977,-0.0029669055,-0.0031330322,-8.6283755e-05,-0.00031729435,-0.001007897,-0.0006886204,-0.0006219777,-0.0005711287,-0.0023033638,-0.0064541367,-0.002283336,-0.0073178713,-0.00020177904,-0.0036362498,-0.0028934642,-0.0041032145,-0.0022306398,-0.0035708004,-0.004158329,-0.0056812163,-0.0059371796,-0.00038805685,0.0024283638,-0.000832529,-0.013176305,-0.0046331272,-0.004488928,-0.0028440717,-0.0077244407,-0.007964862,-0.0030135345,-0.01169251,-0.0006088757,-0.00010903805,-0.0004551546,-0.0010026535,-0.0013721512,-0.00091769197,-0.000505349,-0.00016354414,-0.0019040736,-0.0022596396,-0.002559823,-0.0025296835,-0.0020134205,-0.0021548672,-0.0025548134,-0.0023979766,-0.002652847,-0.0021464461,-0.00094417634,-0.0028190357,-0.0010725334,-0.00044719377,-0.0004306404,-0.00071389263,-0.0007424212,-0.0022614968,-0.0013404005,-0.0008216512,-0.0005332393,-0.00023804825,-0.0015465291,-0.0005236549,-2.8952236e-05,-2.396284e-05,-1.1337871e-05,-0.0014482023,-0.000960222,-0.00032050195,0.00017863665,0.0006724372,-0.003220416,-0.0028204538,-0.0012374339,-0.0011627605,-0.0007614826,-0.00055189966,-0.0010684237,-0.0007785391,-0.0009235121,-0.0012416827,-0.010874599,-0.0048887488,-0.002052685,-0.00048448986,-8.550924e-05,-0.004018454,-0.0017253691,-0.00036816258,9.112003e-05,-8.377833e-05,-0.0011981499,-0.00041403048,0.0003021029,0.0002610737,-0.00014332721,-0.0032931773,-0.0003723642,0.00020299223,0.0009162147,0.0020389932,-0.014374371,-0.0045550284,-0.0004304548,-0.0010256555,0.0003093906,-0.00032805206,-0.0002697425,-0.00021013118,-0.00013547862,-0.00030728348,-0.00030961973,-0.00028836034,-0.0004432734,-0.00015914776,-0.00031371202,-5.5406086e-05,-0.0001362293,-0.00025094592,-0.00022295912,-0.00019239217,-5.097515e-05,-0.00024527794,-0.00016384154,-0.00033316453,-0.00024697604,-0.0001729545,-0.00034211593,-0.00012573629,-0.0005263895,-0.000509173,-0.0017350757,-0.002286298,-0.0007065268,-0.00017396806,-0.0017118548,-0.00089078967,-0.00029524532,0.00074556604,-4.7581958e-05,-0.00024804988,-0.002948083,-0.0029315804,-0.00042726507,0.0007092556,0.0006224795,-0.009451749,-0.0015372925,-0.0007439919,-0.0010888422,-0.0021264956,-0.0021415546,-0.001579344,-0.0023835879,0.0013848295,9.773344e-05,-0.0022792474,-0.006324764,-0.012333381,-0.007318272,-0.02054489,-0.0004110312,-0.0063057886,-0.0028321515,-0.008620487,-0.01515478,-0.008212639,3.969422e-07,-0.009987817,-0.002650011,-0.0053502913,-0.012684974,-0.018203722,-0.011543072,-0.01378871,-0.009973631,-0.008872172,-0.024720712,-0.007794845,-0.033868857,-0.028219927,-0.007935354,-0.016066762,-0.003029739,-0.017717516,-0.012631719,-0.0064473175,-0.0019102799,-0.0051121996,-0.0032288497,-0.0071656657,-0.0051547936,-0.016083583,-0.012438777,-0.019198216,-0.0014070371,-0.025099667,-0.0031063522,-0.03206054,-0.0063287136,-0.0023497979,-0.006726918,-0.028539425,-0.018372081,-0.0011330078,-0.028693927,-0.002658634,-0.0005262794,-0.0004161751,0.00038206132,-0.00064065174,-0.0013764941,-0.00011787535,-8.068263e-05,0.000841416,-0.00017730407,-0.0019057324,-0.0015392208,-0.00027462156,-9.808979e-06,0.001261511,-0.0015907048,-0.0044822535,0.0022083102,-0.0046286862,-0.00055024197,-0.0008193552,-0.0049389787,-0.0070943567,-0.002546849,-0.0021500743},
{-0.0054436675,0.017100992,0.023133498,0.027721206,0.01413987,-0.0057396204,-0.013456688,-0.01707495,-0.012609565,-0.021613736,-0.036451157,-0.038714245,-0.0372981,-0.020152519,-0.008309981,-0.03526439,-0.0270075,-0.013536875,0.007709286,0.006796047,-0.00071247097,0.014496407,0.03777593,0.042260066,0.023963073,-0.031039912,-0.008833981,-0.01004919,-0.0020530575,0.0017265198,0.0148861455,0.030915633,0.02873773,0.036283214,0.008057136,0.044454776,0.040646847,0.0063088997,-0.00087552477,0.008710937,0.042382274,0.02050632,-0.001676344,-0.040457614,-0.0015231901,0.026524104,0.016260553,-0.01915071,-0.034534503,-0.031217227,0.028185487,0.034741297,0.017140128,0.025044391,0.030886332,0.038927563,0.015728105,-0.010626382,-0.014708025,-0.0005101564,0.0016412304,-0.018157221,-0.027922455,-0.026549986,-0.004708585,-0.012228562,-0.019375715,-0.009216273,-0.0027037996,0.004883167,0.0013559742,-0.0037601083,0.017922033,0.022590624,0.011008683,0.035123996,0.048933443,0.044873204,0.03645963,0.03601025,0.068456866,0.062362164,0.046062242,0.025194533,0.0104031805,0.051117305,0.035009496,0.010592475,0.0008530407,0.007717613,0.024013514,0.013037743,-0.0013720039,-0.0028864965,0.0032608688,0.011259294,0.008716124,0.0004401669,0.0013001956,0.004068111,0.026171954,0.04482424,0.027627913,0.01531483,0.03304158,0.0733816,0.082013994,0.053509053,0.031451352,0.03436181,0.080108635,0.08204941,0.052023936,0.03365618,0.014904129,0.076307945,0.022653976,0.020527557,0.026910463,0.008551399,0.037988447,-0.014848468,-0.029360069,-0.0018870585,-0.0011870969,0.00077155395,-0.003341093,0.00013655315,0.0012786298,-0.00496909,-0.0075735254,-0.007812762,-0.0071309567,-0.0037914633,-0.00480561,-0.0065716836,-0.00043301051,-0.00090828637,-0.0042340066,-0.005810562,-0.0052838996,0.0063466877,0.009205451,-7.767084e-05,-0.003470083,-0.0021373923,0.006778128,0.011586977,0.0015548026,-0.0028537656,0.05208222,0.05485911,0.05087517,0.044485644,0.056305576,0.091489464,0.07346386,0.059426025,0.029294228,0.015373752,0.08413687,0.027564192,0.009264065,-0.002477552,0.007938802,0.045720167,0.0035755676,-0.006007249,-0.003983673,-0.0014857533,0.009758666,0.0023795718,0.004253951,0.012475876,-0.0012860445,-0.062811956,-0.03649412,-0.030147532,-0.021865156,0.01878358,-0.012491586,0.00085281837,0.021920657,0.028827433,-0.001128838,0.033121757,0.03447487,-0.0010090554,-0.014637767,0.015643328,0.030996304,0.034463212,-0.030401763,-0.059000183,-0.017831083,0.019587753,0.01049267,-0.022927197,-0.033728246,-0.0043771234,-0.02374475,-0.019197276,-0.0060172346,0.0046082297,0.027849961,0.05396711,0.018975902,0.0022755405,-0.005507579,0.03434495,0.0745691,0.025270702,-0.003823693,-0.0045285877,0.0044892705,0.05735841,0.0039552688,-0.041841753,-0.052319694,-0.033580277,0.047769707,-0.026355423,-0.038376708,-0.036671717,-0.006595371,0.013259181,0.011462423,0.021966696,0.012813718,-0.0049539986,0.046474487,0.041207388,0.0329786,0.019190108,0.004427989,0.05438046,0.06642744,0.025005748,-0.0061560385,-0.00363142,0.04851089,0.056712467,-0.0011549664,-0.032093044,-0.014307288,0.024937877,0.033836205,-0.014888381,-0.03373749,-0.012505642},
{-3.921479e-05,-8.8380206e-05,-0.00011375433,-5.097162e-05,-3.2806443e-06,-1.9777399e-05,-4.9481117e-05,-4.670531e-05,-4.0680632e-05,-3.7229495e-07,-5.7206853e-07,-5.235292e-07,-6.189714e-07,-9.3517315e-07,-1.7084414e-09,-9.332712e-11,-1.7941408e-12,-4.1997867e-13,-2.4465892e-13,-1.1503127e-14,-1.4433203e-08,-7.0931936e-09,-8.512874e-10,-5.7634342e-11,-1.2248437e-17,-0.0010885373,-0.0015708859,-0.0009143751,-0.0006329908,-0.00034808516,-0.0021111048,-0.00262379,-0.0018500609,-0.0014891943,-0.00066362816,-0.0022909346,-0.0028890385,-0.002229216,-0.0018194435,-0.0009557871,-0.0014856452,-0.0019782514,-0.0015762151,-0.001192194,-0.0007344013,-0.00025174234,-0.00038995937,-0.00043125433,-0.00032358908,-0.00022521139,-4.2201667e-05,-1.1950672e-05,-2.1493868e-05,-1.1475039e-05,-2.5567485e-06,-3.5084846e-05,-3.7911434e-06,-1.630774e-06,-6.621118e-06,-2.1915032e-08,-1.0704641e-06,-2.5129903e-09,-6.321611e-09,-1.8811573e-08,-1.4778656e-12,-6.4431e-10,-1.5072779e-12,-2.822767e-12,-6.1740236e-15,-6.4253765e-18,-1.4530666e-08,-9.594608e-09,-1.0689136e-12,-1.1209717e-11,-5.4692e-12,-1.1931412e-05,-7.060552e-06,-1.4052421e-06,-1.9032863e-07,-2.3997915e-08,-2.2905488e-06,-2.3182793e-06,-4.7572308e-07,-2.7978683e-07,-5.053887e-08,-6.683997e-07,-9.5887074e-08,-5.806916e-07,-4.1992922e-07,-1.5634902e-06,-4.827189e-15,-2.466824e-12,-1.5954727e-08,-8.282155e-08,-3.4918145e-07,-4.2775186e-10,-2.9201292e-09,-6.0054467e-10,-6.4548715e-08,-3.5374512e-07,-3.1164673e-05,-1.5025754e-06,-2.2600413e-07,-9.969042e-06,-6.2320173e-06,-0.00013934316,-3.0353389e-05,-1.0179852e-05,-2.8822124e-06,-6.6435423e-06,-0.00023699422,-8.867059e-05,-0.00012507326,-7.7392775e-05,-2.0724594e-05,-0.00047941858,-0.00020714357,-0.00027889738,-0.00016944768,-0.000110126544,-3.7916307e-05,-5.369971e-05,-9.724738e-05,-0.00016032683,-0.00016342114,-2.0914489e-22,-1.1374964e-16,-1.0596103e-12,-4.782721e-15,-2.8141798e-13,-4.0695723e-28,-2.026311e-20,-2.3306704e-14,-1.517014e-13,-1.0251909e-09,1.1466625e-25,-6.6973067e-23,-5.435708e-17,-3.3752772e-18,-1.1290537e-11,-4.7816007e-18,-3.2912582e-22,-7.292338e-15,-1.7997174e-16,-3.507851e-12,-6.5908474e-14,-7.7386746e-14,-6.3553663e-12,-7.974023e-11,-6.84468e-11,-7.141626e-05,-1.1358815e-05,-2.6028163e-06,-2.5043585e-07,-4.3407766e-08,-2.2978878e-05,-4.9519363e-06,-1.07200016e-07,-1.1410518e-06,-5.373039e-09,-1.6570035e-05,-4.4447046e-07,-3.1416782e-08,-3.6769175e-06,-1.7806055e-08,-4.845133e-09,-1.5599099e-09,-6.9213417e-09,-4.411483e-07,-3.4020715e-08,-1.2150534e-09,-1.1662389e-06,-1.314539e-09,-3.1347463e-06,-5.076177e-06,-0.0014961521,-0.0019015842,-0.0013594928,-0.0010332891,-0.00046162665,-0.0023251888,-0.0029614198,-0.0023643887,-0.0017421285,-0.0008884158,-0.0029942195,-0.0035710905,-0.0028220674,-0.0022507748,-0.0012911833,-0.0018846438,-0.0021865766,-0.0019587905,-0.0012967369,-0.000843167,-0.00046001768,-0.00054131594,-0.0005490981,-0.0002665795,-0.0002044446,-0.0024573463,-0.0023989175,-0.0016296776,-0.0014739855,-0.0007903802,-0.0034680134,-0.0038817748,-0.0028348577,-0.0026635374,-0.0010670999,-0.0038735787,-0.004351864,-0.0034792945,-0.0029404084,-0.0012887415,-0.0023874496,-0.0027552845,-0.0018999127,-0.001590029,-0.0007862299,-0.0006233859,-0.0008217958,-0.0005481503,-0.0005177243,-0.00020929893,-0.00011937755,-0.00025144647,-0.00016798482,-6.405938e-05,-0.00024500035,-0.00034457032,-0.00053338107,-0.00036230453,-0.00023926204,-0.00036857332,-0.00041683303,-0.00070018467,-0.0005681723,-0.00043699346,-0.0007396883,-7.719642e-05,-0.00022295373,-0.00031454107,-0.0002207548,-0.00032815282,-2.3869483e-05,-9.238476e-06,-5.5438304e-05,-3.966158e-05,-8.194919e-05},
{-0.00038617494,-0.00056831393,-0.0004216872,-0.00013049871,-1.503227e-05,-0.00034277333,-0.00027371442,-0.0002952999,-0.00019634452,-0.00036771724,-0.00045483277,-0.00018654551,-0.0004032854,-0.0003194676,-0.00032513714,-0.00054483936,-0.0001550145,-0.00020111578,-0.00034320613,-0.00052774587,-0.00072441145,0.0001294295,0.00012664757,-0.00015078663,-8.975929e-05,0.0013073954,0.0006953774,-0.0015288393,-0.0014628634,-0.0013766986,-0.0041888747,-0.0039583324,9.553589e-05,-0.00011692456,-0.00044278303,-0.008508352,-0.010909854,-0.0044070417,-0.0016353006,-0.0015609284,-0.0060860664,-0.00837379,-0.009088499,-0.005228061,-0.006235908,-0.0037489121,-0.0050657205,-0.005421341,-0.002880642,-0.004644386,-0.00028901742,-0.0005165113,-0.0002444155,-0.0003689582,-0.0008738237,-0.00015589531,0.00010923853,0.00025888413,-0.0005643246,-0.0004999825,-0.0003639692,0.00031104422,0.0002929142,3.840863e-05,0.00015791682,-1.7654236e-05,0.00020353532,-0.00041359733,-0.00030940011,-0.00019259521,-0.00016933701,0.0009282151,0.00042917582,-0.00021128567,0.0003666956,0.00018407092,-0.00032077296,-0.000110877634,2.7531201e-05,-0.000170565,0.0003791126,0.00054955995,0.00041713315,0.00021718086,0.0003095613,0.0011977387,0.0010600251,0.0012462357,0.00095569063,0.0010309936,0.0004928374,0.00026644437,0.0004974247,0.00023068525,-3.005912e-05,-0.0003641929,-0.0003455602,0.00030321887,0.00019035672,6.132555e-05,0.002705221,0.001960462,0.0015791793,0.002369059,0.0020235335,0.0021193111,0.0023413405,0.0021436252,0.0019808204,0.0013268058,0.0013410257,0.002698354,0.0017278498,0.0009650857,0.003022321,0.0008319411,0.0026702713,0.0027495471,0.001191633,0.0019698187,0.0006957996,0.0018581898,0.0014182631,0.0018341995,0.0013635036,-0.00013425555,-0.00038817522,-0.00022724019,-0.0002398723,8.5649845e-05,-6.123379e-05,-0.00024664262,-4.6122805e-05,2.6251335e-05,-0.00013873228,0.00014411709,-0.0004442971,-0.00039429075,0.0003709415,-0.00016005631,0.00042043743,-0.00039560607,-0.0006233211,0.00030597538,0.00025470546,0.00046545235,-0.00021177261,-0.00047025984,0.0002254669,0.0005799464,0.0003169647,-0.0002566131,9.827763e-06,0.00020925862,-0.0008194288,0.00041795467,0.00040094057,0.0010423359,-6.499755e-05,-0.0005504764,0.0007573578,0.0015740485,0.0015079442,0.0005620933,0.0012513608,0.00025819923,0.0007051384,0.0010523052,0.00032070195,-0.00040178187,-0.00023906218,0.00020746558,9.505615e-05,0.00012284485,8.5783286e-05,0.0025415195,-0.0033943867,0.000255957,-0.0017266243,-0.0004992109,-0.006373767,-0.0012649094,-0.00619651,-0.0036885946,-0.005960437,-0.011137082,-0.012996308,0.00026547757,-0.0027695843,-0.0021718938,-0.013778858,-0.0102016805,-0.0054547614,-0.0060448647,-0.0032009156,-0.006345448,-0.006059793,-0.007821322,-0.0040352973,-0.0085775815,0.0018632115,-0.002010496,-0.0032683252,0.0064019472,-0.0044181123,-0.012762058,-0.00078128744,-0.0008354119,0.0011581588,0.0013691658,-0.020095266,-0.005902652,0.0006179524,-0.00679445,-0.009279805,-0.01066252,-0.013374066,-0.009304241,0.0002683762,-0.015315735,-0.012206888,-0.0117816,-0.014491214,-0.012089417,-0.008035869,0.00048077657,0.001010113,0.00027529284,0.0018811746,0.0022319213,0.00029426077,0.00013872366,0.0011651202,0.0016262649,0.0009983873,0.00031643186,-0.0005865485,0.0015229983,0.0024125334,0.00010316789,1.4717888e-05,-0.0009815709,0.00039383405,0.0002627842,-0.0002641727,-0.00047742692,-0.00027610385,-0.0001228596,0.00037741027,-8.852038e-05},
{-0.009861694,0.013200309,0.034911282,0.0389692,0.030532036,-0.024079196,-0.02265045,-0.010153352,0.0024923906,0.012631151,-0.030786179,-0.027286636,-0.015963925,0.014200119,0.03402035,-0.017447965,-0.0014529068,0.01945766,0.05266428,0.052107684,-0.0046110437,0.010791426,0.025386298,0.043564793,0.040009655,-0.028314898,0.004793064,0.027677635,0.050956156,0.035840213,-0.0038544722,0.00067386124,0.042210534,0.039234243,0.028240513,-0.026295116,0.0061296555,-0.005461475,-0.018977573,-0.018146597,-0.010488684,-0.0058565736,-0.017477887,-0.054256942,-0.031783126,-0.003165109,0.0015106692,0.0004985355,-0.02970765,-0.009814345,0.01653399,0.03396132,0.037054066,0.024371605,0.016473921,0.014695952,0.0068735327,-0.012237822,-0.01698118,0.004199338,0.0063708704,-0.008418976,-0.02213543,-0.004302097,0.024872322,0.014453557,-0.0049144793,0.002060447,0.0275312,0.029352484,0.013968868,-0.004315244,0.0040941406,0.022682503,0.016471876,0.020857276,0.052061804,0.05496589,0.036417026,0.017410466,0.02761354,0.023624176,0.016457641,-0.006069414,-0.008895958,0.020438584,0.0056038485,-0.012826102,-0.027091075,-0.010836774,0.023412434,0.015501559,0.005731368,0.0067056036,0.0027426386,0.013308106,0.0045327055,0.0017306634,0.004786854,-0.00599453,0.032057427,0.058211863,0.044557918,0.014878155,0.0070770243,0.062164593,0.08043932,0.048474953,0.0018118995,-0.0017814536,0.07853391,0.057032917,0.015420417,-0.008066299,-0.011713728,0.06193555,0.030468004,-0.018206095,-0.020597206,-0.0069572083,0.051354993,0.01866167,-0.013352678,-0.007803098,-0.014645634,0.00075316743,-0.0041833017,-0.00085918803,0.0033857506,1.6780152e-05,-0.0013453542,-0.0034402164,-0.0020016427,0.0041778535,0.00015374106,-0.0026433289,0.0013710964,0.011022959,0.00489438,-0.0005651552,-0.0005916285,0.0054604425,0.020338178,0.011897208,0.0019201274,-5.699901e-05,0.0061295955,0.014116022,0.009009317,0.00031900842,0.031815764,0.07191191,0.08137699,0.042159118,0.023498518,0.04342369,0.053926125,0.026591718,-0.010360793,-0.005585026,0.036160555,0.015872607,-0.028999638,-0.03445879,-0.0025220078,0.050830353,0.018984264,-0.005964571,0.007887326,0.008120577,0.027881106,0.0025596078,0.001720282,0.016333135,-0.0067262915,-0.047320943,0.00535665,0.06013375,0.08049665,0.065098815,-0.03455301,0.008672235,0.050627466,0.05877989,0.05562304,-0.03802299,-0.0043723765,0.0018092357,-0.011454378,-0.007963064,-0.02179403,0.021821795,-0.0035284248,-0.05068772,-0.020681543,-0.005593497,-0.01595366,-0.015933713,-0.0031304702,0.00982803,-0.0011843772,0.04949174,0.0943516,0.09375292,0.080723405,-0.011529307,0.015153829,0.056344885,0.040949497,0.038829513,0.013571788,-0.006100634,-0.029162263,-0.0481874,-0.011493396,0.024244323,-0.015398448,-0.061832625,-0.04770345,-0.01296699,-0.029354408,0.016408926,-0.018490277,-0.028113538,-0.0074118567,0.011869148,0.007539754,0.014035562,0.03280692,0.022187771,0.019949412,0.0072890115,0.014046184,0.010076418,-0.0039742775,0.0069724596,0.046320017,0.01744734,-0.03808773,-0.04071931,0.010707728,0.029689305,0.011875028,-0.04494026,-0.046034656,0.0067831525,0.02138694,0.014661482,-0.03177829,-0.01769061},
{0.0002617534,0.0007258484,-0.0004905968,-0.001097309,-0.0009960916,0.00040760127,0.00034633055,-0.00021586064,-0.0005113757,7.763505e-05,0.00018954794,0.00012119932,-0.0009710134,-0.00090556266,0.0004515626,6.926479e-05,-0.00014685148,-0.0013642828,-0.0010527549,-0.0003580832,0.0007506967,-0.00023034614,-0.0007448866,-0.0001834214,0.00028167514,-0.0003476433,-0.0010020299,-0.0013318815,-0.0006823555,-0.0011395614,-0.0019927963,-0.0031208086,-0.00426023,-0.0033469507,-0.0021112075,-0.0028102868,-0.0041619614,-0.0076086908,-0.0062436694,0.0007367978,-0.0016480829,-0.0037492013,-0.008615039,-0.0048595946,0.0042987913,-0.00031786432,-0.0031284255,-0.0073074293,-0.0019088751,0.012259427,-0.00017186005,0.00019871593,-0.00042703355,-0.001122283,-0.0010855818,0.00045815908,0.00065635453,-0.0006359593,-0.00046470974,0.0005197864,0.0008905139,-8.826398e-05,-0.0009875878,-0.00070848933,0.0014356177,0.0004272833,-0.0009498813,-0.0010252519,8.195395e-05,0.00068892183,-1.47993305e-05,-0.0005865743,-0.00045556715,0.001035115,0.0009865159,-0.00015011277,-5.3499596e-05,-0.00029930606,-0.00028922458,-0.00040287632,-9.254127e-06,0.0003948596,9.265455e-06,2.64275e-05,0.0007699964,0.00019474176,-0.00010677267,-0.0006255612,-0.00030878538,0.0023175492,-0.0004657008,-0.0010408247,-0.0012651259,-9.777093e-06,0.0014620626,-0.0007288671,-0.0011638245,-0.00096401764,0.00090385915,0.0015686038,-0.000106195934,0.00032238057,0.0007535928,0.0010466772,-6.1335086e-06,-0.00043387036,-3.7904007e-05,0.00046008104,0.00084670814,0.0007837937,0.00027365395,-0.00052180944,0.00022818169,0.001425304,0.0019555297,-0.00082081626,-0.0017285923,-0.0009339389,0.0015158608,0.005063093,-0.0016498396,-0.0021695367,-0.0005006037,0.001810985,0.0032904448,0.00021049392,-0.00030754475,-0.00016217605,-9.981143e-06,-0.00018165611,-8.124313e-05,8.460636e-05,1.531751e-05,6.421e-05,-0.00021743926,-0.00022273285,0.000108359105,0.00015370261,8.2270446e-05,-0.0002976206,-7.812911e-05,0.00015787789,0.00015904619,2.2830658e-05,-0.00017660439,0.00044123773,0.00018209135,-8.59293e-06,5.9350805e-05,-4.5175635e-05,-0.00016218172,-0.0014565842,-0.0003718258,-0.0006714638,-0.001551762,0.00031953192,-0.00027377383,-0.00042484552,6.574423e-05,0.00142591,0.0010475988,-0.0014553331,-0.0011760865,0.000506564,0.008434328,-0.00033386474,-0.003006962,-0.0018484395,0.0011745504,0.005108586,-0.0013040203,-0.0024380707,-0.0011767086,0.0022707067,0.0029858756,-0.00039803152,-0.0010436982,-0.0013504014,-0.0012852813,-0.0026879287,-0.002892268,-0.0044618873,-0.006000844,-0.0042514936,-0.0048063537,-0.0038791175,-0.0053413794,-0.008638163,-0.0071372176,0.00021249273,-0.0020371806,-0.006055463,-0.011664253,-0.0070739933,0.008427924,0.00015109807,-0.004611407,-0.010320462,-0.0034246948,0.007906984,-0.0032132322,-0.0060141627,-0.0032398903,-0.0046493183,-0.0035150982,-0.0065265503,-0.009478269,-0.007165933,-0.0062813372,-0.0016446037,-0.006556013,-0.011665835,-0.011956639,-0.0016888219,0.013533649,-0.005257469,-0.013844044,-0.0134597495,0.0045140665,0.02003207,-0.0031289335,-0.00939867,-0.008195467,0.014683987,0.022326056,-0.00024510996,-9.3348506e-05,-0.00034002695,0.0006333579,0.00044167726,-0.00056139135,0.00019059774,-0.0005953205,6.087955e-05,-0.00051469955,-0.00092432427,0.0006423135,-0.0012206541,-0.0015521623,-0.0014468079,-0.00049355254,-5.656575e-07,-0.0010182621,-0.0015613894,-0.0016840264,0.00028121614,-0.00060447125,-0.0008756412,-0.00059850235,-0.0004511438},
{-4.9244613e-07,-2.6617306e-06,-1.2794718e-06,-3.3896667e-06,-5.3985486e-06,-3.1950844e-06,-1.4673366e-06,-4.255675e-07,-2.864013e-07,-1.2816317e-06,-5.4306184e-08,-3.1534145e-07,-8.7054474e-08,-1.581862e-07,-1.1980704e-06,-7.4028366e-09,1.26439526e-08,-8.335963e-09,1.1916377e-09,-3.5058436e-09,1.1591502e-08,2.5781821e-08,7.7049944e-10,6.765848e-11,-1.7620658e-10,-0.0019679859,-0.0020393415,-0.0021752708,-0.0018441617,-0.0012422662,-0.0019841949,-0.0020800226,-0.0021418845,-0.0019027714,-0.0016042845,-0.0016657318,-0.0018257318,-0.001936423,-0.0017864775,-0.0016573683,-0.0010141659,-0.001249736,-0.001336382,-0.0012339238,-0.001206517,-0.0004304221,-0.0006257841,-0.000784052,-0.0006297382,-0.0006951922,-8.88622e-06,-3.5394442e-06,-3.1846375e-06,-5.9945537e-06,-2.964629e-06,-3.446312e-05,-1.1590826e-06,-1.2112397e-06,-2.2982244e-06,-3.895777e-07,-1.5029093e-05,-3.8291068e-07,-3.0543858e-06,-5.2352e-06,-1.1103547e-07,-1.3928773e-06,1.077375e-07,-5.566323e-08,2.943432e-08,-1.5698114e-12,-2.6031114e-06,1.269187e-07,9.069095e-09,-2.082469e-09,-4.733458e-11,-1.1786098e-06,-9.63145e-06,-1.6462807e-05,-3.3632878e-05,-4.7999954e-05,-4.5918555e-06,-1.1121967e-05,-4.071537e-06,-1.3261511e-05,-2.1825683e-05,8.983359e-08,1.697581e-07,-5.7039024e-08,5.161361e-07,-4.0293207e-06,1.2748893e-07,1.2906937e-06,2.241487e-06,1.0126902e-06,9.80437e-08,1.3891872e-07,1.4586128e-07,2.418777e-08,7.991931e-09,2.5311025e-10,-0.00039165694,-0.00040559733,-0.00016659638,-0.00028643003,-8.293665e-05,-0.00049843494,-0.00051029626,-0.00033253565,-0.00044866823,-0.00027678744,-0.00044229344,-0.00046793174,-0.00027899974,-0.00047680194,-0.00014044892,-0.00041921923,-0.00029720005,-0.00021951736,-0.00042528094,-0.00012824096,-0.0002594342,-0.0001905971,-0.00013551067,-0.00014997368,-4.0071354e-05,-2.4230093e-10,-4.733643e-13,-3.1800257e-10,-3.5192027e-09,-4.3344968e-09,-5.2096327e-11,-2.0625564e-14,1.3160306e-11,-2.3708517e-09,-3.4446441e-09,-3.2577607e-11,-6.5942785e-18,5.042672e-11,-2.3144362e-09,-6.0264324e-12,-3.7504853e-09,-2.9661344e-09,-1.8367894e-09,-2.1873812e-07,-1.2478536e-07,-2.1738131e-07,-3.3797471e-09,-1.5091487e-07,-5.3802194e-07,1.0848969e-08,-8.747053e-05,-6.778421e-05,-0.00022559265,-0.00015908838,-0.00024984218,-0.00026190025,-0.00016310035,-0.00012232993,-0.00019834813,-0.00011467114,-7.419525e-05,-4.214e-05,-7.933738e-05,-6.205174e-05,-3.3696673e-05,5.724315e-06,5.0742406e-06,-3.6525412e-06,1.3923503e-05,-1.2933426e-06,1.41859555e-05,1.5267353e-05,6.063414e-06,4.935324e-07,-7.9063554e-08,-0.0041425726,-0.0040637082,-0.004078413,-0.0037450609,-0.0027137964,-0.004038379,-0.0042206286,-0.0041149063,-0.003793713,-0.0034721626,-0.0038614664,-0.0038822938,-0.003962355,-0.003883807,-0.003625675,-0.0028260741,-0.0031140377,-0.0030726336,-0.0030023688,-0.003024126,-0.0013062311,-0.0017781218,-0.0018787573,-0.0018087813,-0.0020659866,-0.006391681,-0.006193031,-0.005995964,-0.0055387355,-0.0043791505,-0.0064128726,-0.006133117,-0.0060400534,-0.0058943187,-0.0051530204,-0.0058111404,-0.005593569,-0.0056270636,-0.00586601,-0.005264473,-0.0040915185,-0.0040184855,-0.0041383016,-0.004446887,-0.0041419733,-0.0026061,-0.0030091966,-0.0028222618,-0.002931749,-0.0034198414,-1.14682825e-05,-6.769914e-05,-8.3700455e-05,-0.00013658173,-0.0004002898,-4.2833376e-06,-5.261447e-05,-6.471648e-05,-3.2865788e-05,-0.0003485332,-5.020409e-06,-2.4890805e-05,-1.6711718e-05,-1.9748833e-05,-0.00023699406,-4.4063302e-07,-4.6309665e-06,-5.6267336e-06,4.6811183e-06,-3.93683e-05,-6.7711693e-07,-2.458191e-06,-3.701765e-06,5.457138e-06,-8.889387e-06},
{0.0033259501,0.0014240288,-0.0055558337,-0.013426736,-0.01720607,0.007263994,-0.0025025173,-0.012688526,-0.015620502,-0.02036136,-0.007740979,-0.016606543,-0.028028361,-0.030137459,-0.021037685,-0.0023262314,-0.012374301,-0.019872505,-0.016542062,-0.01824699,0.0025244837,-0.005865864,-0.015664978,-0.015280538,-0.010754743,0.008721616,-0.0058327164,0.0064403443,-0.012159087,-0.038800534,-0.0062017594,0.026653523,0.036278572,0.002707756,-0.006813756,0.004811712,0.02918252,0.03748428,0.016415631,-0.0027220517,0.0057208855,0.021992015,0.03328208,0.047395565,0.011439206,0.005229819,0.030009827,0.02569106,0.014946088,-0.010889104,-0.0101365615,0.0043728724,0.002249533,-0.0040971544,-0.008002797,0.0015659824,0.0024186368,0.0027959736,-0.01043668,-0.016148254,-0.010560332,-0.012511508,-0.021061698,-0.022523347,-0.016138572,-0.0060822926,-0.0118107945,-0.012039133,-0.015987875,-0.011911583,-0.007061851,-0.010762954,-0.008395176,-0.014306814,-0.009397105,-0.0027203718,0.0069529233,0.013176072,0.015532019,0.0060366187,0.008385033,0.021031,0.026473453,0.023013718,0.010825925,-0.0022611953,0.0024841244,0.0068085087,0.012154864,0.001991753,-0.008574132,-0.0050114365,0.0020724572,0.009591029,-0.0010751201,-0.007976399,-0.0048755817,-0.0022226698,-0.0023692676,-0.0058790627,-0.02236198,-0.011638783,0.0036106724,0.00021535133,0.0011924582,-0.011856348,0.0017645379,0.006169265,0.006414374,0.0018819448,-0.01015083,0.008572552,0.01609263,0.011876173,-0.0044289785,-0.010017388,-0.0008124962,0.011709279,0.0069118766,-0.007397835,-0.00713701,-0.002680778,0.012152465,0.0053885886,-0.014975113,-0.0033452213,-0.0034769739,-0.0042486424,0.0030981258,0.0071762786,-0.003824193,-0.0069620344,-0.007710066,0.0008653767,0.0058103306,-0.0041717915,-0.0070412587,-0.0066407328,-0.0014238439,0.005987219,-0.003275762,-0.003607968,-0.005586527,-0.00068483077,0.006170057,-0.0034881034,-0.0031388095,-0.00509924,-0.003094803,0.0037889981,-0.014533291,0.0054185763,0.01289316,0.0065146773,0.0030870135,0.0082324045,0.025722392,0.028264951,0.024894472,0.0015385088,-0.0026895867,0.004467652,0.0025113996,-4.6555215e-05,-0.0050684703,-0.018383272,-0.008271954,6.56528e-05,0.0029941592,-0.00806791,-0.015462397,-0.008515085,-0.0055325176,-0.005350491,-0.011851495,0.020704709,-0.016489161,-0.030623179,-0.023236228,-0.05841809,0.029305264,0.026615111,0.025423858,0.0014120659,-0.013876592,0.036236227,0.03405717,0.032307014,0.012037083,-0.009100488,0.022379437,0.044765938,0.037707552,0.046500232,-0.012314189,0.038594726,0.032233372,0.019190416,0.012893585,-0.014988637,0.0025974817,0.00047492437,-0.027278585,-0.044831984,-0.044168137,0.020388324,0.044227336,0.012940123,0.0047151498,-0.053438447,0.017112942,0.05623774,0.040117428,0.029395454,-0.03255436,0.006435234,0.06297752,0.025222616,0.034012567,-0.031607833,0.005296398,0.054150496,0.04968767,0.024261035,-0.0447694,-0.00455026,-0.002133334,0.016198771,0.025321716,0.017352568,-0.012616717,-0.0019911488,0.02736377,0.039113924,0.0303191,-0.015536499,-0.0036600668,0.019638428,0.03136415,0.03882067,-0.0132408105,0.003012846,0.0086613735,0.031836115,0.029203217,-0.0092252325,-0.0101850685,0.0089426655,0.019498535,0.025644723},
{-0.0008391018,-0.00047584885,-0.00022032052,-9.946015e-05,-0.00020814057,-0.0004964348,-0.00016735113,-4.85356e-05,-4.3587333e-05,-0.00031369543,-0.00036920444,-0.000111058616,-7.6619246e-05,-5.5621957e-05,-0.00010250611,-0.00057818985,-0.00012930323,-0.00023123728,1.3221199e-06,6.327133e-05,-0.00038555323,-0.00032802476,-0.0003692752,-0.00034682924,-0.00013768756,-0.004085638,-0.005106271,-0.005356403,-0.0037508174,-0.0017331686,-0.003366051,-0.0112821795,-0.007757213,-0.007302907,-0.0047639115,-0.00066424586,-0.009799588,-0.011327569,-0.008335453,-0.0059871725,0.01185306,-0.0055705304,-0.008585441,-0.009373355,-0.005888846,0.0099364435,0.007935363,-0.008564725,-0.010668326,-0.006648172,-0.0008190636,-0.00083127,-0.000178826,-0.0001244508,-7.691491e-06,-0.00030862232,-0.00046613926,-8.2093386e-05,-2.088141e-05,-7.3060495e-05,-0.000778976,-0.0003173665,-0.00026335614,-8.33506e-05,-2.1108708e-06,-0.00069255085,-0.00066170964,-0.00019636474,2.4042163e-05,1.3639226e-05,-0.0003405569,-0.0003745672,-0.00022147656,-0.00022410403,-2.6342504e-05,-0.00072247075,-0.0010954239,-0.0016475223,-0.0016787554,-0.0009268112,-0.0003208803,-0.00081392477,-0.0011421288,-0.0013360843,-0.001470034,0.00020514004,-0.00019582978,-0.00093385944,-0.0013463842,-0.0019197876,0.00072757836,0.00024052906,-0.0012225544,-0.0005793496,-0.00023333174,7.418937e-05,-0.00059287186,-0.0012539509,-0.00052864477,-0.000285108,-0.00021149547,-0.00089224265,-0.0020589987,-0.0019348132,-0.0006237653,-0.00081054645,-0.0016248253,-0.001951301,-0.0021127304,-0.0010408814,-0.0013937873,-0.0017834086,-0.0018882178,-0.0024972903,-0.0019569902,-0.0012664952,-0.0014930159,-0.0020516682,-0.0012086997,-0.0015261526,-0.00044037445,-0.00183466,-0.0029668903,-0.0005709233,-0.0001134273,-4.7363537e-05,-2.0855785e-05,-4.9013277e-05,-1.7188666e-05,-9.523172e-05,2.34623e-05,3.9265365e-07,-6.909978e-05,-3.864363e-05,-8.7321416e-05,4.7039248e-05,1.2784965e-05,-5.5613084e-05,-4.38303e-05,1.2459102e-05,6.6022796e-05,6.175945e-05,-6.633486e-05,-0.000199581,-0.00010605363,8.912806e-05,0.00014557301,-1.3807416e-05,-0.00021197456,-0.00058231864,-0.00082600344,-0.0019287341,-0.001785088,-0.0015803844,-0.0010309604,-0.0005731327,-0.0015831853,-0.001105879,-0.0008980836,-0.0011846763,-1.2847697e-05,-0.0006714566,-0.0013189239,-0.0016520492,-0.0018567462,0.001281058,-0.0010792153,-0.0012735216,-0.0005351541,-0.00014284695,0.0004741633,-0.0010942543,-0.0011121295,-0.00043054452,-7.695627e-05,-0.0050047366,-0.0052977684,-0.0054123597,-0.0041328967,-0.0024461441,-0.0058810543,-0.008594471,-0.008448569,-0.0067156944,-0.0049849884,-0.0016916468,-0.008562823,-0.010677139,-0.008123443,-0.007379004,0.010425539,-0.007914926,-0.0145840775,-0.011808594,-0.007815588,0.015111154,0.0068301247,-0.0046332665,-0.012782767,-0.007889681,-0.014715474,-0.010680652,-0.00972354,-0.006650268,-0.0037163696,-0.016763972,-0.01842527,-0.011320835,-0.010911891,-0.008178291,-0.008183287,-0.014787144,-0.016530756,-0.014031104,-0.011233624,-0.00062221626,-0.007406365,-0.017663568,-0.012426489,-0.008498262,0.022429232,-0.0067261793,-0.016393146,-0.016319793,-0.00602023,-0.0026785124,-0.002257249,-0.0038569379,-0.0029582868,-0.0026278698,-0.0011638748,-0.0039089075,-0.0048790555,-0.003113812,-0.0034197767,-0.0025118648,-0.003814447,-0.0047557387,-0.004305896,-0.0028081888,0.0018339371,-0.0004331755,-0.0046579866,-0.0045239534,-0.0033079584,0.003076437,0.001802654,-0.0025641532,-0.006850646,-0.0055905706},
{0.023575362,0.028094448,0.044357397,0.059923183,0.045363754,0.026044223,0.045182362,0.07517689,0.07533173,0.06097145,0.023853472,0.068197615,0.10768116,0.09757719,0.05287734,0.013788009,0.063153766,0.088827126,0.08714999,0.03881667,0.009510638,0.027598785,0.030571865,0.028360797,0.019753534,0.0062457533,-0.014825159,-0.04270316,-0.033647582,-0.022080211,-0.013253495,-0.04872492,-0.05927523,-0.04483859,0.0016449535,0.009955887,-0.01589335,-0.012326428,-0.0067713168,-0.024586648,0.007896101,0.041851465,0.049745314,0.05466095,-0.0030614417,-0.0039990586,0.06975388,0.077597424,0.05934469,-0.009959868,-0.011424187,-0.0110184215,0.014761564,0.03969523,0.042656135,-0.0215908,0.0049223225,0.038762826,0.06253958,0.029840183,-0.017331459,0.05143289,0.08141902,0.06460252,0.03016489,0.010574282,0.041579176,0.07812328,0.030258289,0.015880149,0.016758977,0.014911341,0.017962765,0.0013359146,0.005898618,-0.0077430145,-0.030847894,-0.026715973,-0.00509979,-0.00049659715,-0.017249947,-0.030241586,-0.025627408,-0.018062534,-0.0035823814,-0.008794773,0.025385523,0.032554444,0.012404122,-0.01212072,0.017858716,0.0505342,0.052256778,0.0291697,-0.00995844,0.01600586,0.026441818,0.012046891,-0.0073033855,0.0041512717,-0.027929112,-0.035980023,-0.03723355,-0.019118803,-0.012636948,-0.037014227,-0.04907662,-0.052124295,-0.027366355,-0.017641962,-0.023769056,-0.023356158,-0.04295741,-0.036296025,-0.021958314,0.005960034,-0.0010735667,-0.008281736,-0.0500986,-0.026929695,0.03679407,0.03531961,0.005946993,-0.030624932,-0.03290718,0.013907523,0.019257968,0.016111562,0.0037499315,-0.00016963485,0.019412588,0.021746373,0.014069639,0.009532021,-0.0027581705,0.008971045,0.017284207,0.012412433,0.015419136,0.0050239326,0.0004926018,0.0043171383,0.006334772,0.012370517,0.015019542,0.0001082193,0.0009201213,0.004891755,0.0058768303,0.008169894,-0.023897221,-0.04927347,-0.027517267,0.0040869196,0.006514918,-0.040120658,-0.045401283,-0.027376385,-0.0077762934,-0.0071185096,-0.029226536,0.027651412,0.04822545,0.036145642,-0.013218019,0.023677628,0.0692707,0.08756013,0.019896923,-0.021191739,0.026648989,0.03874441,0.021794487,-0.015992505,0.0036928474,0.017323775,-0.00069796393,-0.017941695,-0.0042389017,0.012732894,0.0011957888,-0.029239446,-0.032201834,-0.0083688,0.03608002,0.01012191,-0.0032116305,-0.004814596,0.03245912,-0.003668199,-0.008776526,0.041846413,0.10022338,0.06956953,0.043676216,0.02522128,0.09638832,0.13038133,0.10343701,0.019005572,0.0056433575,-0.026619397,-0.054999147,-0.018670488,0.024941683,-0.033126123,-0.0790173,-0.062033795,0.01511026,0.026796715,-0.012600559,0.007267365,0.013941253,-0.020624813,0.0055965926,0.051645566,0.103631586,0.12646982,0.05185573,-0.050620165,0.071337,0.13365692,0.119281,0.07858205,-0.04342704,-0.0063159526,-0.007371551,-0.030476138,-0.040224392,-0.015376906,0.013345719,-0.015476389,-0.04056745,-0.048966058,-0.022466373,0.018268075,-0.0018147329,-0.011073465,-0.0006149351,-0.002889421,-0.0124062495,0.0035908842,0.013819549,0.048735492,0.019968977,-0.01899428,-0.0005453061,0.016356185,0.041189216,0.051040612},
{-0.0016874667,-0.00081085204,-0.0007335436,-0.00048145262,-0.0005115176,-0.0011191943,-0.0003977614,-0.00015706178,-9.9093224e-05,-0.0003531199,-0.0005309005,-3.3817356e-05,-6.928915e-05,2.8240142e-05,-0.00015122771,-2.8155051e-05,-2.1045806e-05,-7.415327e-05,-4.3607004e-05,-4.4563436e-05,-0.00026339575,-8.216954e-05,-8.83213e-05,-0.0006563945,-0.0007238052,-0.0032221433,-0.009504013,-0.009926624,-0.006193632,-0.0035393534,-0.0015932965,-0.017547693,-0.011958046,-0.014233011,-0.010435327,0.003048961,-0.0033199303,-0.012676266,-0.015333096,-0.012592721,0.012315547,-0.0003862443,-0.010164682,-0.015212989,-0.010443559,-0.0031597004,0.0010101435,-0.01118111,-0.013503814,-0.009659379,-0.0006144833,-0.0013502071,-0.00094023015,-0.00049946754,-8.61298e-05,-0.00096650526,-0.001024575,-0.00038483992,-0.00010200002,-5.765014e-05,-0.0004873109,-0.00034796764,-0.00014558724,-7.234135e-05,7.5443672e-06,-0.00042238488,-0.00026166515,-7.28686e-05,-8.535179e-05,-4.234993e-05,-0.00023203279,-6.153801e-05,-2.0199817e-05,-0.00014475718,-0.00020672011,-0.0014481135,-0.0016404595,-0.003577072,-0.0034800915,-0.0021651548,0.00021594447,-0.0014705986,-0.001976261,-0.002479278,-0.002822699,0.00056805083,0.0010318721,-0.0008912228,-0.0018169797,-0.0027518338,0.0012183802,0.0005604989,-0.001382842,-0.00073928665,-0.00048104828,-0.0006107452,-0.0015746827,-0.0021141092,-0.00073054456,-0.0004060603,-0.0005085697,-0.0008256251,-0.0018126684,-0.003775042,-0.00083242485,-0.0010405614,-0.0016305532,-0.0038404877,-0.0037621974,-0.000757113,-0.0014044889,-0.0018262877,-0.002581934,-0.0042460915,-0.002348656,-0.0009312979,-0.0014709911,-0.002362866,-0.0027763355,-0.0026283823,0.0004058699,-0.0018665413,-0.0033062138,-0.0013756346,-0.00050397334,-8.6664195e-06,-2.4882822e-05,1.3422492e-05,3.059282e-05,-4.8745478e-05,8.326033e-06,-3.6228903e-05,-2.2523807e-05,3.5831366e-05,-5.1861785e-05,8.820117e-05,3.992307e-05,4.4379235e-06,1.1136657e-05,5.342312e-05,7.3383075e-05,5.8988095e-05,1.893249e-05,-2.4645215e-05,-3.869621e-05,-2.9383134e-05,2.2593205e-05,4.2463347e-05,1.1592801e-05,-0.00023072303,-0.0009141195,-0.0029130112,-0.0041290075,-0.004102945,-0.0018517339,-0.0005575154,-0.0017139856,-0.003122908,-0.0022940326,-0.0019695046,0.0006048092,-0.00017759671,-0.001120051,-0.001600448,-0.0027263775,0.0032089718,-0.00011956862,-0.0010630883,-0.0006940241,-0.0006315749,-0.0005616163,-0.0018175847,-0.0017999865,-0.00083913596,-0.00025932997,-0.0016072307,-0.005360719,-0.002597008,-0.0051669017,-0.0049191425,-0.00015530792,-0.015624756,-0.010149471,-0.013212295,-0.010501692,0.005408669,-0.0065384773,-0.017046005,-0.01625592,-0.013257023,0.006156605,0.006234901,-0.011173057,-0.014786691,-0.012909929,0.01807438,-0.010229931,-0.012731926,-0.017196449,-0.011506192,-0.0015195861,-0.022745302,-0.018157564,-0.014334319,-0.003404287,-0.012972113,-0.025356947,-0.027771788,-0.024628114,-0.010155177,0.017612983,-0.022390252,-0.020360574,-0.024666272,-0.01679248,0.0009534552,0.0026000175,-0.019117255,-0.021402095,-0.011761899,0.00989906,-0.008549043,-0.023021286,-0.019973814,-0.009860134,-0.0026819059,-0.001540385,-0.0024657233,-0.0042801234,-0.0060448996,0.0009059711,-0.0032174,-0.0043760836,-0.008050391,-0.008078034,-0.0020671592,0.0049098986,-0.0036738052,-0.0068282103,-0.006990185,0.005946413,0.0063071265,-0.002952657,-0.005253067,-0.005899929,-0.0030268533,-0.0064937905,-0.007967038,-0.0074446728,-0.006916084}
};
float conv2_bias[]={
0.0066313483,
-0.0058154664,
-0.0008871178,
-1.2749597e-05,
0.02839209,
0.029099934,
0.038038246,
-0.0050076502,
-4.1914234e-08,
-0.0039024474,
0.008532324,
-8.634458e-06,
0.00041220422,
0.012361102,
0.00026387238,
-0.00027688625,
-0.009411348,
-0.001260085,
0.00797805,
-0.0002620907
};
float fc_weight[][320]={
{-0.009649674,-0.014705362,-0.027245946,0.0029759335,-0.016895471,-0.023802456,-0.02040376,-0.011205609,-0.012689072,-0.02272203,-0.028234016,-0.022207048,-0.000240256,-0.004774922,-0.02128153,0.008918243,0.0038660243,-0.001690083,-0.0016586494,-0.0003680484,0.0027315118,-0.0013770525,-0.0010357702,-0.0024243586,0.0027579165,0.0013977619,0.010808012,0.0011253295,0.003396087,0.010611248,0.019692544,-1.04339384e-10,0.013278174,0.014095032,0.015111203,0.016039794,0.010708196,0.012221887,0.014284873,0.01577394,0.008973254,0.010781154,0.013701475,0.014530045,0.009114188,0.009836094,0.012387665,0.012632735,-7.671528e-13,-6.1321e-41,-3.3405865e-12,-2.3738673e-06,-1.7095438e-10,-6.4937196e-12,-1.4200957e-15,7.660518e-31,-4.0448612e-17,-5.4539484e-09,4.7413455e-26,5.6982193e-36,-1.7494555e-09,-6.669453e-08,9.631873e-26,1.9391848e-25,-0.0070024417,-0.062309816,-0.04693412,-0.033567216,-0.007169125,-0.033621155,-0.04302452,-0.016439997,-0.003125505,-0.003606443,-0.0156371,-0.007593069,0.031664897,0.0029483552,0.0043675257,0.013130217,-0.020736163,-0.044107743,-0.049122803,-0.01755567,-0.011360349,-0.015910244,-0.027645418,-0.017459026,-0.0007463694,0.0028747765,-0.0053958744,-0.0018623977,0.0055651097,0.009838329,0.0059355246,0.027319636,0.032956723,0.08961821,0.08782094,0.01559101,0.062195353,0.11807415,0.09540823,0.03641727,0.070563965,0.122364335,0.10881907,0.040803265,0.041270293,0.08203221,0.07830983,0.023530256,0.024459926,0.00330728,-0.042682625,-0.014066787,-0.0027216445,-0.030387117,-0.09105353,-0.05584615,-0.0015277546,-0.03485838,-0.08104353,-0.05189862,-0.002408936,-0.020008704,-0.060966868,-0.03417512,-1.9362e-41,-5.1126e-41,-6.6703e-41,6.6709e-41,4.3499e-41,2.2258e-41,5.493e-41,5.0996e-41,6.861e-42,-2.4667e-41,-6.9989e-41,-2.3978e-41,5.652e-41,-4.3579e-41,-1.4156e-41,4.2549e-41,-0.0038084134,-0.0018136487,-5.2450927e-05,-1.6853537e-10,-0.008621333,-0.0001769616,-0.0004597869,-1.728646e-06,-0.007903944,-0.0015813053,-5.1424795e-05,-1.503182e-05,-0.00018198074,-0.00058178813,-1.6826067e-06,0.0047761896,0.030799842,0.013144292,-0.016205521,-0.018901069,0.019513154,-0.029596647,-0.061835397,-0.052669555,-0.00453759,-0.020861026,-0.0493007,-0.04764111,-0.020965302,-0.026649967,-0.043205258,-0.039858747,-5.253234e-13,2.0132956e-33,5.754e-41,-7.334e-42,-1.5556296e-07,-7.636053e-17,-6.441332e-38,-6.1e-41,-8.038665e-07,-1.8460254e-10,-2.8980186e-38,-4.2388e-41,-7.9506566e-07,-2.910756e-10,-1.9108e-41,-4.4404e-41,0.011582314,-0.00030719276,-0.00028369203,0.0004554844,0.009471392,-0.000688012,-6.251907e-05,0.00066527136,0.016738849,-0.00061670184,-0.0006318795,0.0009186983,0.015048954,0.0030570894,-0.00052284106,0.0029391977,0.05439109,0.021552969,0.012701592,0.025713827,0.039447747,0.0068151993,-0.012806646,-0.0069332523,0.016032325,-0.010391864,-0.017660309,-0.008827485,0.00891921,-0.026061798,-0.028634304,-0.023125863,-0.0021644912,-0.0006300141,0.00030077068,-0.0006239027,-0.00045519552,-0.00020742958,-0.00025063087,-0.00043417333,0.00023034659,0.0007200938,-0.00044082658,-0.00011554564,0.0035942981,0.0017610347,-0.00015343519,-0.00011207606,-6.2889354e-05,-0.00012634513,-0.00012280265,-0.00010749158,-5.092276e-05,-0.00012949514,-0.00013616197,-9.530109e-05,-2.710725e-05,-7.837437e-05,-6.511912e-05,-9.736471e-06,-2.7777187e-06,-9.368424e-06,-7.134303e-06,-2.8576625e-07,0.0070356457,-0.012508879,-0.024708183,0.006850161,-0.013145371,-0.040019806,-0.056034848,-0.015792707,-0.012766573,-0.028733563,-0.04782951,-0.02780204,-0.0027750747,-0.011809493,-0.025127959,-0.009453479,-0.00029211128,-2.0263793e-05,-0.00045077616,-0.00026297796,-0.00023660024,-0.00011630839,-9.944505e-06,-1.5486648e-05,-0.00015203949,-3.688606e-05,-5.5946403e-09,4.334319e-06,-0.00020132703,-7.135268e-05,-9.421316e-07,-9.580462e-14,0.0035445401,-0.015648078,-0.02464382,-0.027956476,0.021949993,0.03515836,0.019075338,-0.02502813,0.0477301,0.067170404,0.053040676,0.008195976,0.05909656,0.083560996,0.057199545,0.03588419,-0.0005156773,-9.65614e-05,-0.0002562749,-7.4658e-05,-0.00023794055,-4.5647714e-05,-7.5156604e-05,-8.3270555e-05,-0.00027125896,-5.531926e-05,-1.1601252e-05,-1.3164695e-05,-0.00066812546,-0.00014694981,-1.5183963e-05,-2.3028317e-06},
{-0.046277303,-0.009842103,0.01805844,-0.047003664,0.0060869274,0.08773613,-0.05423319,-0.11647846,-0.057517864,0.040244732,-0.04429378,0.019770406,-0.044632565,0.06275091,-0.010857971,0.012774294,-0.025058685,0.03727076,-0.0168801,-0.027124241,0.016938481,0.061893284,0.03114397,0.051118504,0.011256581,-0.016288826,-0.016137118,0.0025532013,0.006725002,-0.021873403,0.004559918,-8.185412e-05,-0.009699279,-0.013009243,-0.01297228,-0.008348779,-0.010557321,-0.013543332,-0.0134931225,-0.010359873,-0.01088045,-0.013335435,-0.013150239,-0.011060125,-0.010556107,-0.013093637,-0.012690064,-0.010810035,3.6927602e-05,-9.011216e-12,-1.9075489e-07,-0.00016698809,1.0046937e-30,-6.10634e-15,-9.809028e-07,-0.00046747332,2.4560243e-06,-4.809775e-07,1.5398445e-20,-0.001053554,2.0912337e-05,8.629493e-06,3.012408e-05,0.00042259388,0.036882132,0.028705044,0.021882327,0.04033661,-0.021060975,-0.032613132,-0.006695931,-0.045852553,-0.040876668,-0.05363723,-0.0089562265,-0.07167363,-0.079459794,-0.037495155,-0.07161123,-0.08585145,0.047395214,-0.016856257,-0.012018172,0.0023665265,0.010538831,0.004490673,-0.070567876,-0.102138095,-0.014454565,-0.01010585,-0.059834737,-0.07612464,-0.06429343,-0.05665563,-0.07304191,-0.079610124,0.041940566,0.06173379,0.0198639,0.058515195,0.014559593,-0.04283552,-0.04028471,-0.039041433,-0.09129253,-0.031169564,-0.030411648,-0.07393066,0.04454454,-0.005400057,-0.022930568,-0.010754742,0.08872348,-0.04229424,-0.058478322,0.06404561,0.020393757,0.0067254477,-0.041036572,0.032899834,0.042329695,-0.014699866,0.044858944,-0.05331205,-0.049018636,-0.0063008163,0.03824268,-0.05691923,-0.0007856187,-0.00080020266,-0.00029574012,5.966854e-05,-0.0013708931,-0.0012849057,0.00050299655,0.00038499548,0.0008596059,-5.5094515e-05,0.0017222725,0.00031792241,0.0005646535,-0.00024286807,2.9520113e-05,1.44224805e-05,-0.0053284424,0.033464894,-0.0016234034,0.012947022,0.04625798,0.014552303,0.02311787,0.03192126,-0.0057912134,0.016115425,0.0011863546,-0.038060658,-0.012037249,0.0063957917,-0.022947786,-0.0014350477,-0.09528757,-0.0999189,-0.07579409,-0.07056467,-0.07669773,-0.012920317,0.0016687263,-0.013926578,0.03533355,0.03816789,0.017519934,0.028638124,0.05686937,-0.07450066,0.024588801,-0.0043366686,-0.00057788135,-0.0012911661,-0.0009711244,-0.00039985654,-0.00027338127,0.00014228567,-0.00030473538,7.755963e-06,0.00034632577,0.0004987706,-0.0002264662,0.0007026441,1.4731161e-05,-0.00016768773,-0.00088226504,0.0002517513,-0.015696727,-0.0030197303,0.00045961124,-0.010800293,0.006842215,-1.8905033e-05,0.0008546931,-0.0005454755,0.008652974,-0.0023908108,0.00043603368,-0.0004418716,-0.0051871366,0.014970568,0.0023148556,-0.00063041406,-0.12115116,-0.0381027,-0.016847689,-0.08150332,-0.05725725,-0.08734769,0.009759254,0.06390102,0.034682646,-0.028087873,0.034987155,0.07131944,0.046056345,-0.09176093,0.012674626,0.008825713,0.0058870735,0.017994296,0.007932023,0.017710615,-0.037758052,0.0015109346,0.0063180528,-4.275012e-05,-0.023801928,-0.0050872425,-3.8849876e-06,-0.00037936727,-0.0040732254,0.00090483215,-2.3407061e-05,-0.00019511828,0.0087669315,0.008526883,0.008701286,0.0103899315,0.009708568,0.008009106,0.008356335,0.01061592,0.007976892,0.0068500736,0.0070199226,0.008218825,0.003979597,0.004822385,0.006453528,0.006319558,-0.04806798,-0.0149780335,0.027204586,-0.0053171706,0.030320806,-0.03548456,-0.05136653,0.012438254,0.05222276,0.017423278,0.023413094,-0.042161975,0.008462722,0.009844531,-0.0663653,-0.034622714,0.00035920093,0.0016157205,-0.00034705934,-0.008104512,-7.02e-43,1.8989758e-06,-0.00042634396,-0.008063743,4.9976e-41,-2.0479e-41,-7.730294e-08,0.0012906017,4.4437e-41,-1.1793e-41,-1.4541043e-13,-0.004158343,0.13436028,-0.00989126,0.029717442,0.08055878,0.09190384,-0.021898806,0.038684726,0.103048675,0.07880886,-0.07040578,-0.04443638,-0.027768347,-0.11295462,0.01754336,-0.047102448,-0.10061615,0.0003260606,0.0014751237,0.000967706,-0.00813317,8.845802e-23,0.00051727396,-1.2870253e-05,-0.023558818,-5.9648e-41,-1.4475e-41,-7.189366e-07,0.013815138,0.00010191224,1.9457936e-07,-4.6511593e-07,0.002480881},
{-0.014975554,-0.0023523232,-0.013500064,-0.04757765,-0.02030137,0.024260808,0.03210039,-0.046807893,-0.009542291,-0.009101133,0.05066733,-0.036246177,-0.0060309744,-0.028899778,0.016318219,-0.023079298,-0.041110862,-0.02243659,0.019925259,-0.01144943,-0.030724421,-0.023163196,0.034460265,-0.002208679,-0.022429047,-0.014353751,-0.010480856,-0.021768922,-0.005881907,-0.0044583725,-0.0076571982,-0.00827215,0.005852085,0.008280944,0.008538615,0.004837125,0.006985908,0.0096817,0.009902268,0.0068437634,0.0074454723,0.009802314,0.009682623,0.007533938,0.0075916597,0.00932106,0.00903518,0.0074978755,-2.5928e-41,-4.2915977e-05,-3.520297e-10,7.6428754e-05,2.5907e-41,-2.0044085e-05,-0.0013691443,0.0014036132,4.0789e-41,-1.5585051e-08,-0.00570522,-0.000119155266,-8.2741235e-07,-2.5161318e-05,-5.1672614e-06,4.2960576e-14,-0.039245296,-0.0038805213,0.016985,-0.05814013,-0.04206659,0.03040359,0.04576547,-0.028616212,-0.028803634,-0.0041748094,-0.01360514,-0.036970176,0.018787816,-0.014074665,-0.018561756,-0.026481474,-0.06247933,-0.020133471,0.005835975,-0.018554516,-0.043265034,-0.0060158293,0.059016034,0.0026754967,-0.036659725,-0.035771605,0.007444953,-0.028203322,-0.004942143,-0.021901513,-0.025026748,-0.018933192,-0.0033582363,-0.011842146,0.011655365,-0.012577059,0.010267154,-0.012770146,0.0035782934,0.027314916,0.04920209,-0.0054010395,-0.010875522,0.050622165,0.023546213,-0.0020508082,-0.017258504,0.023242502,-0.11709239,0.012144619,0.05118274,-0.06990758,-0.16728668,0.02835803,0.08280156,-0.022419358,-0.10169553,-0.013145739,-0.015903443,-0.03868073,-0.010170245,-0.03501582,-0.032303397,-0.0054729814,-1.47997225e-36,-1.7627505e-35,-1.5479e-41,2.0455e-41,-0.00029917865,2.1132681e-20,1.4714e-41,-6.0004e-41,-0.0020164473,1.3683453e-10,1.4993906e-16,-2.7592e-41,-0.0047849733,-0.0007156861,-4.0941373e-10,3.0669e-41,-0.022226494,-0.01634264,-0.013490006,-0.028430665,-0.009636124,0.017545879,-0.009622087,-0.0067158435,-0.010977773,-0.019478152,-0.015066085,-0.020470656,-0.009479397,-0.019918775,-0.028165031,-0.017149061,-0.04209644,-0.059171665,0.005201,-0.01343489,-0.05699322,-0.06643844,0.062336624,0.010627269,-0.03662022,-0.016510297,0.097409934,0.026700912,-0.049672257,-0.019614698,-0.027607098,-0.038805272,-1.3755e-41,-9.889245e-38,-1.8352024e-32,4.3098e-41,-8.400017e-08,-0.00024183656,-0.00012871974,-1.8025163e-06,-0.0012427595,-0.0014781425,-0.00058782473,-9.401688e-06,-0.0006703347,-0.0012568354,-0.00064238685,-3.806943e-07,-0.01572378,-0.013882078,-0.025250662,-0.012734939,-0.023484936,-0.007917401,-0.023838775,-0.020142876,-0.020237315,-0.0021321143,-0.009188995,-0.017087469,-0.026160633,-0.01547631,-0.021862965,-0.021395704,-0.010165295,-0.033982415,0.007942449,0.001202856,-0.03664614,-0.055991843,-0.009028515,-0.030911343,-0.017933007,0.039726153,0.036091194,-0.046106827,-0.007314116,0.048163313,0.009328133,-0.046877727,0.0032103364,-0.00410616,-0.017515535,-0.026726384,0.021356998,0.0039786543,-0.023090493,-0.007549018,-0.0027809837,-0.0031995133,-0.010050955,-0.009873957,-0.007213659,-0.000602372,-0.008620029,-0.0075899577,-0.0022795235,-0.0012603842,-0.0012043868,-0.0027767671,-0.0012613655,0.00027975376,0.00023795498,-0.002206309,0.00046700245,0.0016941458,0.0017584407,-0.00022238908,0.0026552377,0.0025555599,0.0015443115,0.00035753808,-0.027697423,0.032687977,-0.021737574,-0.0650437,-0.04607029,0.069452114,0.034070116,-0.06346765,-0.040661238,0.025593212,0.005978849,-0.053111106,-0.023749601,-0.012382802,-0.022273112,-0.024998715,-0.009745337,-0.009743778,0.0075562936,0.0026879776,-0.010011562,-0.0144785205,0.014405424,0.009418849,-0.0042214575,-0.014041913,0.0045595155,-0.0014129807,-4.3444e-41,3.017e-41,-0.0014053904,-0.008142787,-0.09414169,0.0647058,0.051321268,-0.103699036,-0.09253448,0.07585654,0.07090961,-0.073227234,-0.06291818,-0.045231972,-0.041572243,-0.07896553,0.030916227,-0.0057339314,-0.02430922,-0.009485907,-0.006516897,-0.012458507,0.0007471487,-0.0069468073,-0.01616548,-0.02018344,0.01667563,0.0122305,-0.011527447,-0.021414319,0.015158393,0.0021764447,5.8787e-41,-0.0065310844,-0.00074505276,-0.009838211},
{0.043357655,0.054998703,0.008248043,-0.006486015,0.0655058,0.058861807,-0.0040492923,-0.040034525,0.056583885,0.04538872,0.008672078,-0.025739197,0.047268815,0.02258719,-0.0049531963,-0.031124236,0.0008036099,-5.3737927e-05,-0.0003148562,0.0002811212,-0.0001745405,0.00021647039,0.00012179611,0.0016249851,-0.00010493555,5.1878294e-05,3.429922e-05,6.523984e-05,-1.2247369e-06,1.6387892e-06,0.00037152527,1.1516931e-07,-6.7041324e-11,-7.9962514e-10,-1.2021587e-08,-2.611801e-07,-1.3564251e-14,-4.0990197e-12,-1.9288953e-09,-6.824443e-08,-4.37258e-18,-2.161292e-14,-3.6286144e-10,-4.468424e-09,-3.8960385e-18,-2.4718857e-16,-5.5830774e-12,-1.2070203e-11,1.0194612e-11,-9.338773e-36,5.843126e-11,-1.2637688e-06,1.2064116e-09,4.4588708e-11,7.537903e-13,1.1136342e-17,3.6356437e-15,2.9127362e-08,-1.0724853e-14,-3.5514985e-16,6.710485e-09,2.3127104e-07,2.0642447e-15,8.209962e-17,-0.035257604,0.022781366,0.028595947,0.009079142,-0.0031614203,0.06516159,0.08834601,0.035878006,0.037708715,0.08429098,0.10330642,0.07366334,0.0387465,0.08894118,0.08781339,0.059182014,0.0013154763,0.045433335,0.02205767,-0.008013994,0.044282306,0.087016836,0.06834978,0.028286925,0.071099855,0.1080982,0.08844992,0.056366462,0.053382263,0.081882715,0.072047316,0.028469473,0.0035931643,-0.020815153,-0.020443061,0.029719157,0.0026871655,-0.041968226,-0.03497266,0.032447655,0.0016956194,-0.046434358,-0.038676064,0.021223027,0.018457416,-0.012162731,-0.016046869,0.027513888,0.05840512,-0.035212744,-0.064405195,-0.054712642,0.055612937,-0.067119166,-0.119951524,-0.10274675,0.06222783,-0.058260683,-0.11660617,-0.1037944,0.0761152,0.0030907292,-0.019970443,-0.023353942,-1.1872295e-25,1.6866085e-21,4.648841e-22,3.9126504e-28,-2.0068565e-12,-6.7670765e-12,-8.2919863e-14,1.8021903e-16,-1.7486545e-11,-2.1093268e-11,-5.6067425e-14,1.3096813e-13,-3.1114902e-11,-1.1395171e-10,-1.8498848e-11,1.12869295e-13,0.00013692792,0.00029636236,-0.000164518,-1.0772203e-05,0.00044246225,0.0002447401,0.00057650683,-3.5706813e-05,0.00085533946,0.00043046905,-3.9839008e-05,-3.6944068e-05,1.2216231e-05,3.038491e-05,-7.296892e-06,-1.2263515e-06,0.034165636,0.009688845,-0.0010951065,0.00039003897,0.0074027013,0.037781432,0.043678872,0.041223086,0.03096701,0.055554427,0.045770194,0.030788993,0.039166246,0.037393615,0.04661356,0.042819906,4.0446013e-10,3.6965236e-13,3.2807515e-15,6.688428e-15,1.7897559e-06,4.064153e-09,-8.759518e-09,-2.309307e-09,6.073931e-06,1.4264404e-07,-5.2689682e-08,-1.728024e-08,5.0096965e-06,1.4313984e-07,-1.1912643e-08,-6.779408e-10,0.00053725386,0.0011159952,0.0012216921,0.00019094493,0.0010504525,0.0004691258,0.00049173745,0.00082535954,0.00114204,0.0022969835,0.004420663,0.0020917808,0.00064994616,0.0032203395,0.0045191883,0.00094161666,0.03695789,0.060108554,0.046279907,0.04883364,-0.04234697,-0.009081319,0.043787032,0.083497174,-0.02913558,0.010464901,0.053322773,0.062777914,-0.03461316,-0.016220778,0.024517206,0.030723047,-7.166667e-05,-0.00018155326,-0.00016753317,0.0020266618,0.00032221025,0.00073853554,0.0008174128,0.0015464096,0.00062122574,0.0007731184,0.0013126142,0.0010496204,0.0014417924,0.00124904,0.0004659457,0.0011518834,-0.0006294793,-0.0010344273,-0.0010990838,-0.000981897,-0.00051026494,-0.00093532057,-0.0009892213,-0.00083263416,-0.00031608797,-0.00051786774,-0.0004245717,-0.00011600251,-7.2973235e-05,-8.729462e-05,-4.3672782e-05,-3.3455683e-06,0.011643411,-0.01695398,-0.045146473,-0.030576024,0.016599124,-0.007394476,-0.037200894,-0.054297324,0.028627615,-0.0062978403,-0.02936639,-0.03964565,0.035804607,0.0007174453,-0.018652417,-0.016979858,0.00038427662,2.579256e-05,-0.00017643321,-0.00010628386,0.00035893414,0.0002212932,9.021749e-06,-4.2532815e-06,0.00027759778,8.538171e-05,-5.416074e-07,-9.048192e-07,0.00033410866,0.00010870079,1.8260388e-06,-8.242979e-10,-0.0544358,-0.11470613,-0.068945475,-0.035683863,-0.04017545,-0.09295718,-0.07968397,-0.03140281,-0.033476144,-0.115098216,-0.08859473,-0.020088883,0.0050275307,-0.0039801337,0.019577455,0.025001852,0.00096160267,0.00024692726,0.00017173482,1.8053142e-05,0.0012142643,0.00057471916,9.684481e-05,1.024323e-05,0.0010912728,0.00059491914,2.6982985e-05,1.3335131e-05,0.001647418,0.00066453085,3.868045e-05,-1.9511574e-06},
{0.057633355,-0.030895501,0.019083375,0.04564418,-0.012565951,-0.10997437,0.012615938,0.13343365,0.020819116,-0.013292087,0.011393138,0.036112435,0.029901952,-0.019081865,0.006337361,0.01663371,0.04646852,-0.02572953,0.029086374,0.005467095,0.047294687,-0.018252887,-0.032173295,-0.04329273,0.0035401543,0.03375514,0.019380687,-0.006758325,-0.0006115482,0.015055351,-0.0299744,-0.0055592754,-0.01096504,-0.011858103,-0.013377026,-0.014391096,-0.008537507,-0.010190367,-0.012575511,-0.014143203,-0.007299734,-0.009305488,-0.012130713,-0.013013191,-0.008065989,-0.008635969,-0.010957153,-0.011119413,-2.069863e-28,4.720331e-05,3.807027e-09,0.00033830694,5.826202e-28,1.9204785e-05,0.002095512,0.0019241759,9.938098e-31,8.627407e-08,0.00598203,0.0013153034,-4.2563033e-07,1.9184734e-05,6.503505e-06,-7.823438e-13,0.07593619,0.03239959,0.06147576,0.053551227,0.09601013,0.01771972,-0.060037043,0.049537286,0.02093698,0.027245963,-0.039684225,0.024633147,0.0077246483,-0.03668308,0.006431649,0.066422485,0.06512764,0.022976901,0.05922632,0.015406712,0.06279576,-0.04189789,0.0014690859,0.02979805,0.022461047,-0.043789424,-0.014849818,0.0112502165,0.059316326,0.02236348,0.060312565,0.07703464,-0.08839512,-0.07833076,-0.07075825,-0.12069358,-0.06985523,-0.018644352,-0.03792708,-0.10191972,-0.035681963,-0.039501563,-0.0341328,-0.04872825,-0.08355242,-0.057730053,-0.013477099,-0.05899128,-0.08410874,-0.011868394,-0.059111144,-0.046347443,-0.030178625,-0.028628364,0.02713952,-0.0043573887,0.013580813,-0.018570008,-0.017798712,0.039592206,0.023924636,-0.038984302,-0.1098381,-0.05623688,-4.1742909e-13,-8.2722613e-11,-6.838584e-12,-2.9653147e-18,0.00068434904,2.7700725e-07,-1.4321907e-08,-9.3182864e-11,0.0009201668,-1.4517198e-06,-5.1144366e-07,-6.980958e-10,0.001848929,0.00082480133,6.5799134e-07,2.7079263e-09,0.006053314,0.023213254,0.03642165,0.031942334,-0.011459062,0.0027249746,-0.0027814072,0.012904241,0.007430104,-0.01893549,0.034510065,0.023729557,-0.002367199,0.026475444,0.018549772,0.008742485,0.04136669,0.06389413,0.015288628,0.026483197,0.10396411,0.042136937,0.0036092838,-0.07860018,0.042371243,-0.033433825,-0.053367388,-0.035712563,0.024986103,0.091952145,0.030618044,-0.011387317,-3.8574855e-11,-2.6292708e-09,-3.270605e-08,-7.335489e-09,3.796254e-07,0.00021359666,0.00036311362,2.836388e-05,0.0005601119,0.0012419984,0.0015415273,4.893269e-05,0.0009782349,0.0016702102,0.0011933594,9.3872177e-07,0.029713241,0.008537405,0.0050836196,0.01685534,-0.0038358197,0.0021000456,-0.013312475,0.022554476,-0.016365515,-0.01351347,-0.018003931,0.010299949,0.036618114,-0.034531426,0.0059176837,0.009214185,-0.012879296,-0.016409189,-0.002470856,-0.021964623,0.08756265,0.08631614,0.012923191,-0.09930971,-0.028005233,-0.025122598,-0.08197661,-0.031259265,-0.010854183,0.07147706,-0.031283535,0.027939845,0.008192608,0.01395189,0.021895362,0.0046311216,0.028546307,0.010913555,0.002106613,0.00450399,0.018030055,0.004444686,0.00083272724,-0.0047877287,-0.0062337085,-0.006174753,-0.0022312019,-0.0020404635,-0.0035919186,-0.0057977824,-0.0051180315,-0.004075386,-0.0070998864,-0.007526442,-0.0068757185,-0.0058758804,-0.009979472,-0.008709737,-0.00830935,-0.0069723995,-0.007909622,-0.008021532,-0.007749265,-0.006870703,-0.008154486,-0.005537584,0.028774558,0.063506864,-0.008156224,-0.01747678,0.0068810354,0.040316656,-0.009808869,0.0053984895,-0.023499006,0.04203479,0.013156948,-0.014345525,-0.025672363,-0.0116917705,0.005342371,0.004466947,0.0010164259,0.010266213,0.005914333,0.010273347,0.014044765,0.006829048,0.002311705,0.009490527,0.01815462,0.0017984124,-2.1368e-41,5.8377e-41,0.0012751635,0.0025909187,-0.041364547,0.03258284,-0.009077077,0.0013809651,-0.04481717,-0.0033710748,-0.08196484,-0.11933548,0.007516408,0.06549697,0.01014222,-0.018921351,-0.000668207,-0.12975687,-0.13508262,0.03723976,0.003917088,0.0028771483,0.0026535923,0.022620546,0.0023692227,0.0023479536,0.0133338515,0.0052688844,0.0006559925,0.002460597,0.016410444,-0.010506575,-1.4976484e-17,0.00028954959,0.00014421441,0.012870956},
